<?xml version="1.0"?>
<opencv_storage>
<cascade>
  <stageType>BOOST</stageType>
  <featureType>HAAR</featureType>
  <height>20</height>
  <width>20</width>
  <stageParams>
    <boostType>GAB</boostType>
    <minHitRate>9.9500000476837158e-01</minHitRate>
    <maxFalseAlarm>5.0000000000000000e-01</maxFalseAlarm>
    <weightTrimRate>9.4999999999999996e-01</weightTrimRate>
    <maxDepth>1</maxDepth>
    <maxWeakCount>100</maxWeakCount></stageParams>
  <featureParams>
    <maxCatCount>0</maxCatCount>
    <featSize>1</featSize>
    <mode>BASIC</mode></featureParams>
  <stageNum>10</stageNum>
  <stages>
    <!-- stage 0 -->
    <_>
      <maxWeakCount>27</maxWeakCount>
      <stageThreshold>-1.1365894079208374e+00</stageThreshold>
      <weakClassifiers>
        <_>
          <internalNodes>
            0 -1 96 -2.4395868182182312e-02</internalNodes>
          <leafValues>
            5.5736136436462402e-01 -4.7301137447357178e-01</leafValues></_>
        <_>
          <internalNodes>
            0 -1 221 -2.7367126196622849e-02</internalNodes>
          <leafValues>
            6.8700259923934937e-01 -1.5069037675857544e-01</leafValues></_>
        <_>
          <internalNodes>
            0 -1 417 8.8032701751217246e-04</internalNodes>
          <leafValues>
            -2.7032741904258728e-01 2.7484041452407837e-01</leafValues></_>
        <_>
          <internalNodes>
            0 -1 134 -1.6373646259307861e-01</internalNodes>
          <leafValues>
            5.6488233804702759e-01 -1.3287642598152161e-01</leafValues></_>
        <_>
          <internalNodes>
            0 -1 338 1.3658097013831139e-03</internalNodes>
          <leafValues>
            -1.8204556405544281e-01 3.2827514410018921e-01</leafValues></_>
        <_>
          <internalNodes>
            0 -1 263 1.5919167548418045e-02</internalNodes>
          <leafValues>
            -1.1131788790225983e-01 3.9292168617248535e-01</leafValues></_>
        <_>
          <internalNodes>
            0 -1 364 1.5070233494043350e-02</internalNodes>
          <leafValues>
            -1.1839955300092697e-01 4.1780665516853333e-01</leafValues></_>
        <_>
          <internalNodes>
            0 -1 292 5.2562825381755829e-02</internalNodes>
          <leafValues>
            5.5075399577617645e-02 -7.7971303462982178e-01</leafValues></_>
        <_>
          <internalNodes>
            0 -1 197 7.0221065543591976e-03</internalNodes>
          <leafValues>
            -1.3420419394969940e-01 3.2196366786956787e-01</leafValues></_>
        <_>
          <internalNodes>
            0 -1 157 -2.3479498922824860e-02</internalNodes>
          <leafValues>
            4.0312743186950684e-01 -9.7646020352840424e-02</leafValues></_>
        <_>
          <internalNodes>
            0 -1 312 1.2783242389559746e-02</internalNodes>
          <leafValues>
            -1.5415194630622864e-01 3.3035233616828918e-01</leafValues></_>
        <_>
          <internalNodes>
            0 -1 391 2.2117815911769867e-02</internalNodes>
          <leafValues>
            1.0237853974103928e-01 -4.9043023586273193e-01</leafValues></_>
        <_>
          <internalNodes>
            0 -1 312 -3.8127213716506958e-02</internalNodes>
          <leafValues>
            5.3189390897750854e-01 -9.0751104056835175e-02</leafValues></_>
        <_>
          <internalNodes>
            0 -1 68 3.2607642933726311e-03</internalNodes>
          <leafValues>
            1.4101648330688477e-01 -2.8906172513961792e-01</leafValues></_>
        <_>
          <internalNodes>
            0 -1 250 3.8922568783164024e-03</internalNodes>
          <leafValues>
            -1.3600656390190125e-01 2.6586097478866577e-01</leafValues></_>
        <_>
          <internalNodes>
            0 -1 326 -6.2485947273671627e-03</internalNodes>
          <leafValues>
            -7.4543112516403198e-01 7.2828203439712524e-02</leafValues></_>
        <_>
          <internalNodes>
            0 -1 494 -2.6288141962140799e-03</internalNodes>
          <leafValues>
            3.2012617588043213e-01 -1.5158614516258240e-01</leafValues></_>
        <_>
          <internalNodes>
            0 -1 597 -2.1754086017608643e-02</internalNodes>
          <leafValues>
            2.9209655523300171e-01 -1.0117894411087036e-01</leafValues></_>
        <_>
          <internalNodes>
            0 -1 276 2.9606286436319351e-02</internalNodes>
          <leafValues>
            -1.4100141823291779e-01 3.1431671977043152e-01</leafValues></_>
        <_>
          <internalNodes>
            0 -1 479 -4.5763896778225899e-03</internalNodes>
          <leafValues>
            2.9394388198852539e-01 -1.5003275871276855e-01</leafValues></_>
        <_>
          <internalNodes>
            0 -1 249 2.8145234100520611e-03</internalNodes>
          <leafValues>
            -1.0993168503046036e-01 3.2612961530685425e-01</leafValues></_>
        <_>
          <internalNodes>
            0 -1 436 -5.1301484927535057e-03</internalNodes>
          <leafValues>
            -5.8797746896743774e-01 6.7040152847766876e-02</leafValues></_>
        <_>
          <internalNodes>
            0 -1 169 1.3197769876569510e-03</internalNodes>
          <leafValues>
            -1.7879478633403778e-01 2.0275940001010895e-01</leafValues></_>
        <_>
          <internalNodes>
            0 -1 331 4.3373317457735538e-03</internalNodes>
          <leafValues>
            6.8311855196952820e-02 -6.3089489936828613e-01</leafValues></_>
        <_>
          <internalNodes>
            0 -1 53 6.7123104818165302e-03</internalNodes>
          <leafValues>
            -1.1843318492174149e-01 3.1029561161994934e-01</leafValues></_>
        <_>
          <internalNodes>
            0 -1 374 6.3701802864670753e-03</internalNodes>
          <leafValues>
            -1.0992763191461563e-01 3.1656682491302490e-01</leafValues></_>
        <_>
          <internalNodes>
            0 -1 127 7.3360884562134743e-03</internalNodes>
          <leafValues>
            -1.0598769038915634e-01 3.2664951682090759e-01</leafValues></_></weakClassifiers></_>
    <!-- stage 1 -->
    <_>
      <maxWeakCount>45</maxWeakCount>
      <stageThreshold>-1.0966989994049072e+00</stageThreshold>
      <weakClassifiers>
        <_>
          <internalNodes>
            0 -1 72 -2.2231105715036392e-02</internalNodes>
          <leafValues>
            4.4403329491615295e-01 -3.4379670023918152e-01</leafValues></_>
        <_>
          <internalNodes>
            0 -1 271 -2.4063542485237122e-02</internalNodes>
          <leafValues>
            4.9700546264648438e-01 -2.2437797486782074e-01</leafValues></_>
        <_>
          <internalNodes>
            0 -1 438 1.2750865425914526e-03</internalNodes>
          <leafValues>
            -1.6047491133213043e-01 3.2358121871948242e-01</leafValues></_>
        <_>
          <internalNodes>
            0 -1 339 2.3789741098880768e-03</internalNodes>
          <leafValues>
            -2.0024023950099945e-01 2.6344403624534607e-01</leafValues></_>
        <_>
          <internalNodes>
            0 -1 454 1.3834891840815544e-02</internalNodes>
          <leafValues>
            -1.7248755693435669e-01 3.0276161432266235e-01</leafValues></_>
        <_>
          <internalNodes>
            0 -1 428 -7.8806485980749130e-03</internalNodes>
          <leafValues>
            -4.8252958059310913e-01 1.0901612043380737e-01</leafValues></_>
        <_>
          <internalNodes>
            0 -1 426 -4.0310486219823360e-03</internalNodes>
          <leafValues>
            -5.2725684642791748e-01 8.4249086678028107e-02</leafValues></_>
        <_>
          <internalNodes>
            0 -1 414 1.2232499197125435e-02</internalNodes>
          <leafValues>
            -1.3878646492958069e-01 3.1102642416954041e-01</leafValues></_>
        <_>
          <internalNodes>
            0 -1 7 -4.7558930516242981e-01</internalNodes>
          <leafValues>
            -8.4690845012664795e-01 2.7498733252286911e-02</leafValues></_>
        <_>
          <internalNodes>
            0 -1 385 3.9523825049400330e-02</internalNodes>
          <leafValues>
            6.0532487928867340e-02 -5.9160971641540527e-01</leafValues></_>
        <_>
          <internalNodes>
            0 -1 413 -3.0402338597923517e-03</internalNodes>
          <leafValues>
            -4.7403806447982788e-01 7.6814517378807068e-02</leafValues></_>
        <_>
          <internalNodes>
            0 -1 311 1.4297228306531906e-02</internalNodes>
          <leafValues>
            -8.7185844779014587e-02 4.1372480988502502e-01</leafValues></_>
        <_>
          <internalNodes>
            0 -1 407 3.1683528795838356e-03</internalNodes>
          <leafValues>
            -1.0981827974319458e-01 3.0055069923400879e-01</leafValues></_>
        <_>
          <internalNodes>
            0 -1 167 1.1091095954179764e-01</internalNodes>
          <leafValues>
            5.6553456932306290e-02 -6.4405512809753418e-01</leafValues></_>
        <_>
          <internalNodes>
            0 -1 397 1.5688844723626971e-03</internalNodes>
          <leafValues>
            -1.8902051448822021e-01 1.6522166132926941e-01</leafValues></_>
        <_>
          <internalNodes>
            0 -1 442 4.7237975522875786e-03</internalNodes>
          <leafValues>
            4.7098726034164429e-02 -6.7589443922042847e-01</leafValues></_>
        <_>
          <internalNodes>
            0 -1 59 4.8129275441169739e-02</internalNodes>
          <leafValues>
            -9.0868577361106873e-02 3.4161725640296936e-01</leafValues></_>
        <_>
          <internalNodes>
            0 -1 145 -1.3981429859995842e-02</internalNodes>
          <leafValues>
            4.3434393405914307e-01 -7.5470656156539917e-02</leafValues></_>
        <_>
          <internalNodes>
            0 -1 3 -1.3562109321355820e-02</internalNodes>
          <leafValues>
            -3.6601436138153076e-01 8.7746135890483856e-02</leafValues></_>
        <_>
          <internalNodes>
            0 -1 244 -3.2199583947658539e-02</internalNodes>
          <leafValues>
            6.7225366830825806e-01 -4.3804291635751724e-02</leafValues></_>
        <_>
          <internalNodes>
            0 -1 243 2.2657902445644140e-03</internalNodes>
          <leafValues>
            -1.3478074967861176e-01 2.6363989710807800e-01</leafValues></_>
        <_>
          <internalNodes>
            0 -1 429 7.3850327171385288e-03</internalNodes>
          <leafValues>
            -1.1532279849052429e-01 2.6804628968238831e-01</leafValues></_>
        <_>
          <internalNodes>
            0 -1 586 -3.9801448583602905e-02</internalNodes>
          <leafValues>
            4.0020066499710083e-01 -8.9486017823219299e-02</leafValues></_>
        <_>
          <internalNodes>
            0 -1 608 -5.7874079793691635e-03</internalNodes>
          <leafValues>
            -4.1225743293762207e-01 7.8183799982070923e-02</leafValues></_>
        <_>
          <internalNodes>
            0 -1 506 1.9920259714126587e-02</internalNodes>
          <leafValues>
            -9.7776696085929871e-02 2.9896876215934753e-01</leafValues></_>
        <_>
          <internalNodes>
            0 -1 343 1.7129485495388508e-03</internalNodes>
          <leafValues>
            -1.1434031277894974e-01 2.4905459582805634e-01</leafValues></_>
        <_>
          <internalNodes>
            0 -1 322 -2.8929135296493769e-03</internalNodes>
          <leafValues>
            3.2391703128814697e-01 -9.3026883900165558e-02</leafValues></_>
        <_>
          <internalNodes>
            0 -1 440 -3.5906017292290926e-03</internalNodes>
          <leafValues>
            -4.8997801542282104e-01 7.0024468004703522e-02</leafValues></_>
        <_>
          <internalNodes>
            0 -1 11 -1.3056340813636780e-01</internalNodes>
          <leafValues>
            5.2228653430938721e-01 -6.5081603825092316e-02</leafValues></_>
        <_>
          <internalNodes>
            0 -1 90 5.3158685564994812e-02</internalNodes>
          <leafValues>
            -7.6224401593208313e-02 4.3715098500251770e-01</leafValues></_>
        <_>
          <internalNodes>
            0 -1 83 -8.0684218555688858e-03</internalNodes>
          <leafValues>
            2.7716395258903503e-01 -9.5695815980434418e-02</leafValues></_>
        <_>
          <internalNodes>
            0 -1 168 -2.2977691143751144e-02</internalNodes>
          <leafValues>
            -6.7812675237655640e-01 4.4425316154956818e-02</leafValues></_>
        <_>
          <internalNodes>
            0 -1 367 2.9701953753829002e-03</internalNodes>
          <leafValues>
            6.2772557139396667e-02 -3.9400151371955872e-01</leafValues></_>
        <_>
          <internalNodes>
            0 -1 605 -2.6225409237667918e-04</internalNodes>
          <leafValues>
            -1.8933443725109100e-01 1.4733009040355682e-01</leafValues></_>
        <_>
          <internalNodes>
            0 -1 79 1.3732946477830410e-02</internalNodes>
          <leafValues>
            -1.1119473725557327e-01 2.5213733315467834e-01</leafValues></_>
        <_>
          <internalNodes>
            0 -1 264 3.4992177039384842e-02</internalNodes>
          <leafValues>
            -6.6151700913906097e-02 3.9951863884925842e-01</leafValues></_>
        <_>
          <internalNodes>
            0 -1 327 8.6733102798461914e-03</internalNodes>
          <leafValues>
            4.4617895036935806e-02 -7.0544552803039551e-01</leafValues></_>
        <_>
          <internalNodes>
            0 -1 252 -4.0432871319353580e-03</internalNodes>
          <leafValues>
            -3.7588718533515930e-01 6.8546645343303680e-02</leafValues></_>
        <_>
          <internalNodes>
            0 -1 518 -1.5599372796714306e-02</internalNodes>
          <leafValues>
            2.3456910252571106e-01 -1.1551677435636520e-01</leafValues></_>
        <_>
          <internalNodes>
            0 -1 296 5.1480922847986221e-03</internalNodes>
          <leafValues>
            -8.7350189685821533e-02 2.8679144382476807e-01</leafValues></_>
        <_>
          <internalNodes>
            0 -1 122 -3.4144497476518154e-03</internalNodes>
          <leafValues>
            -2.1492119133472443e-01 1.1842673271894455e-01</leafValues></_>
        <_>
          <internalNodes>
            0 -1 202 -6.9169225171208382e-03</internalNodes>
          <leafValues>
            -3.8838991522789001e-01 6.2340039759874344e-02</leafValues></_>
        <_>
          <internalNodes>
            0 -1 408 2.2045022342354059e-03</internalNodes>
          <leafValues>
            -1.0318889468908310e-01 2.4185666441917419e-01</leafValues></_>
        <_>
          <internalNodes>
            0 -1 422 -1.4370274730026722e-03</internalNodes>
          <leafValues>
            2.3484444618225098e-01 -1.2125291675329208e-01</leafValues></_>
        <_>
          <internalNodes>
            0 -1 416 4.8805470578372478e-03</internalNodes>
          <leafValues>
            5.8280348777770996e-02 -5.1632404327392578e-01</leafValues></_></weakClassifiers></_>
    <!-- stage 2 -->
    <_>
      <maxWeakCount>59</maxWeakCount>
      <stageThreshold>-1.0918315649032593e+00</stageThreshold>
      <weakClassifiers>
        <_>
          <internalNodes>
            0 -1 63 -6.5427735447883606e-02</internalNodes>
          <leafValues>
            4.7362977266311646e-01 -2.6564496755599976e-01</leafValues></_>
        <_>
          <internalNodes>
            0 -1 273 -3.2520543783903122e-02</internalNodes>
          <leafValues>
            4.7572493553161621e-01 -1.2906810641288757e-01</leafValues></_>
        <_>
          <internalNodes>
            0 -1 349 5.5571511387825012e-02</internalNodes>
          <leafValues>
            -9.7512431442737579e-02 4.1629910469055176e-01</leafValues></_>
        <_>
          <internalNodes>
            0 -1 402 -4.5241143554449081e-02</internalNodes>
          <leafValues>
            3.6667162179946899e-01 -1.2759160995483398e-01</leafValues></_>
        <_>
          <internalNodes>
            0 -1 435 -3.2361252233386040e-03</internalNodes>
          <leafValues>
            -6.0365188121795654e-01 5.6145537644624710e-02</leafValues></_>
        <_>
          <internalNodes>
            0 -1 447 4.4292965903878212e-03</internalNodes>
          <leafValues>
            -1.1079500615596771e-01 2.9901608824729919e-01</leafValues></_>
        <_>
          <internalNodes>
            0 -1 423 -2.9301776085048914e-03</internalNodes>
          <leafValues>
            -4.8676100373268127e-01 6.4406499266624451e-02</leafValues></_>
        <_>
          <internalNodes>
            0 -1 418 -3.2776021398603916e-03</internalNodes>
          <leafValues>
            -3.3627030253410339e-01 1.0384552180767059e-01</leafValues></_>
        <_>
          <internalNodes>
            0 -1 272 2.0918760448694229e-02</internalNodes>
          <leafValues>
            -1.0341926664113998e-01 3.7003386020660400e-01</leafValues></_>
        <_>
          <internalNodes>
            0 -1 568 5.8093443512916565e-03</internalNodes>
          <leafValues>
            8.8804543018341064e-02 -4.3134751915931702e-01</leafValues></_>
        <_>
          <internalNodes>
            0 -1 318 1.3629246503114700e-02</internalNodes>
          <leafValues>
            -1.6627429425716400e-01 2.0561668276786804e-01</leafValues></_>
        <_>
          <internalNodes>
            0 -1 553 8.4485020488500595e-03</internalNodes>
          <leafValues>
            1.0988722741603851e-01 -3.0992287397384644e-01</leafValues></_>
        <_>
          <internalNodes>
            0 -1 469 -3.9452151395380497e-03</internalNodes>
          <leafValues>
            2.9370898008346558e-01 -1.2129714339971542e-01</leafValues></_>
        <_>
          <internalNodes>
            0 -1 427 7.1372959064319730e-04</internalNodes>
          <leafValues>
            -1.9499194622039795e-01 1.4958569407463074e-01</leafValues></_>
        <_>
          <internalNodes>
            0 -1 439 -2.2503286600112915e-03</internalNodes>
          <leafValues>
            2.4139222502708435e-01 -1.2966363131999969e-01</leafValues></_>
        <_>
          <internalNodes>
            0 -1 193 -1.4124013483524323e-02</internalNodes>
          <leafValues>
            2.7685397863388062e-01 -1.0684378445148468e-01</leafValues></_>
        <_>
          <internalNodes>
            0 -1 366 -3.5463077947497368e-03</internalNodes>
          <leafValues>
            -4.2363479733467102e-01 7.7106110751628876e-02</leafValues></_>
        <_>
          <internalNodes>
            0 -1 599 -6.2590129673480988e-02</internalNodes>
          <leafValues>
            4.0255770087242126e-01 -7.5466334819793701e-02</leafValues></_>
        <_>
          <internalNodes>
            0 -1 298 3.5634669475257397e-03</internalNodes>
          <leafValues>
            -1.2767630815505981e-01 2.1517157554626465e-01</leafValues></_>
        <_>
          <internalNodes>
            0 -1 350 -1.4233317226171494e-02</internalNodes>
          <leafValues>
            2.0325870811939240e-01 -1.2113225460052490e-01</leafValues></_>
        <_>
          <internalNodes>
            0 -1 503 -9.4293104484677315e-04</internalNodes>
          <leafValues>
            1.9487649202346802e-01 -1.3149484992027283e-01</leafValues></_>
        <_>
          <internalNodes>
            0 -1 237 8.2552574574947357e-02</internalNodes>
          <leafValues>
            4.9956612288951874e-02 -5.4331791400909424e-01</leafValues></_>
        <_>
          <internalNodes>
            0 -1 132 -8.5793472826480865e-03</internalNodes>
          <leafValues>
            -4.0112286806106567e-01 5.2178580313920975e-02</leafValues></_>
        <_>
          <internalNodes>
            0 -1 470 -1.0746239684522152e-02</internalNodes>
          <leafValues>
            -5.1999676227569580e-01 4.2132720351219177e-02</leafValues></_>
        <_>
          <internalNodes>
            0 -1 156 1.0072439908981323e-02</internalNodes>
          <leafValues>
            -9.4592526555061340e-02 2.3572270572185516e-01</leafValues></_>
        <_>
          <internalNodes>
            0 -1 310 8.3226254209876060e-03</internalNodes>
          <leafValues>
            -1.1645917594432831e-01 2.2813491523265839e-01</leafValues></_>
        <_>
          <internalNodes>
            0 -1 527 -2.9485648497939110e-02</internalNodes>
          <leafValues>
            -7.4889922142028809e-01 3.6357522010803223e-02</leafValues></_>
        <_>
          <internalNodes>
            0 -1 304 3.7443926557898521e-03</internalNodes>
          <leafValues>
            -1.1509194225072861e-01 2.4349132180213928e-01</leafValues></_>
        <_>
          <internalNodes>
            0 -1 502 3.4725340083241463e-03</internalNodes>
          <leafValues>
            4.1218888014554977e-02 -6.0800969600677490e-01</leafValues></_>
        <_>
          <internalNodes>
            0 -1 121 1.2427243590354919e-01</internalNodes>
          <leafValues>
            3.0668575316667557e-02 -6.5085047483444214e-01</leafValues></_>
        <_>
          <internalNodes>
            0 -1 433 9.8449969664216042e-04</internalNodes>
          <leafValues>
            -1.2936562299728394e-01 1.7310670018196106e-01</leafValues></_>
        <_>
          <internalNodes>
            0 -1 395 -3.1895528081804514e-03</internalNodes>
          <leafValues>
            2.3361989855766296e-01 -1.1031416058540344e-01</leafValues></_>
        <_>
          <internalNodes>
            0 -1 485 -4.4386036694049835e-02</internalNodes>
          <leafValues>
            -5.9420585632324219e-01 4.7709684818983078e-02</leafValues></_>
        <_>
          <internalNodes>
            0 -1 462 1.2871352955698967e-02</internalNodes>
          <leafValues>
            4.8977207392454147e-02 -4.1304570436477661e-01</leafValues></_>
        <_>
          <internalNodes>
            0 -1 117 1.0606297291815281e-02</internalNodes>
          <leafValues>
            -9.1418996453285217e-02 2.3450253903865814e-01</leafValues></_>
        <_>
          <internalNodes>
            0 -1 87 1.6475267708301544e-02</internalNodes>
          <leafValues>
            -5.2216555923223495e-02 4.4799232482910156e-01</leafValues></_>
        <_>
          <internalNodes>
            0 -1 115 1.4473728835582733e-02</internalNodes>
          <leafValues>
            -8.2082800567150116e-02 2.8881782293319702e-01</leafValues></_>
        <_>
          <internalNodes>
            0 -1 140 6.3579706475138664e-03</internalNodes>
          <leafValues>
            6.2837675213813782e-02 -3.9624574780464172e-01</leafValues></_>
        <_>
          <internalNodes>
            0 -1 609 -4.7207377065205947e-05</internalNodes>
          <leafValues>
            -1.5585713088512421e-01 1.3828772306442261e-01</leafValues></_>
        <_>
          <internalNodes>
            0 -1 159 -1.0320927947759628e-02</internalNodes>
          <leafValues>
            -6.3653820753097534e-01 3.5528991371393204e-02</leafValues></_>
        <_>
          <internalNodes>
            0 -1 612 -8.6397171253338456e-04</internalNodes>
          <leafValues>
            -2.0945176482200623e-01 1.1381964385509491e-01</leafValues></_>
        <_>
          <internalNodes>
            0 -1 458 -9.5197651535272598e-04</internalNodes>
          <leafValues>
            2.3589886724948883e-01 -9.4932779669761658e-02</leafValues></_>
        <_>
          <internalNodes>
            0 -1 413 1.7385948449373245e-03</internalNodes>
          <leafValues>
            6.7678399384021759e-02 -3.2543417811393738e-01</leafValues></_>
        <_>
          <internalNodes>
            0 -1 306 -3.8028750568628311e-03</internalNodes>
          <leafValues>
            -4.0159234404563904e-01 4.9987036734819412e-02</leafValues></_>
        <_>
          <internalNodes>
            0 -1 303 -2.1468205377459526e-03</internalNodes>
          <leafValues>
            2.6689743995666504e-01 -8.5610315203666687e-02</leafValues></_>
        <_>
          <internalNodes>
            0 -1 294 1.4241798780858517e-03</internalNodes>
          <leafValues>
            -1.1172633618116379e-01 1.9034110009670258e-01</leafValues></_>
        <_>
          <internalNodes>
            0 -1 269 -5.9589757584035397e-03</internalNodes>
          <leafValues>
            -5.2057093381881714e-01 4.1505668312311172e-02</leafValues></_>
        <_>
          <internalNodes>
            0 -1 595 1.1849463731050491e-01</internalNodes>
          <leafValues>
            -3.7272188812494278e-02 6.1579728126525879e-01</leafValues></_>
        <_>
          <internalNodes>
            0 -1 94 -6.6231829114258289e-03</internalNodes>
          <leafValues>
            2.2886469960212708e-01 -1.0056453943252563e-01</leafValues></_>
        <_>
          <internalNodes>
            0 -1 244 -3.4351527690887451e-02</internalNodes>
          <leafValues>
            6.4944791793823242e-01 -3.8047950714826584e-02</leafValues></_>
        <_>
          <internalNodes>
            0 -1 511 -3.4753964282572269e-03</internalNodes>
          <leafValues>
            -7.2781133651733398e-01 3.0705234035849571e-02</leafValues></_>
        <_>
          <internalNodes>
            0 -1 378 2.0332005806267262e-03</internalNodes>
          <leafValues>
            -1.2505295872688293e-01 1.7629392445087433e-01</leafValues></_>
        <_>
          <internalNodes>
            0 -1 154 1.4781037345528603e-02</internalNodes>
          <leafValues>
            5.3055457770824432e-02 -4.2466625571250916e-01</leafValues></_>
        <_>
          <internalNodes>
            0 -1 577 3.2181984279304743e-03</internalNodes>
          <leafValues>
            -1.2225691974163055e-01 1.7260603606700897e-01</leafValues></_>
        <_>
          <internalNodes>
            0 -1 38 -1.7231565713882446e-01</internalNodes>
          <leafValues>
            7.5809651613235474e-01 -2.5425277650356293e-02</leafValues></_>
        <_>
          <internalNodes>
            0 -1 530 -3.6592609249055386e-03</internalNodes>
          <leafValues>
            2.3427736759185791e-01 -7.9266987740993500e-02</leafValues></_>
        <_>
          <internalNodes>
            0 -1 261 -1.3558788225054741e-02</internalNodes>
          <leafValues>
            2.2842215001583099e-01 -9.0436592698097229e-02</leafValues></_>
        <_>
          <internalNodes>
            0 -1 451 1.1714641004800797e-03</internalNodes>
          <leafValues>
            -1.1484634131193161e-01 1.7897069454193115e-01</leafValues></_>
        <_>
          <internalNodes>
            0 -1 319 -1.8007356673479080e-02</internalNodes>
          <leafValues>
            -4.9771794676780701e-01 3.9800051599740982e-02</leafValues></_></weakClassifiers></_>
    <!-- stage 3 -->
    <_>
      <maxWeakCount>63</maxWeakCount>
      <stageThreshold>-9.0036696195602417e-01</stageThreshold>
      <weakClassifiers>
        <_>
          <internalNodes>
            0 -1 111 -2.0370408892631531e-03</internalNodes>
          <leafValues>
            3.5579293966293335e-01 -3.4333959221839905e-01</leafValues></_>
        <_>
          <internalNodes>
            0 -1 371 -8.2614049315452576e-03</internalNodes>
          <leafValues>
            3.9624753594398499e-01 -1.7915695905685425e-01</leafValues></_>
        <_>
          <internalNodes>
            0 -1 400 8.2090822979807854e-04</internalNodes>
          <leafValues>
            -2.3476633429527283e-01 1.7690418660640717e-01</leafValues></_>
        <_>
          <internalNodes>
            0 -1 386 2.7077207341790199e-03</internalNodes>
          <leafValues>
            -1.1140776425600052e-01 3.1376335024833679e-01</leafValues></_>
        <_>
          <internalNodes>
            0 -1 166 2.1615496370941401e-03</internalNodes>
          <leafValues>
            1.2597237527370453e-01 -2.4553255736827850e-01</leafValues></_>
        <_>
          <internalNodes>
            0 -1 375 1.2104427441954613e-02</internalNodes>
          <leafValues>
            -1.3097371160984039e-01 2.6686808466911316e-01</leafValues></_>
        <_>
          <internalNodes>
            0 -1 334 8.3944164216518402e-03</internalNodes>
          <leafValues>
            -9.3892894685268402e-02 2.6770207285881042e-01</leafValues></_>
        <_>
          <internalNodes>
            0 -1 495 -9.7720948979258537e-03</internalNodes>
          <leafValues>
            2.5090497732162476e-01 -1.4390225708484650e-01</leafValues></_>
        <_>
          <internalNodes>
            0 -1 316 2.4014586582779884e-02</internalNodes>
          <leafValues>
            8.9736893773078918e-02 -4.3154045939445496e-01</leafValues></_>
        <_>
          <internalNodes>
            0 -1 437 2.2863321937620640e-03</internalNodes>
          <leafValues>
            -1.6010870039463043e-01 2.0403607189655304e-01</leafValues></_>
        <_>
          <internalNodes>
            0 -1 12 -2.8740778565406799e-01</internalNodes>
          <leafValues>
            3.7883326411247253e-01 -8.4347479045391083e-02</leafValues></_>
        <_>
          <internalNodes>
            0 -1 456 1.1570585891604424e-02</internalNodes>
          <leafValues>
            -1.1952140182256699e-01 2.6029917597770691e-01</leafValues></_>
        <_>
          <internalNodes>
            0 -1 360 -5.4534706287086010e-03</internalNodes>
          <leafValues>
            2.5225648283958435e-01 -1.1604615300893784e-01</leafValues></_>
        <_>
          <internalNodes>
            0 -1 265 2.9636301100254059e-02</internalNodes>
          <leafValues>
            -6.6376395523548126e-02 4.6053364872932434e-01</leafValues></_>
        <_>
          <internalNodes>
            0 -1 567 1.2201000005006790e-02</internalNodes>
          <leafValues>
            7.7975280582904816e-02 -3.2134547829627991e-01</leafValues></_>
        <_>
          <internalNodes>
            0 -1 452 2.7952510863542557e-03</internalNodes>
          <leafValues>
            -1.1960804462432861e-01 2.2275593876838684e-01</leafValues></_>
        <_>
          <internalNodes>
            0 -1 411 -4.4061220251023769e-03</internalNodes>
          <leafValues>
            2.8989720344543457e-01 -8.2348197698593140e-02</leafValues></_>
        <_>
          <internalNodes>
            0 -1 405 -1.5202800277620554e-03</internalNodes>
          <leafValues>
            2.2881945967674255e-01 -1.0557563602924347e-01</leafValues></_>
        <_>
          <internalNodes>
            0 -1 239 2.3754846770316362e-03</internalNodes>
          <leafValues>
            -1.2490537762641907e-01 2.4343937635421753e-01</leafValues></_>
        <_>
          <internalNodes>
            0 -1 417 7.9871877096593380e-04</internalNodes>
          <leafValues>
            -1.8946892023086548e-01 1.3234463334083557e-01</leafValues></_>
        <_>
          <internalNodes>
            0 -1 317 4.0266707539558411e-02</internalNodes>
          <leafValues>
            5.9052128344774246e-02 -4.4653868675231934e-01</leafValues></_>
        <_>
          <internalNodes>
            0 -1 571 -3.3647455275058746e-03</internalNodes>
          <leafValues>
            -3.2820898294448853e-01 6.5323077142238617e-02</leafValues></_>
        <_>
          <internalNodes>
            0 -1 519 -3.3766310662031174e-03</internalNodes>
          <leafValues>
            -5.5981779098510742e-01 3.3936277031898499e-02</leafValues></_>
        <_>
          <internalNodes>
            0 -1 539 -4.5040037366561592e-04</internalNodes>
          <leafValues>
            2.0761303603649139e-01 -1.2011511623859406e-01</leafValues></_>
        <_>
          <internalNodes>
            0 -1 123 2.4496123194694519e-01</internalNodes>
          <leafValues>
            3.2707944512367249e-02 -7.6374566555023193e-01</leafValues></_>
        <_>
          <internalNodes>
            0 -1 199 -3.9706151932477951e-02</internalNodes>
          <leafValues>
            8.3325308561325073e-01 -3.3133994787931442e-02</leafValues></_>
        <_>
          <internalNodes>
            0 -1 297 3.6439076066017151e-02</internalNodes>
          <leafValues>
            -4.2498096823692322e-02 4.2362418770790100e-01</leafValues></_>
        <_>
          <internalNodes>
            0 -1 165 -4.0207907557487488e-02</internalNodes>
          <leafValues>
            -5.2656435966491699e-01 4.6692177653312683e-02</leafValues></_>
        <_>
          <internalNodes>
            0 -1 91 -3.2817356288433075e-02</internalNodes>
          <leafValues>
            -8.2098662853240967e-01 1.9504366442561150e-02</leafValues></_>
        <_>
          <internalNodes>
            0 -1 193 2.8943084180355072e-02</internalNodes>
          <leafValues>
            -5.8933809399604797e-02 3.8088467717170715e-01</leafValues></_>
        <_>
          <internalNodes>
            0 -1 179 -2.2255782037973404e-02</internalNodes>
          <leafValues>
            3.9171054959297180e-01 -5.5197607725858688e-02</leafValues></_>
        <_>
          <internalNodes>
            0 -1 413 -4.5216279104351997e-03</internalNodes>
          <leafValues>
            -5.0780606269836426e-01 3.9562348276376724e-02</leafValues></_>
        <_>
          <internalNodes>
            0 -1 373 3.6773446481674910e-03</internalNodes>
          <leafValues>
            -3.7542268633842468e-02 5.9379142522811890e-01</leafValues></_>
        <_>
          <internalNodes>
            0 -1 620 3.7059811875224113e-03</internalNodes>
          <leafValues>
            9.0343572199344635e-02 -2.4999091029167175e-01</leafValues></_>
        <_>
          <internalNodes>
            0 -1 423 -5.9230579063296318e-03</internalNodes>
          <leafValues>
            -7.5757533311843872e-01 2.3570116609334946e-02</leafValues></_>
        <_>
          <internalNodes>
            0 -1 39 -2.7550673484802246e-01</internalNodes>
          <leafValues>
            -7.7506637573242188e-01 1.8447337672114372e-02</leafValues></_>
        <_>
          <internalNodes>
            0 -1 474 4.0260300040245056e-02</internalNodes>
          <leafValues>
            2.0328579470515251e-02 -7.8620362281799316e-01</leafValues></_>
        <_>
          <internalNodes>
            0 -1 19 -3.8479513023048639e-04</internalNodes>
          <leafValues>
            -1.9010876119136810e-01 9.8953276872634888e-02</leafValues></_>
        <_>
          <internalNodes>
            0 -1 71 -7.5356021989136934e-04</internalNodes>
          <leafValues>
            -1.5138132870197296e-01 1.2277267128229141e-01</leafValues></_>
        <_>
          <internalNodes>
            0 -1 75 5.9652691707015038e-03</internalNodes>
          <leafValues>
            6.7037396132946014e-02 -2.9278260469436646e-01</leafValues></_>
        <_>
          <internalNodes>
            0 -1 523 -1.5108249150216579e-02</internalNodes>
          <leafValues>
            2.0344044268131256e-01 -9.3527138233184814e-02</leafValues></_>
        <_>
          <internalNodes>
            0 -1 488 -4.9328268505632877e-03</internalNodes>
          <leafValues>
            2.7289050817489624e-01 -7.6330706477165222e-02</leafValues></_>
        <_>
          <internalNodes>
            0 -1 528 2.1477451082319021e-03</internalNodes>
          <leafValues>
            -1.0753170400857925e-01 1.7379254102706909e-01</leafValues></_>
        <_>
          <internalNodes>
            0 -1 482 -6.0541955754160881e-03</internalNodes>
          <leafValues>
            2.1707996726036072e-01 -8.4471113979816437e-02</leafValues></_>
        <_>
          <internalNodes>
            0 -1 110 1.8069975078105927e-02</internalNodes>
          <leafValues>
            4.9951668828725815e-02 -3.9118304848670959e-01</leafValues></_>
        <_>
          <internalNodes>
            0 -1 43 2.1025968715548515e-02</internalNodes>
          <leafValues>
            -9.2233382165431976e-02 2.2333869338035583e-01</leafValues></_>
        <_>
          <internalNodes>
            0 -1 613 -6.3566332682967186e-03</internalNodes>
          <leafValues>
            -8.2379895448684692e-01 2.3988751694560051e-02</leafValues></_>
        <_>
          <internalNodes>
            0 -1 496 3.3340842928737402e-03</internalNodes>
          <leafValues>
            2.0636864006519318e-02 -7.2527366876602173e-01</leafValues></_>
        <_>
          <internalNodes>
            0 -1 284 4.3953746557235718e-02</internalNodes>
          <leafValues>
            1.8765216693282127e-02 -7.3974984884262085e-01</leafValues></_>
        <_>
          <internalNodes>
            0 -1 14 6.1566471122205257e-03</internalNodes>
          <leafValues>
            -8.4763228893280029e-02 2.2040329873561859e-01</leafValues></_>
        <_>
          <internalNodes>
            0 -1 566 -4.2982347309589386e-02</internalNodes>
          <leafValues>
            -7.4412941932678223e-01 2.8243154287338257e-02</leafValues></_>
        <_>
          <internalNodes>
            0 -1 144 -1.3763575814664364e-02</internalNodes>
          <leafValues>
            -3.7986406683921814e-01 5.0672549754381180e-02</leafValues></_>
        <_>
          <internalNodes>
            0 -1 575 1.0731093061622232e-04</internalNodes>
          <leafValues>
            1.1673669517040253e-01 -1.5217164158821106e-01</leafValues></_>
        <_>
          <internalNodes>
            0 -1 51 -4.6259723603725433e-03</internalNodes>
          <leafValues>
            1.1537815630435944e-01 -1.5720403194427490e-01</leafValues></_>
        <_>
          <internalNodes>
            0 -1 294 1.8795669311657548e-03</internalNodes>
          <leafValues>
            -1.0625115036964417e-01 1.8407301604747772e-01</leafValues></_>
        <_>
          <internalNodes>
            0 -1 393 -2.5881752371788025e-03</internalNodes>
          <leafValues>
            -4.0210729837417603e-01 4.9504112452268600e-02</leafValues></_>
        <_>
          <internalNodes>
            0 -1 29 -1.2802687287330627e-01</internalNodes>
          <leafValues>
            -3.6366370320320129e-01 4.8928845673799515e-02</leafValues></_>
        <_>
          <internalNodes>
            0 -1 203 5.4591419175267220e-03</internalNodes>
          <leafValues>
            -9.2570699751377106e-02 2.1022650599479675e-01</leafValues></_>
        <_>
          <internalNodes>
            0 -1 307 2.1156016737222672e-03</internalNodes>
          <leafValues>
            -1.4259813725948334e-01 1.8643018603324890e-01</leafValues></_>
        <_>
          <internalNodes>
            0 -1 251 -9.9808331578969955e-03</internalNodes>
          <leafValues>
            3.1401321291923523e-01 -7.5537972152233124e-02</leafValues></_>
        <_>
          <internalNodes>
            0 -1 345 -4.4263014569878578e-03</internalNodes>
          <leafValues>
            -5.6609362363815308e-01 3.4097485244274139e-02</leafValues></_>
        <_>
          <internalNodes>
            0 -1 358 9.8989177495241165e-03</internalNodes>
          <leafValues>
            -4.7714285552501678e-02 4.3175905942916870e-01</leafValues></_>
        <_>
          <internalNodes>
            0 -1 355 4.6293885679915547e-04</internalNodes>
          <leafValues>
            -9.9551260471343994e-02 1.9249641895294189e-01</leafValues></_></weakClassifiers></_>
    <!-- stage 4 -->
    <_>
      <maxWeakCount>76</maxWeakCount>
      <stageThreshold>-9.3109393119812012e-01</stageThreshold>
      <weakClassifiers>
        <_>
          <internalNodes>
            0 -1 72 -2.8659293428063393e-02</internalNodes>
          <leafValues>
            3.7054407596588135e-01 -2.1198830008506775e-01</leafValues></_>
        <_>
          <internalNodes>
            0 -1 372 -2.2519871592521667e-02</internalNodes>
          <leafValues>
            3.4455463290214539e-01 -2.0199464261531830e-01</leafValues></_>
        <_>
          <internalNodes>
            0 -1 333 7.5119198299944401e-04</internalNodes>
          <leafValues>
            -1.9688858091831207e-01 2.0323553681373596e-01</leafValues></_>
        <_>
          <internalNodes>
            0 -1 362 -7.1536814793944359e-03</internalNodes>
          <leafValues>
            3.6688539385795593e-01 -8.3252571523189545e-02</leafValues></_>
        <_>
          <internalNodes>
            0 -1 335 8.9516472071409225e-03</internalNodes>
          <leafValues>
            7.5399786233901978e-02 -3.3992266654968262e-01</leafValues></_>
        <_>
          <internalNodes>
            0 -1 282 3.9760570973157883e-02</internalNodes>
          <leafValues>
            6.5825350582599640e-02 -5.6419920921325684e-01</leafValues></_>
        <_>
          <internalNodes>
            0 -1 330 4.4340910390019417e-03</internalNodes>
          <leafValues>
            -1.5000599622726440e-01 1.9660569727420807e-01</leafValues></_>
        <_>
          <internalNodes>
            0 -1 160 7.8301094472408295e-03</internalNodes>
          <leafValues>
            -1.5011940896511078e-01 2.3828618228435516e-01</leafValues></_>
        <_>
          <internalNodes>
            0 -1 559 8.0252182669937611e-04</internalNodes>
          <leafValues>
            1.2935285270214081e-01 -2.0269757509231567e-01</leafValues></_>
        <_>
          <internalNodes>
            0 -1 340 -1.5796758234500885e-03</internalNodes>
          <leafValues>
            1.9113275408744812e-01 -1.3771629333496094e-01</leafValues></_>
        <_>
          <internalNodes>
            0 -1 332 -2.8779129497706890e-03</internalNodes>
          <leafValues>
            -3.7554940581321716e-01 8.5916630923748016e-02</leafValues></_>
        <_>
          <internalNodes>
            0 -1 316 2.7940101921558380e-02</internalNodes>
          <leafValues>
            5.6507438421249390e-02 -5.2791422605514526e-01</leafValues></_>
        <_>
          <internalNodes>
            0 -1 368 -1.5262686647474766e-03</internalNodes>
          <leafValues>
            2.4536100029945374e-01 -9.6797332167625427e-02</leafValues></_>
        <_>
          <internalNodes>
            0 -1 318 2.6338402181863785e-02</internalNodes>
          <leafValues>
            -7.4892058968544006e-02 2.5296962261199951e-01</leafValues></_>
        <_>
          <internalNodes>
            0 -1 401 -2.4924974888563156e-02</internalNodes>
          <leafValues>
            2.6117593050003052e-01 -9.7630508244037628e-02</leafValues></_>
        <_>
          <internalNodes>
            0 -1 361 2.2263409569859505e-02</internalNodes>
          <leafValues>
            5.8050926774740219e-02 -3.7981608510017395e-01</leafValues></_>
        <_>
          <internalNodes>
            0 -1 286 -1.9545949995517731e-02</internalNodes>
          <leafValues>
            4.4405913352966309e-01 -4.8110380768775940e-02</leafValues></_>
        <_>
          <internalNodes>
            0 -1 406 -2.2699974942952394e-03</internalNodes>
          <leafValues>
            -4.2022788524627686e-01 5.9868015348911285e-02</leafValues></_>
        <_>
          <internalNodes>
            0 -1 213 -8.0237798392772675e-03</internalNodes>
          <leafValues>
            2.3088994622230530e-01 -8.9875183999538422e-02</leafValues></_>
        <_>
          <internalNodes>
            0 -1 472 -9.3292687088251114e-03</internalNodes>
          <leafValues>
            4.5437809824943542e-01 -4.2736452072858810e-02</leafValues></_>
        <_>
          <internalNodes>
            0 -1 50 -2.7375727891921997e-02</internalNodes>
          <leafValues>
            2.8026336431503296e-01 -7.3888182640075684e-02</leafValues></_>
        <_>
          <internalNodes>
            0 -1 341 4.5711640268564224e-03</internalNodes>
          <leafValues>
            -8.6263947188854218e-02 2.2035826742649078e-01</leafValues></_>
        <_>
          <internalNodes>
            0 -1 444 1.4713464770466089e-03</internalNodes>
          <leafValues>
            -1.2998309731483459e-01 2.0570115745067596e-01</leafValues></_>
        <_>
          <internalNodes>
            0 -1 423 -4.7878497280180454e-03</internalNodes>
          <leafValues>
            -6.4744871854782104e-01 3.5363994538784027e-02</leafValues></_>
        <_>
          <internalNodes>
            0 -1 34 -4.5526631176471710e-02</internalNodes>
          <leafValues>
            4.3996825814247131e-01 -5.2708178758621216e-02</leafValues></_>
        <_>
          <internalNodes>
            0 -1 383 -5.0595749169588089e-02</internalNodes>
          <leafValues>
            4.1259223222732544e-01 -4.6791311353445053e-02</leafValues></_>
        <_>
          <internalNodes>
            0 -1 139 -7.8665204346179962e-03</internalNodes>
          <leafValues>
            2.3842388391494751e-01 -7.9710751771926880e-02</leafValues></_>
        <_>
          <internalNodes>
            0 -1 556 -1.6033999621868134e-02</internalNodes>
          <leafValues>
            -4.0786755084991455e-01 4.7284126281738281e-02</leafValues></_>
        <_>
          <internalNodes>
            0 -1 88 -7.3025380261242390e-03</internalNodes>
          <leafValues>
            -2.1602222323417664e-01 8.6934305727481842e-02</leafValues></_>
        <_>
          <internalNodes>
            0 -1 129 1.7636165022850037e-01</internalNodes>
          <leafValues>
            3.0870035290718079e-02 -5.7714724540710449e-01</leafValues></_>
        <_>
          <internalNodes>
            0 -1 618 6.9891605526208878e-03</internalNodes>
          <leafValues>
            -9.7238153219223022e-02 1.7424808442592621e-01</leafValues></_>
        <_>
          <internalNodes>
            0 -1 588 -3.0613737180829048e-03</internalNodes>
          <leafValues>
            1.7538809776306152e-01 -1.0046236962080002e-01</leafValues></_>
        <_>
          <internalNodes>
            0 -1 257 9.4465928850695491e-04</internalNodes>
          <leafValues>
            -7.6286181807518005e-02 2.3610384762287140e-01</leafValues></_>
        <_>
          <internalNodes>
            0 -1 414 8.7835323065519333e-03</internalNodes>
          <leafValues>
            -1.0069184005260468e-01 1.8369773030281067e-01</leafValues></_>
        <_>
          <internalNodes>
            0 -1 388 1.4547208324074745e-02</internalNodes>
          <leafValues>
            -5.3654219955205917e-02 3.7850883603096008e-01</leafValues></_>
        <_>
          <internalNodes>
            0 -1 281 2.4419538676738739e-02</internalNodes>
          <leafValues>
            4.9188494682312012e-02 -4.3275031447410583e-01</leafValues></_>
        <_>
          <internalNodes>
            0 -1 382 2.5799339637160301e-03</internalNodes>
          <leafValues>
            -1.2260939925909042e-01 1.6973723471164703e-01</leafValues></_>
        <_>
          <internalNodes>
            0 -1 277 5.5665306746959686e-02</internalNodes>
          <leafValues>
            3.1835235655307770e-02 -6.6293144226074219e-01</leafValues></_>
        <_>
          <internalNodes>
            0 -1 554 3.2769143581390381e-02</internalNodes>
          <leafValues>
            3.2798681408166885e-02 -4.9405720829963684e-01</leafValues></_>
        <_>
          <internalNodes>
            0 -1 187 -2.5562617927789688e-02</internalNodes>
          <leafValues>
            -4.1828414797782898e-01 4.3298535048961639e-02</leafValues></_>
        <_>
          <internalNodes>
            0 -1 223 -1.3213265687227249e-02</internalNodes>
          <leafValues>
            4.7346761822700500e-01 -5.0347141921520233e-02</leafValues></_>
        <_>
          <internalNodes>
            0 -1 233 7.7795693650841713e-03</internalNodes>
          <leafValues>
            -8.8986441493034363e-02 2.1093876659870148e-01</leafValues></_>
        <_>
          <internalNodes>
            0 -1 505 -9.2780739068984985e-03</internalNodes>
          <leafValues>
            2.3278971016407013e-01 -8.2999035716056824e-02</leafValues></_>
        <_>
          <internalNodes>
            0 -1 291 -2.7795277535915375e-02</internalNodes>
          <leafValues>
            3.0530348420143127e-01 -6.0899879783391953e-02</leafValues></_>
        <_>
          <internalNodes>
            0 -1 103 -8.2596801221370697e-03</internalNodes>
          <leafValues>
            1.3536421954631805e-01 -1.3885176181793213e-01</leafValues></_>
        <_>
          <internalNodes>
            0 -1 136 -1.6683518886566162e-02</internalNodes>
          <leafValues>
            -4.1106724739074707e-01 5.6150484830141068e-02</leafValues></_>
        <_>
          <internalNodes>
            0 -1 346 5.3034317679703236e-03</internalNodes>
          <leafValues>
            3.5569045692682266e-02 -4.7831979393959045e-01</leafValues></_>
        <_>
          <internalNodes>
            0 -1 33 5.6973600294440985e-04</internalNodes>
          <leafValues>
            9.0191565454006195e-02 -1.9708326458930969e-01</leafValues></_>
        <_>
          <internalNodes>
            0 -1 5 -2.7826335281133652e-02</internalNodes>
          <leafValues>
            -2.3663677275180817e-01 7.3590144515037537e-02</leafValues></_>
        <_>
          <internalNodes>
            0 -1 545 3.5979203879833221e-02</internalNodes>
          <leafValues>
            -2.5803543627262115e-02 6.1995136737823486e-01</leafValues></_>
        <_>
          <internalNodes>
            0 -1 560 8.5892475908622146e-05</internalNodes>
          <leafValues>
            1.2495534867048264e-01 -1.6145950555801392e-01</leafValues></_>
        <_>
          <internalNodes>
            0 -1 531 -3.6518596112728119e-02</internalNodes>
          <leafValues>
            -4.0816107392311096e-01 4.0591448545455933e-02</leafValues></_>
        <_>
          <internalNodes>
            0 -1 69 -2.2988285869359970e-02</internalNodes>
          <leafValues>
            -6.3782912492752075e-01 2.2508671507239342e-02</leafValues></_>
        <_>
          <internalNodes>
            0 -1 613 4.5999987050890923e-03</internalNodes>
          <leafValues>
            3.0550207942724228e-02 -5.0556474924087524e-01</leafValues></_>
        <_>
          <internalNodes>
            0 -1 497 -8.9293066412210464e-03</internalNodes>
          <leafValues>
            -6.5156030654907227e-01 2.3716328665614128e-02</leafValues></_>
        <_>
          <internalNodes>
            0 -1 410 6.0105584561824799e-03</internalNodes>
          <leafValues>
            -7.6359130442142487e-02 2.2585773468017578e-01</leafValues></_>
        <_>
          <internalNodes>
            0 -1 379 -1.0311631485819817e-02</internalNodes>
          <leafValues>
            2.6874539256095886e-01 -6.6464982926845551e-02</leafValues></_>
        <_>
          <internalNodes>
            0 -1 22 1.9315547542646527e-03</internalNodes>
          <leafValues>
            -8.0407932400703430e-02 2.1733421087265015e-01</leafValues></_>
        <_>
          <internalNodes>
            0 -1 23 -7.0308279246091843e-03</internalNodes>
          <leafValues>
            2.4439215660095215e-01 -7.9566173255443573e-02</leafValues></_>
        <_>
          <internalNodes>
            0 -1 170 5.2113235142314807e-05</internalNodes>
          <leafValues>
            1.2403355538845062e-01 -1.5410351753234863e-01</leafValues></_>
        <_>
          <internalNodes>
            0 -1 65 4.4339303858578205e-03</internalNodes>
          <leafValues>
            3.2338749617338181e-02 -6.2707173824310303e-01</leafValues></_>
        <_>
          <internalNodes>
            0 -1 423 1.9391913665458560e-03</internalNodes>
          <leafValues>
            5.8535013347864151e-02 -2.7885290980339050e-01</leafValues></_>
        <_>
          <internalNodes>
            0 -1 205 -3.5989503376185894e-03</internalNodes>
          <leafValues>
            -2.5165522098541260e-01 6.6698111593723297e-02</leafValues></_>
        <_>
          <internalNodes>
            0 -1 481 -9.4113615341484547e-04</internalNodes>
          <leafValues>
            2.0626382529735565e-01 -8.0447167158126831e-02</leafValues></_>
        <_>
          <internalNodes>
            0 -1 82 -3.1483587808907032e-03</internalNodes>
          <leafValues>
            -2.6199248433113098e-01 6.6690094769001007e-02</leafValues></_>
        <_>
          <internalNodes>
            0 -1 453 -4.7041208017617464e-04</internalNodes>
          <leafValues>
            1.4941830933094025e-01 -1.1367297172546387e-01</leafValues></_>
        <_>
          <internalNodes>
            0 -1 185 -1.8747681379318237e-01</internalNodes>
          <leafValues>
            -3.1608346104621887e-01 5.4306905716657639e-02</leafValues></_>
        <_>
          <internalNodes>
            0 -1 137 -5.0015808083117008e-03</internalNodes>
          <leafValues>
            1.3975620269775391e-01 -1.5367895364761353e-01</leafValues></_>
        <_>
          <internalNodes>
            0 -1 238 3.2500713132321835e-03</internalNodes>
          <leafValues>
            -8.0949693918228149e-02 2.3127248883247375e-01</leafValues></_>
        <_>
          <internalNodes>
            0 -1 133 1.9012415577890351e-05</internalNodes>
          <leafValues>
            1.2742933630943298e-01 -1.4015820622444153e-01</leafValues></_>
        <_>
          <internalNodes>
            0 -1 101 1.7302675405517220e-04</internalNodes>
          <leafValues>
            1.2767057120800018e-01 -1.5094470977783203e-01</leafValues></_>
        <_>
          <internalNodes>
            0 -1 146 5.0912401638925076e-04</internalNodes>
          <leafValues>
            -8.6423933506011963e-02 2.0608001947402954e-01</leafValues></_>
        <_>
          <internalNodes>
            0 -1 47 3.2327682711184025e-03</internalNodes>
          <leafValues>
            3.3405404537916183e-02 -5.4691976308822632e-01</leafValues></_>
        <_>
          <internalNodes>
            0 -1 20 1.4207388460636139e-01</internalNodes>
          <leafValues>
            1.3691275380551815e-02 -9.4581556320190430e-01</leafValues></_>
        <_>
          <internalNodes>
            0 -1 1 1.6772363334894180e-02</internalNodes>
          <leafValues>
            -6.3986666500568390e-02 2.7099576592445374e-01</leafValues></_>
        <_>
          <internalNodes>
            0 -1 591 1.7964746803045273e-04</internalNodes>
          <leafValues>
            1.0612332075834274e-01 -1.6116702556610107e-01</leafValues></_></weakClassifiers></_>
    <!-- stage 5 -->
    <_>
      <maxWeakCount>82</maxWeakCount>
      <stageThreshold>-9.9837583303451538e-01</stageThreshold>
      <weakClassifiers>
        <_>
          <internalNodes>
            0 -1 220 -4.3417409062385559e-02</internalNodes>
          <leafValues>
            5.8117192983627319e-01 -4.2700283229351044e-02</leafValues></_>
        <_>
          <internalNodes>
            0 -1 40 -4.8045909404754639e-01</internalNodes>
          <leafValues>
            4.9406120181083679e-01 -6.8034887313842773e-02</leafValues></_>
        <_>
          <internalNodes>
            0 -1 112 -9.4558519776910543e-05</internalNodes>
          <leafValues>
            -2.5043368339538574e-01 1.0000015795230865e-01</leafValues></_>
        <_>
          <internalNodes>
            0 -1 258 -1.8974955310113728e-04</internalNodes>
          <leafValues>
            -2.0603829622268677e-01 1.2803386151790619e-01</leafValues></_>
        <_>
          <internalNodes>
            0 -1 217 1.0487329214811325e-02</internalNodes>
          <leafValues>
            -5.3614851087331772e-02 4.3632096052169800e-01</leafValues></_>
        <_>
          <internalNodes>
            0 -1 384 2.0937710069119930e-03</internalNodes>
          <leafValues>
            -1.3654001057147980e-01 2.1015766263008118e-01</leafValues></_>
        <_>
          <internalNodes>
            0 -1 78 9.0061370283365250e-03</internalNodes>
          <leafValues>
            6.6238060593605042e-02 -4.1520288586616516e-01</leafValues></_>
        <_>
          <internalNodes>
            0 -1 102 -3.0334694311022758e-03</internalNodes>
          <leafValues>
            1.0066801309585571e-01 -2.5562971830368042e-01</leafValues></_>
        <_>
          <internalNodes>
            0 -1 437 -1.8475058022886515e-03</internalNodes>
          <leafValues>
            -1.9592154026031494e-01 1.3316325843334198e-01</leafValues></_>
        <_>
          <internalNodes>
            0 -1 73 -2.4635221064090729e-01</internalNodes>
          <leafValues>
            -5.3493940830230713e-01 3.1011084094643593e-02</leafValues></_>
        <_>
          <internalNodes>
            0 -1 392 -2.4228766560554504e-02</internalNodes>
          <leafValues>
            -3.8750588893890381e-01 6.4540304243564606e-02</leafValues></_>
        <_>
          <internalNodes>
            0 -1 300 2.4104185402393341e-02</internalNodes>
          <leafValues>
            4.5887403190135956e-02 -4.2923736572265625e-01</leafValues></_>
        <_>
          <internalNodes>
            0 -1 222 1.5258403494954109e-02</internalNodes>
          <leafValues>
            -6.9809883832931519e-02 3.2347887754440308e-01</leafValues></_>
        <_>
          <internalNodes>
            0 -1 477 1.7363914521411061e-03</internalNodes>
          <leafValues>
            -9.1481380164623260e-02 2.2262182831764221e-01</leafValues></_>
        <_>
          <internalNodes>
            0 -1 499 -2.9665187466889620e-03</internalNodes>
          <leafValues>
            -3.7474963068962097e-01 5.2471823990345001e-02</leafValues></_>
        <_>
          <internalNodes>
            0 -1 195 2.9241095762699842e-03</internalNodes>
          <leafValues>
            -9.2268183827400208e-02 1.9841504096984863e-01</leafValues></_>
        <_>
          <internalNodes>
            0 -1 305 -1.6798330470919609e-02</internalNodes>
          <leafValues>
            5.2460277080535889e-01 -3.4611482173204422e-02</leafValues></_>
        <_>
          <internalNodes>
            0 -1 255 -4.7649303451180458e-04</internalNodes>
          <leafValues>
            -1.9075322151184082e-01 1.0569627583026886e-01</leafValues></_>
        <_>
          <internalNodes>
            0 -1 178 -5.9278202243149281e-03</internalNodes>
          <leafValues>
            -6.0417431592941284e-01 3.0996799468994141e-02</leafValues></_>
        <_>
          <internalNodes>
            0 -1 395 -8.2663353532552719e-03</internalNodes>
          <leafValues>
            3.6431014537811279e-01 -5.0521578639745712e-02</leafValues></_>
        <_>
          <internalNodes>
            0 -1 36 3.5907258279621601e-03</internalNodes>
          <leafValues>
            6.3267633318901062e-02 -3.0958825349807739e-01</leafValues></_>
        <_>
          <internalNodes>
            0 -1 438 2.9394924640655518e-03</internalNodes>
          <leafValues>
            -8.8212326169013977e-02 2.2070325911045074e-01</leafValues></_>
        <_>
          <internalNodes>
            0 -1 543 -6.1349403113126755e-02</internalNodes>
          <leafValues>
            2.0014555752277374e-01 -9.8241157829761505e-02</leafValues></_>
        <_>
          <internalNodes>
            0 -1 501 -3.9281640201807022e-03</internalNodes>
          <leafValues>
            -7.5828170776367188e-01 2.4831527844071388e-02</leafValues></_>
        <_>
          <internalNodes>
            0 -1 180 -1.8769796937704086e-02</internalNodes>
          <leafValues>
            -3.2537090778350830e-01 5.2194673568010330e-02</leafValues></_>
        <_>
          <internalNodes>
            0 -1 245 -5.5103234946727753e-02</internalNodes>
          <leafValues>
            6.0474073886871338e-01 -3.1653769314289093e-02</leafValues></_>
        <_>
          <internalNodes>
            0 -1 288 -2.1924892440438271e-02</internalNodes>
          <leafValues>
            -2.5716587901115417e-01 8.0279223620891571e-02</leafValues></_>
        <_>
          <internalNodes>
            0 -1 49 1.2445054017007351e-03</internalNodes>
          <leafValues>
            -1.1151679605245590e-01 1.6508783400058746e-01</leafValues></_>
        <_>
          <internalNodes>
            0 -1 21 7.3995522689074278e-04</internalNodes>
          <leafValues>
            -8.3648480474948883e-02 2.1482047438621521e-01</leafValues></_>
        <_>
          <internalNodes>
            0 -1 467 -4.2356802150607109e-03</internalNodes>
          <leafValues>
            -2.8525966405868530e-01 6.5273523330688477e-02</leafValues></_>
        <_>
          <internalNodes>
            0 -1 118 -1.5583071857690811e-02</internalNodes>
          <leafValues>
            3.3316853642463684e-01 -5.4114371538162231e-02</leafValues></_>
        <_>
          <internalNodes>
            0 -1 517 -1.1634908616542816e-02</internalNodes>
          <leafValues>
            2.1518839895725250e-01 -8.4489725530147552e-02</leafValues></_>
        <_>
          <internalNodes>
            0 -1 190 -1.7732614278793335e-01</internalNodes>
          <leafValues>
            5.1957899332046509e-01 -3.6629296839237213e-02</leafValues></_>
        <_>
          <internalNodes>
            0 -1 552 -9.7608752548694611e-03</internalNodes>
          <leafValues>
            4.2202010750770569e-01 -3.9213478565216064e-02</leafValues></_>
        <_>
          <internalNodes>
            0 -1 183 -7.5977250933647156e-02</internalNodes>
          <leafValues>
            -6.4612770080566406e-01 3.0338395386934280e-02</leafValues></_>
        <_>
          <internalNodes>
            0 -1 2 -4.8521002754569054e-03</internalNodes>
          <leafValues>
            -3.9000952243804932e-01 4.3982163071632385e-02</leafValues></_>
        <_>
          <internalNodes>
            0 -1 329 2.5860697496682405e-03</internalNodes>
          <leafValues>
            6.9175049662590027e-02 -2.4674665927886963e-01</leafValues></_>
        <_>
          <internalNodes>
            0 -1 504 2.3190258070826530e-03</internalNodes>
          <leafValues>
            -9.3639552593231201e-02 1.9857984781265259e-01</leafValues></_>
        <_>
          <internalNodes>
            0 -1 500 -1.3254878576844931e-03</internalNodes>
          <leafValues>
            2.3672537505626678e-01 -8.8603883981704712e-02</leafValues></_>
        <_>
          <internalNodes>
            0 -1 52 3.4733100328594446e-03</internalNodes>
          <leafValues>
            1.0017289221286774e-01 -1.9151441752910614e-01</leafValues></_>
        <_>
          <internalNodes>
            0 -1 295 5.9375008568167686e-03</internalNodes>
          <leafValues>
            -7.2526045143604279e-02 2.6215302944183350e-01</leafValues></_>
        <_>
          <internalNodes>
            0 -1 218 7.9958699643611908e-02</internalNodes>
          <leafValues>
            2.8805326670408249e-02 -7.8874033689498901e-01</leafValues></_>
        <_>
          <internalNodes>
            0 -1 403 -6.8098637275397778e-03</internalNodes>
          <leafValues>
            2.3369112610816956e-01 -8.2680203020572662e-02</leafValues></_>
        <_>
          <internalNodes>
            0 -1 409 1.1287996312603354e-03</internalNodes>
          <leafValues>
            -1.2895622849464417e-01 1.4218091964721680e-01</leafValues></_>
        <_>
          <internalNodes>
            0 -1 514 -7.6792165637016296e-03</internalNodes>
          <leafValues>
            -4.7449651360511780e-01 4.0311023592948914e-02</leafValues></_>
        <_>
          <internalNodes>
            0 -1 89 4.7766812145709991e-02</internalNodes>
          <leafValues>
            1.5059601515531540e-02 -8.5778975486755371e-01</leafValues></_>
        <_>
          <internalNodes>
            0 -1 175 1.7984597012400627e-02</internalNodes>
          <leafValues>
            -5.3498610854148865e-02 3.3515453338623047e-01</leafValues></_>
        <_>
          <internalNodes>
            0 -1 336 5.6481314823031425e-03</internalNodes>
          <leafValues>
            5.3849168121814728e-02 -3.2187014818191528e-01</leafValues></_>
        <_>
          <internalNodes>
            0 -1 547 -2.3129317909479141e-02</internalNodes>
          <leafValues>
            -6.1129027605056763e-01 2.6045618578791618e-02</leafValues></_>
        <_>
          <internalNodes>
            0 -1 551 -5.1685418933629990e-02</internalNodes>
          <leafValues>
            3.1960639357566833e-01 -5.3564678877592087e-02</leafValues></_>
        <_>
          <internalNodes>
            0 -1 611 -5.4410885786637664e-04</internalNodes>
          <leafValues>
            1.5564376115798950e-01 -1.1060144752264023e-01</leafValues></_>
        <_>
          <internalNodes>
            0 -1 529 -4.7306744381785393e-03</internalNodes>
          <leafValues>
            2.1992030739784241e-01 -7.2277218103408813e-02</leafValues></_>
        <_>
          <internalNodes>
            0 -1 546 -3.8021623622626066e-03</internalNodes>
          <leafValues>
            -4.4220048189163208e-01 4.0494590997695923e-02</leafValues></_>
        <_>
          <internalNodes>
            0 -1 534 4.4632880017161369e-03</internalNodes>
          <leafValues>
            -6.5484717488288879e-02 2.6828160881996155e-01</leafValues></_>
        <_>
          <internalNodes>
            0 -1 536 5.3033987060189247e-03</internalNodes>
          <leafValues>
            3.2367672771215439e-02 -5.0471019744873047e-01</leafValues></_>
        <_>
          <internalNodes>
            0 -1 10 -1.7920696735382080e-01</internalNodes>
          <leafValues>
            7.1462208032608032e-01 -2.3470791056752205e-02</leafValues></_>
        <_>
          <internalNodes>
            0 -1 579 -2.1867617964744568e-02</internalNodes>
          <leafValues>
            2.9999741911888123e-01 -5.0416994839906693e-02</leafValues></_>
        <_>
          <internalNodes>
            0 -1 324 4.8344479873776436e-03</internalNodes>
          <leafValues>
            -7.7669754624366760e-02 2.2458510100841522e-01</leafValues></_>
        <_>
          <internalNodes>
            0 -1 430 2.1473359316587448e-02</internalNodes>
          <leafValues>
            -1.3015520572662354e-01 1.5364985167980194e-01</leafValues></_>
        <_>
          <internalNodes>
            0 -1 189 2.7767688035964966e-01</internalNodes>
          <leafValues>
            3.7191111594438553e-02 -4.6306970715522766e-01</leafValues></_>
        <_>
          <internalNodes>
            0 -1 581 3.8735882844775915e-03</internalNodes>
          <leafValues>
            2.5090498849749565e-02 -6.5170800685882568e-01</leafValues></_>
        <_>
          <internalNodes>
            0 -1 219 -1.2118554674088955e-02</internalNodes>
          <leafValues>
            3.7002897262573242e-01 -4.4392928481101990e-02</leafValues></_>
        <_>
          <internalNodes>
            0 -1 563 -1.2298783985897899e-04</internalNodes>
          <leafValues>
            1.1935401707887650e-01 -1.3375718891620636e-01</leafValues></_>
        <_>
          <internalNodes>
            0 -1 563 -2.4003647267818451e-02</internalNodes>
          <leafValues>
            -5.9209120273590088e-01 3.5521805286407471e-02</leafValues></_>
        <_>
          <internalNodes>
            0 -1 412 2.2346629702951759e-04</internalNodes>
          <leafValues>
            -1.2396288663148880e-01 1.2286868691444397e-01</leafValues></_>
        <_>
          <internalNodes>
            0 -1 412 2.8474400751292706e-03</internalNodes>
          <leafValues>
            4.7155104577541351e-02 -4.3381410837173462e-01</leafValues></_>
        <_>
          <internalNodes>
            0 -1 249 -1.5876626130193472e-03</internalNodes>
          <leafValues>
            1.9844751060009003e-01 -9.1833256185054779e-02</leafValues></_>
        <_>
          <internalNodes>
            0 -1 241 -3.5621877759695053e-02</internalNodes>
          <leafValues>
            3.1740239262580872e-01 -4.6553365886211395e-02</leafValues></_>
        <_>
          <internalNodes>
            0 -1 321 1.0994977783411741e-03</internalNodes>
          <leafValues>
            -8.0132111907005310e-02 2.0860178768634796e-01</leafValues></_>
        <_>
          <internalNodes>
            0 -1 234 -1.3626880943775177e-02</internalNodes>
          <leafValues>
            3.1527507305145264e-01 -5.3771115839481354e-02</leafValues></_>
        <_>
          <internalNodes>
            0 -1 211 -1.2081933527952060e-04</internalNodes>
          <leafValues>
            -1.5527494251728058e-01 1.0935034602880478e-01</leafValues></_>
        <_>
          <internalNodes>
            0 -1 176 -2.8880662284791470e-04</internalNodes>
          <leafValues>
            1.4734302461147308e-01 -1.2687963247299194e-01</leafValues></_>
        <_>
          <internalNodes>
            0 -1 564 1.6898303874768317e-04</internalNodes>
          <leafValues>
            1.0437906533479691e-01 -1.6850815713405609e-01</leafValues></_>
        <_>
          <internalNodes>
            0 -1 582 -4.4463342055678368e-03</internalNodes>
          <leafValues>
            1.4804440736770630e-01 -1.1666648834943771e-01</leafValues></_>
        <_>
          <internalNodes>
            0 -1 460 5.5644758976995945e-03</internalNodes>
          <leafValues>
            3.0115332454442978e-02 -5.8258438110351563e-01</leafValues></_>
        <_>
          <internalNodes>
            0 -1 583 2.2132407873868942e-02</internalNodes>
          <leafValues>
            -7.6298251748085022e-02 2.2750528156757355e-01</leafValues></_>
        <_>
          <internalNodes>
            0 -1 565 1.6795508563518524e-03</internalNodes>
          <leafValues>
            1.0106828808784485e-01 -1.7478740215301514e-01</leafValues></_>
        <_>
          <internalNodes>
            0 -1 119 1.8060181289911270e-02</internalNodes>
          <leafValues>
            -7.0483602583408356e-02 2.5405234098434448e-01</leafValues></_>
        <_>
          <internalNodes>
            0 -1 492 4.1832970455288887e-03</internalNodes>
          <leafValues>
            3.9484094828367233e-02 -4.2236268520355225e-01</leafValues></_>
        <_>
          <internalNodes>
            0 -1 602 1.5574502758681774e-03</internalNodes>
          <leafValues>
            8.0496266484260559e-02 -2.0889748632907867e-01</leafValues></_>
        <_>
          <internalNodes>
            0 -1 589 1.1412724852561951e-02</internalNodes>
          <leafValues>
            -3.1575892120599747e-02 5.7439631223678589e-01</leafValues></_>
        <_>
          <internalNodes>
            0 -1 369 1.1584354797378182e-03</internalNodes>
          <leafValues>
            -6.9589182734489441e-02 2.4228607118129730e-01</leafValues></_></weakClassifiers></_>
    <!-- stage 6 -->
    <_>
      <maxWeakCount>71</maxWeakCount>
      <stageThreshold>-8.5714322328567505e-01</stageThreshold>
      <weakClassifiers>
        <_>
          <internalNodes>
            0 -1 62 -2.4382136762142181e-02</internalNodes>
          <leafValues>
            4.1066196560859680e-01 -1.1210262030363083e-01</leafValues></_>
        <_>
          <internalNodes>
            0 -1 148 -1.3372465036809444e-02</internalNodes>
          <leafValues>
            -2.9149869084358215e-01 1.4569470286369324e-01</leafValues></_>
        <_>
          <internalNodes>
            0 -1 278 2.3315567523241043e-02</internalNodes>
          <leafValues>
            8.6104609072208405e-02 -4.9815565347671509e-01</leafValues></_>
        <_>
          <internalNodes>
            0 -1 363 2.6469463482499123e-02</internalNodes>
          <leafValues>
            -7.1259975433349609e-02 5.0019586086273193e-01</leafValues></_>
        <_>
          <internalNodes>
            0 -1 449 -1.9505430012941360e-02</internalNodes>
          <leafValues>
            3.6874949932098389e-01 -1.1539360135793686e-01</leafValues></_>
        <_>
          <internalNodes>
            0 -1 242 2.0506422966718674e-02</internalNodes>
          <leafValues>
            8.4591962397098541e-02 -4.2591160535812378e-01</leafValues></_>
        <_>
          <internalNodes>
            0 -1 348 1.0408315807580948e-02</internalNodes>
          <leafValues>
            -1.5224131941795349e-01 1.5869925916194916e-01</leafValues></_>
        <_>
          <internalNodes>
            0 -1 114 -8.8281335774809122e-04</internalNodes>
          <leafValues>
            -2.8105592727661133e-01 8.7731391191482544e-02</leafValues></_>
        <_>
          <internalNodes>
            0 -1 61 8.4088109433650970e-03</internalNodes>
          <leafValues>
            -9.3085378408432007e-02 2.3513419926166534e-01</leafValues></_>
        <_>
          <internalNodes>
            0 -1 616 1.1928207240998745e-03</internalNodes>
          <leafValues>
            -9.2585660517215729e-02 2.4372184276580811e-01</leafValues></_>
        <_>
          <internalNodes>
            0 -1 323 5.2985390648245811e-03</internalNodes>
          <leafValues>
            -8.6605876684188843e-02 2.7785342931747437e-01</leafValues></_>
        <_>
          <internalNodes>
            0 -1 254 1.9781172741204500e-03</internalNodes>
          <leafValues>
            -9.9938638508319855e-02 2.4985498189926147e-01</leafValues></_>
        <_>
          <internalNodes>
            0 -1 475 -2.4793539196252823e-02</internalNodes>
          <leafValues>
            6.7077744007110596e-01 -3.6713641136884689e-02</leafValues></_>
        <_>
          <internalNodes>
            0 -1 209 -5.4203025996685028e-02</internalNodes>
          <leafValues>
            6.1369341611862183e-01 -2.9291853308677673e-02</leafValues></_>
        <_>
          <internalNodes>
            0 -1 489 2.4405340664088726e-03</internalNodes>
          <leafValues>
            6.4857542514801025e-02 -3.6881759762763977e-01</leafValues></_>
        <_>
          <internalNodes>
            0 -1 313 -4.5546605251729488e-03</internalNodes>
          <leafValues>
            -4.9330261349678040e-01 4.3713878840208054e-02</leafValues></_>
        <_>
          <internalNodes>
            0 -1 432 -2.8477967716753483e-03</internalNodes>
          <leafValues>
            -5.2889186143875122e-01 3.6313056945800781e-02</leafValues></_>
        <_>
          <internalNodes>
            0 -1 248 -2.5477188173681498e-03</internalNodes>
          <leafValues>
            2.2923718392848969e-01 -8.8668204843997955e-02</leafValues></_>
        <_>
          <internalNodes>
            0 -1 200 9.9973101168870926e-03</internalNodes>
          <leafValues>
            -7.6551660895347595e-02 2.6952424645423889e-01</leafValues></_>
        <_>
          <internalNodes>
            0 -1 302 -3.9973175153136253e-03</internalNodes>
          <leafValues>
            2.4226924777030945e-01 -1.0825222730636597e-01</leafValues></_>
        <_>
          <internalNodes>
            0 -1 593 -1.8451272044330835e-03</internalNodes>
          <leafValues>
            -3.5714638233184814e-01 5.2631117403507233e-02</leafValues></_>
        <_>
          <internalNodes>
            0 -1 184 -1.9396917521953583e-01</internalNodes>
          <leafValues>
            -7.8428322076797485e-01 2.5569012388586998e-02</leafValues></_>
        <_>
          <internalNodes>
            0 -1 359 8.2970745861530304e-03</internalNodes>
          <leafValues>
            -1.0386493057012558e-01 1.6762241721153259e-01</leafValues></_>
        <_>
          <internalNodes>
            0 -1 275 -3.2908804714679718e-03</internalNodes>
          <leafValues>
            2.2109572589397430e-01 -8.4189005196094513e-02</leafValues></_>
        <_>
          <internalNodes>
            0 -1 212 -4.4226492755115032e-03</internalNodes>
          <leafValues>
            -5.9781050682067871e-01 3.1522370874881744e-02</leafValues></_>
        <_>
          <internalNodes>
            0 -1 408 4.7356560826301575e-03</internalNodes>
          <leafValues>
            -6.0080435127019882e-02 3.1425657868385315e-01</leafValues></_>
        <_>
          <internalNodes>
            0 -1 142 -7.2298920713365078e-05</internalNodes>
          <leafValues>
            -1.5840078890323639e-01 1.2616248428821564e-01</leafValues></_>
        <_>
          <internalNodes>
            0 -1 306 3.2871700823307037e-03</internalNodes>
          <leafValues>
            4.5079883188009262e-02 -3.9081868529319763e-01</leafValues></_>
        <_>
          <internalNodes>
            0 -1 108 -9.9443648650776595e-05</internalNodes>
          <leafValues>
            -1.6927957534790039e-01 1.0430017113685608e-01</leafValues></_>
        <_>
          <internalNodes>
            0 -1 621 -2.3466825950890779e-03</internalNodes>
          <leafValues>
            -3.8508254289627075e-01 4.5388016849756241e-02</leafValues></_>
        <_>
          <internalNodes>
            0 -1 600 -7.4894228018820286e-03</internalNodes>
          <leafValues>
            1.8085986375808716e-01 -8.6952857673168182e-02</leafValues></_>
        <_>
          <internalNodes>
            0 -1 216 -3.5527672618627548e-02</internalNodes>
          <leafValues>
            -5.6520593166351318e-01 2.9171498492360115e-02</leafValues></_>
        <_>
          <internalNodes>
            0 -1 228 -5.2388913929462433e-02</internalNodes>
          <leafValues>
            2.9913485050201416e-01 -5.6744799017906189e-02</leafValues></_>
        <_>
          <internalNodes>
            0 -1 240 4.4491346925497055e-03</internalNodes>
          <leafValues>
            -1.0039309412240982e-01 2.0963540673255920e-01</leafValues></_>
        <_>
          <internalNodes>
            0 -1 308 1.3260259293019772e-03</internalNodes>
          <leafValues>
            -1.2668921053409576e-01 1.5767221152782440e-01</leafValues></_>
        <_>
          <internalNodes>
            0 -1 107 3.2120443880558014e-02</internalNodes>
          <leafValues>
            5.7662807404994965e-02 -3.2446235418319702e-01</leafValues></_>
        <_>
          <internalNodes>
            0 -1 415 1.3538906350731850e-02</internalNodes>
          <leafValues>
            -5.7792972773313522e-02 3.4790724515914917e-01</leafValues></_>
        <_>
          <internalNodes>
            0 -1 0 -4.4053192250430584e-03</internalNodes>
          <leafValues>
            -5.7336676120758057e-01 3.3467009663581848e-02</leafValues></_>
        <_>
          <internalNodes>
            0 -1 493 -1.5412986977025867e-03</internalNodes>
          <leafValues>
            -3.2730314135551453e-01 4.7998704016208649e-02</leafValues></_>
        <_>
          <internalNodes>
            0 -1 31 -6.1607463285326958e-03</internalNodes>
          <leafValues>
            1.9120748341083527e-01 -8.0482013523578644e-02</leafValues></_>
        <_>
          <internalNodes>
            0 -1 25 2.5856879074126482e-03</internalNodes>
          <leafValues>
            -1.0697310417890549e-01 1.3806885480880737e-01</leafValues></_>
        <_>
          <internalNodes>
            0 -1 601 3.1746509484946728e-03</internalNodes>
          <leafValues>
            5.4227363318204880e-02 -3.0235841870307922e-01</leafValues></_>
        <_>
          <internalNodes>
            0 -1 235 1.2497059069573879e-02</internalNodes>
          <leafValues>
            -8.1882096827030182e-02 2.0500007271766663e-01</leafValues></_>
        <_>
          <internalNodes>
            0 -1 425 2.5272080674767494e-03</internalNodes>
          <leafValues>
            5.9319388121366501e-02 -2.8526598215103149e-01</leafValues></_>
        <_>
          <internalNodes>
            0 -1 274 4.6585602685809135e-03</internalNodes>
          <leafValues>
            -4.2661860585212708e-02 4.2919728159904480e-01</leafValues></_>
        <_>
          <internalNodes>
            0 -1 309 -4.5542381703853607e-02</internalNodes>
          <leafValues>
            7.2597253322601318e-01 -1.7662573605775833e-02</leafValues></_>
        <_>
          <internalNodes>
            0 -1 463 -9.9389627575874329e-03</internalNodes>
          <leafValues>
            1.6821493208408356e-01 -9.0489380061626434e-02</leafValues></_>
        <_>
          <internalNodes>
            0 -1 580 -1.5357082709670067e-02</internalNodes>
          <leafValues>
            -7.5929421186447144e-01 2.4162547662854195e-02</leafValues></_>
        <_>
          <internalNodes>
            0 -1 41 -9.4081098213791847e-03</internalNodes>
          <leafValues>
            1.8998353183269501e-01 -8.5369013249874115e-02</leafValues></_>
        <_>
          <internalNodes>
            0 -1 426 -1.7390329157933593e-03</internalNodes>
          <leafValues>
            -2.1603418886661530e-01 7.1195669472217560e-02</leafValues></_>
        <_>
          <internalNodes>
            0 -1 188 1.3451434671878815e-02</internalNodes>
          <leafValues>
            2.5164095684885979e-02 -6.0441178083419800e-01</leafValues></_>
        <_>
          <internalNodes>
            0 -1 30 5.0065260380506516e-02</internalNodes>
          <leafValues>
            1.6641955822706223e-02 -8.0439329147338867e-01</leafValues></_>
        <_>
          <internalNodes>
            0 -1 290 1.8507509957998991e-03</internalNodes>
          <leafValues>
            -9.7192078828811646e-02 1.6167387366294861e-01</leafValues></_>
        <_>
          <internalNodes>
            0 -1 614 1.4168795314617455e-04</internalNodes>
          <leafValues>
            1.1392194032669067e-01 -1.4945991337299347e-01</leafValues></_>
        <_>
          <internalNodes>
            0 -1 9 1.7454382032155991e-02</internalNodes>
          <leafValues>
            3.3390216529369354e-02 -5.1237046718597412e-01</leafValues></_>
        <_>
          <internalNodes>
            0 -1 389 4.1916698217391968e-02</internalNodes>
          <leafValues>
            2.0296176895499229e-02 -6.6192138195037842e-01</leafValues></_>
        <_>
          <internalNodes>
            0 -1 342 -3.1596131157130003e-04</internalNodes>
          <leafValues>
            -1.5910698473453522e-01 9.6031121909618378e-02</leafValues></_>
        <_>
          <internalNodes>
            0 -1 587 -1.2643506051972508e-03</internalNodes>
          <leafValues>
            -2.6548111438751221e-01 5.9701357036828995e-02</leafValues></_>
        <_>
          <internalNodes>
            0 -1 210 1.0153435170650482e-02</internalNodes>
          <leafValues>
            -3.4313268959522247e-02 4.9909129738807678e-01</leafValues></_>
        <_>
          <internalNodes>
            0 -1 32 -4.6114278957247734e-03</internalNodes>
          <leafValues>
            -6.8998807668685913e-01 2.6333546265959740e-02</leafValues></_>
        <_>
          <internalNodes>
            0 -1 516 -4.9212439917027950e-03</internalNodes>
          <leafValues>
            -5.1343810558319092e-01 2.5776730850338936e-02</leafValues></_>
        <_>
          <internalNodes>
            0 -1 337 3.0861103441566229e-03</internalNodes>
          <leafValues>
            3.3124212175607681e-02 -4.4633957743644714e-01</leafValues></_>
        <_>
          <internalNodes>
            0 -1 548 7.0058032870292664e-03</internalNodes>
          <leafValues>
            -4.6586558222770691e-02 3.4530851244926453e-01</leafValues></_>
        <_>
          <internalNodes>
            0 -1 561 6.7825545556843281e-05</internalNodes>
          <leafValues>
            1.2572167813777924e-01 -1.4413848519325256e-01</leafValues></_>
        <_>
          <internalNodes>
            0 -1 513 1.7584199085831642e-02</internalNodes>
          <leafValues>
            -5.2535772323608398e-02 3.0171626806259155e-01</leafValues></_>
        <_>
          <internalNodes>
            0 -1 464 1.1575637757778168e-01</internalNodes>
          <leafValues>
            2.8398942202329636e-02 -6.0512757301330566e-01</leafValues></_>
        <_>
          <internalNodes>
            0 -1 585 -3.6149930674582720e-03</internalNodes>
          <leafValues>
            -6.0043889284133911e-01 2.3867310956120491e-02</leafValues></_>
        <_>
          <internalNodes>
            0 -1 6 -1.5206746757030487e-02</internalNodes>
          <leafValues>
            -3.1447818875312805e-01 4.8231407999992371e-02</leafValues></_>
        <_>
          <internalNodes>
            0 -1 32 2.5578695349395275e-03</internalNodes>
          <leafValues>
            3.6896709352731705e-02 -4.1876724362373352e-01</leafValues></_>
        <_>
          <internalNodes>
            0 -1 84 -6.6276622237637639e-04</internalNodes>
          <leafValues>
            1.3400290906429291e-01 -1.1883008480072021e-01</leafValues></_>
        <_>
          <internalNodes>
            0 -1 434 5.0061079673469067e-04</internalNodes>
          <leafValues>
            -1.1983913183212280e-01 1.3198854029178619e-01</leafValues></_></weakClassifiers></_>
    <!-- stage 7 -->
    <_>
      <maxWeakCount>70</maxWeakCount>
      <stageThreshold>-1.0292270183563232e+00</stageThreshold>
      <weakClassifiers>
        <_>
          <internalNodes>
            0 -1 92 -8.1777751445770264e-02</internalNodes>
          <leafValues>
            4.2872929573059082e-01 -1.6331361234188080e-01</leafValues></_>
        <_>
          <internalNodes>
            0 -1 149 -9.8764896392822266e-03</internalNodes>
          <leafValues>
            -2.7802973985671997e-01 1.7477858066558838e-01</leafValues></_>
        <_>
          <internalNodes>
            0 -1 598 3.8069419562816620e-02</internalNodes>
          <leafValues>
            -9.2532530426979065e-02 4.1539606451988220e-01</leafValues></_>
        <_>
          <internalNodes>
            0 -1 480 5.7938605546951294e-02</internalNodes>
          <leafValues>
            -1.7169909179210663e-01 2.5100281834602356e-01</leafValues></_>
        <_>
          <internalNodes>
            0 -1 325 7.5349779799580574e-03</internalNodes>
          <leafValues>
            -1.2893949449062347e-01 2.9821056127548218e-01</leafValues></_>
        <_>
          <internalNodes>
            0 -1 281 2.0938724279403687e-02</internalNodes>
          <leafValues>
            6.5056778490543365e-02 -5.4961359500885010e-01</leafValues></_>
        <_>
          <internalNodes>
            0 -1 299 2.0702201873064041e-02</internalNodes>
          <leafValues>
            7.3897413909435272e-02 -5.2657210826873779e-01</leafValues></_>
        <_>
          <internalNodes>
            0 -1 491 -4.3547544628381729e-03</internalNodes>
          <leafValues>
            2.9876050353050232e-01 -1.0150309652090073e-01</leafValues></_>
        <_>
          <internalNodes>
            0 -1 424 9.2801842838525772e-03</internalNodes>
          <leafValues>
            -1.2235588580369949e-01 2.6869896054267883e-01</leafValues></_>
        <_>
          <internalNodes>
            0 -1 465 7.3073562816716731e-05</internalNodes>
          <leafValues>
            1.5292505919933319e-01 -1.8073776364326477e-01</leafValues></_>
        <_>
          <internalNodes>
            0 -1 93 5.9479072690010071e-02</internalNodes>
          <leafValues>
            -4.6315096318721771e-02 7.0805692672729492e-01</leafValues></_>
        <_>
          <internalNodes>
            0 -1 347 2.8268736787140369e-03</internalNodes>
          <leafValues>
            1.3416810333728790e-01 -2.1359829604625702e-01</leafValues></_>
        <_>
          <internalNodes>
            0 -1 171 2.4078387767076492e-02</internalNodes>
          <leafValues>
            -8.2083418965339661e-02 3.0221655964851379e-01</leafValues></_>
        <_>
          <internalNodes>
            0 -1 352 2.1399896591901779e-02</internalNodes>
          <leafValues>
            -7.1573331952095032e-02 3.6080810427665710e-01</leafValues></_>
        <_>
          <internalNodes>
            0 -1 163 -1.9066247623413801e-03</internalNodes>
          <leafValues>
            1.6238537430763245e-01 -1.4891803264617920e-01</leafValues></_>
        <_>
          <internalNodes>
            0 -1 120 -1.4124790905043483e-03</internalNodes>
          <leafValues>
            -2.7346500754356384e-01 7.9252228140830994e-02</leafValues></_>
        <_>
          <internalNodes>
            0 -1 320 3.8604978471994400e-03</internalNodes>
          <leafValues>
            6.5047293901443481e-02 -3.0976253747940063e-01</leafValues></_>
        <_>
          <internalNodes>
            0 -1 387 3.9626182988286018e-03</internalNodes>
          <leafValues>
            -9.2596158385276794e-02 2.2644771635532379e-01</leafValues></_>
        <_>
          <internalNodes>
            0 -1 399 5.3579285740852356e-03</internalNodes>
          <leafValues>
            3.5209231078624725e-02 -5.2453589439392090e-01</leafValues></_>
        <_>
          <internalNodes>
            0 -1 289 1.5405000187456608e-02</internalNodes>
          <leafValues>
            -5.5597290396690369e-02 3.9516261219978333e-01</leafValues></_>
        <_>
          <internalNodes>
            0 -1 192 -6.5648984163999557e-03</internalNodes>
          <leafValues>
            -7.4952161312103271e-01 3.0561823397874832e-02</leafValues></_>
        <_>
          <internalNodes>
            0 -1 245 1.0226445272564888e-02</internalNodes>
          <leafValues>
            -9.2069774866104126e-02 2.3587971925735474e-01</leafValues></_>
        <_>
          <internalNodes>
            0 -1 484 -7.4758417904376984e-03</internalNodes>
          <leafValues>
            2.8003725409507751e-01 -7.9741865396499634e-02</leafValues></_>
        <_>
          <internalNodes>
            0 -1 256 4.3896585702896118e-03</internalNodes>
          <leafValues>
            5.4031904786825180e-02 -3.4638053178787231e-01</leafValues></_>
        <_>
          <internalNodes>
            0 -1 16 -2.5101578235626221e-01</internalNodes>
          <leafValues>
            -5.9968245029449463e-01 3.0473610386252403e-02</leafValues></_>
        <_>
          <internalNodes>
            0 -1 259 7.7805258333683014e-03</internalNodes>
          <leafValues>
            6.2740415334701538e-02 -2.8812184929847717e-01</leafValues></_>
        <_>
          <internalNodes>
            0 -1 441 1.0287837125360966e-02</internalNodes>
          <leafValues>
            -1.1093088984489441e-01 2.1385261416435242e-01</leafValues></_>
        <_>
          <internalNodes>
            0 -1 623 3.9200298488140106e-03</internalNodes>
          <leafValues>
            4.5046463608741760e-02 -4.3757963180541992e-01</leafValues></_>
        <_>
          <internalNodes>
            0 -1 231 -3.2392822206020355e-02</internalNodes>
          <leafValues>
            4.6718621253967285e-01 -3.8009375333786011e-02</leafValues></_>
        <_>
          <internalNodes>
            0 -1 498 -3.4405039623379707e-03</internalNodes>
          <leafValues>
            2.4703629314899445e-01 -7.7609799802303314e-02</leafValues></_>
        <_>
          <internalNodes>
            0 -1 17 -2.7908155694603920e-02</internalNodes>
          <leafValues>
            3.8904082775115967e-01 -4.6349681913852692e-02</leafValues></_>
        <_>
          <internalNodes>
            0 -1 152 -1.1624658480286598e-02</internalNodes>
          <leafValues>
            3.1295466423034668e-01 -6.3353061676025391e-02</leafValues></_>
        <_>
          <internalNodes>
            0 -1 532 -2.7493555098772049e-03</internalNodes>
          <leafValues>
            2.2774077951908112e-01 -9.0928241610527039e-02</leafValues></_>
        <_>
          <internalNodes>
            0 -1 37 3.3876076340675354e-02</internalNodes>
          <leafValues>
            -5.4742008447647095e-02 3.5959613323211670e-01</leafValues></_>
        <_>
          <internalNodes>
            0 -1 125 1.6482269857078791e-03</internalNodes>
          <leafValues>
            8.9456841349601746e-02 -2.4492292106151581e-01</leafValues></_>
        <_>
          <internalNodes>
            0 -1 450 -3.1915185973048210e-03</internalNodes>
          <leafValues>
            -7.8353029489517212e-01 1.9339684396982193e-02</leafValues></_>
        <_>
          <internalNodes>
            0 -1 280 8.3059661090373993e-02</internalNodes>
          <leafValues>
            1.7470750957727432e-02 -7.9024970531463623e-01</leafValues></_>
        <_>
          <internalNodes>
            0 -1 394 3.7966994568705559e-03</internalNodes>
          <leafValues>
            -9.0792983770370483e-02 2.0841613411903381e-01</leafValues></_>
        <_>
          <internalNodes>
            0 -1 126 -2.8521135449409485e-02</internalNodes>
          <leafValues>
            4.4532400369644165e-01 -3.7805806845426559e-02</leafValues></_>
        <_>
          <internalNodes>
            0 -1 151 1.0758191638160497e-04</internalNodes>
          <leafValues>
            1.2557835876941681e-01 -1.3877576589584351e-01</leafValues></_>
        <_>
          <internalNodes>
            0 -1 191 -9.1743835946545005e-04</internalNodes>
          <leafValues>
            -2.0925694704055786e-01 8.3941139280796051e-02</leafValues></_>
        <_>
          <internalNodes>
            0 -1 306 -2.6436313055455685e-03</internalNodes>
          <leafValues>
            -3.1155762076377869e-01 5.6486614048480988e-02</leafValues></_>
        <_>
          <internalNodes>
            0 -1 181 -3.8869123905897141e-02</internalNodes>
          <leafValues>
            2.9142567515373230e-01 -6.2314987182617188e-02</leafValues></_>
        <_>
          <internalNodes>
            0 -1 542 -2.9886920005083084e-02</internalNodes>
          <leafValues>
            3.0448484420776367e-01 -6.2869161367416382e-02</leafValues></_>
        <_>
          <internalNodes>
            0 -1 476 -3.4840474836528301e-03</internalNodes>
          <leafValues>
            -5.4024577140808105e-01 3.5195846110582352e-02</leafValues></_>
        <_>
          <internalNodes>
            0 -1 4 -2.7050569187849760e-03</internalNodes>
          <leafValues>
            1.3981974124908447e-01 -1.2038839608430862e-01</leafValues></_>
        <_>
          <internalNodes>
            0 -1 128 4.2393513023853302e-02</internalNodes>
          <leafValues>
            5.4500482976436615e-02 -3.2005539536476135e-01</leafValues></_>
        <_>
          <internalNodes>
            0 -1 172 5.4146144539117813e-03</internalNodes>
          <leafValues>
            -8.0094158649444580e-02 2.4614673852920532e-01</leafValues></_>
        <_>
          <internalNodes>
            0 -1 557 -4.1381191462278366e-02</internalNodes>
          <leafValues>
            -7.9501914978027344e-01 2.6689145714044571e-02</leafValues></_>
        <_>
          <internalNodes>
            0 -1 351 5.1670349203050137e-03</internalNodes>
          <leafValues>
            -1.4466665685176849e-01 1.1597230285406113e-01</leafValues></_>
        <_>
          <internalNodes>
            0 -1 510 -5.5722775869071484e-04</internalNodes>
          <leafValues>
            1.8916860222816467e-01 -9.1881297528743744e-02</leafValues></_>
        <_>
          <internalNodes>
            0 -1 353 -8.1697490531951189e-04</internalNodes>
          <leafValues>
            1.6977164149284363e-01 -1.1028619855642319e-01</leafValues></_>
        <_>
          <internalNodes>
            0 -1 446 -3.0290554277598858e-03</internalNodes>
          <leafValues>
            2.0543456077575684e-01 -8.7741695344448090e-02</leafValues></_>
        <_>
          <internalNodes>
            0 -1 448 3.9561963640153408e-03</internalNodes>
          <leafValues>
            -9.4905100762844086e-02 1.9790624082088470e-01</leafValues></_>
        <_>
          <internalNodes>
            0 -1 173 -2.2610593587160110e-03</internalNodes>
          <leafValues>
            -2.9262626171112061e-01 7.4684754014015198e-02</leafValues></_>
        <_>
          <internalNodes>
            0 -1 461 -3.0784909613430500e-03</internalNodes>
          <leafValues>
            -2.8671598434448242e-01 6.2400393187999725e-02</leafValues></_>
        <_>
          <internalNodes>
            0 -1 486 1.1372352018952370e-03</internalNodes>
          <leafValues>
            5.8452341705560684e-02 -3.1183427572250366e-01</leafValues></_>
        <_>
          <internalNodes>
            0 -1 57 -2.1015174686908722e-02</internalNodes>
          <leafValues>
            3.8192752003669739e-01 -4.3684829026460648e-02</leafValues></_>
        <_>
          <internalNodes>
            0 -1 570 -2.1567547228187323e-03</internalNodes>
          <leafValues>
            -4.2593535780906677e-01 4.1143950074911118e-02</leafValues></_>
        <_>
          <internalNodes>
            0 -1 208 -6.9947484880685806e-03</internalNodes>
          <leafValues>
            4.9880242347717285e-01 -3.7132889032363892e-02</leafValues></_>
        <_>
          <internalNodes>
            0 -1 24 -3.3546097576618195e-02</internalNodes>
          <leafValues>
            2.1398270130157471e-01 -7.8949272632598877e-02</leafValues></_>
        <_>
          <internalNodes>
            0 -1 104 -7.3333329055458307e-04</internalNodes>
          <leafValues>
            -2.5079277157783508e-01 7.5967170298099518e-02</leafValues></_>
        <_>
          <internalNodes>
            0 -1 574 -2.1347150206565857e-02</internalNodes>
          <leafValues>
            4.8878741264343262e-01 -3.7790842354297638e-02</leafValues></_>
        <_>
          <internalNodes>
            0 -1 576 -1.0083217057399452e-04</internalNodes>
          <leafValues>
            -1.6157090663909912e-01 1.2957605719566345e-01</leafValues></_>
        <_>
          <internalNodes>
            0 -1 578 8.7523396359756589e-05</internalNodes>
          <leafValues>
            1.2377905845642090e-01 -1.5452179312705994e-01</leafValues></_>
        <_>
          <internalNodes>
            0 -1 113 6.0547608882188797e-03</internalNodes>
          <leafValues>
            -6.4453378319740295e-02 2.8286328911781311e-01</leafValues></_>
        <_>
          <internalNodes>
            0 -1 124 -1.5596577897667885e-02</internalNodes>
          <leafValues>
            4.4397711753845215e-01 -3.8745813071727753e-02</leafValues></_>
        <_>
          <internalNodes>
            0 -1 55 2.5916611775755882e-03</internalNodes>
          <leafValues>
            6.3972853124141693e-02 -2.7716904878616333e-01</leafValues></_>
        <_>
          <internalNodes>
            0 -1 422 -1.9065211527049541e-03</internalNodes>
          <leafValues>
            2.0946721732616425e-01 -8.5543550550937653e-02</leafValues></_>
        <_>
          <internalNodes>
            0 -1 198 1.5801587142050266e-03</internalNodes>
          <leafValues>
            -9.7407057881355286e-02 1.8349878489971161e-01</leafValues></_></weakClassifiers></_>
    <!-- stage 8 -->
    <_>
      <maxWeakCount>83</maxWeakCount>
      <stageThreshold>-8.7589228153228760e-01</stageThreshold>
      <weakClassifiers>
        <_>
          <internalNodes>
            0 -1 186 -2.4961657822132111e-02</internalNodes>
          <leafValues>
            5.1570415496826172e-01 -3.5813767462968826e-03</leafValues></_>
        <_>
          <internalNodes>
            0 -1 266 1.9822189584374428e-02</internalNodes>
          <leafValues>
            -9.4221301376819611e-02 3.6012297868728638e-01</leafValues></_>
        <_>
          <internalNodes>
            0 -1 301 -4.8533473163843155e-02</internalNodes>
          <leafValues>
