<?xml version="1.0"?>
<opencv_storage>
<stage4>
  <maxWeakCount>76</maxWeakCount>
  <stageThreshold>-9.3109393119812012e-01</stageThreshold>
  <weakClassifiers>
    <_>
      <internalNodes>
        0 -1 18967 -2.8659293428063393e-02</internalNodes>
      <leafValues>
        3.7054407596588135e-01 -2.1198830008506775e-01</leafValues></_>
    <_>
      <internalNodes>
        0 -1 54830 -2.2519871592521667e-02</internalNodes>
      <leafValues>
        3.4455463290214539e-01 -2.0199464261531830e-01</leafValues></_>
    <_>
      <internalNodes>
        0 -1 53284 7.5119198299944401e-04</internalNodes>
      <leafValues>
        -1.9688858091831207e-01 2.0323553681373596e-01</leafValues></_>
    <_>
      <internalNodes>
        0 -1 54468 -7.1536814793944359e-03</internalNodes>
      <leafValues>
        3.6688539385795593e-01 -8.3252571523189545e-02</leafValues></_>
    <_>
      <internalNodes>
        0 -1 53324 8.9516472071409225e-03</internalNodes>
      <leafValues>
        7.5399786233901978e-02 -3.3992266654968262e-01</leafValues></_>
    <_>
      <internalNodes>
        0 -1 51439 3.9760570973157883e-02</internalNodes>
      <leafValues>
        6.5825350582599640e-02 -5.6419920921325684e-01</leafValues></_>
    <_>
      <internalNodes>
        0 -1 53253 4.4340910390019417e-03</internalNodes>
      <leafValues>
        -1.5000599622726440e-01 1.9660569727420807e-01</leafValues></_>
    <_>
      <internalNodes>
        0 -1 37503 7.8301094472408295e-03</internalNodes>
      <leafValues>
        -1.5011940896511078e-01 2.3828618228435516e-01</leafValues></_>
    <_>
      <internalNodes>
        0 -1 70303 8.0252182669937611e-04</internalNodes>
      <leafValues>
        1.2935285270214081e-01 -2.0269757509231567e-01</leafValues></_>
    <_>
      <internalNodes>
        0 -1 53451 -1.5796758234500885e-03</internalNodes>
      <leafValues>
        1.9113275408744812e-01 -1.3771629333496094e-01</leafValues></_>
    <_>
      <internalNodes>
        0 -1 53279 -2.8779129497706890e-03</internalNodes>
      <leafValues>
        -3.7554940581321716e-01 8.5916630923748016e-02</leafValues></_>
    <_>
      <internalNodes>
        0 -1 52783 2.7940101921558380e-02</internalNodes>
      <leafValues>
        5.6507438421249390e-02 -5.2791422605514526e-01</leafValues></_>
    <_>
      <internalNodes>
        0 -1 54524 -1.5262686647474766e-03</internalNodes>
      <leafValues>
        2.4536100029945374e-01 -9.6797332167625427e-02</leafValues></_>
    <_>
      <internalNodes>
        0 -1 52816 2.6338402181863785e-02</internalNodes>
      <leafValues>
        -7.4892058968544006e-02 2.5296962261199951e-01</leafValues></_>
    <_>
      <internalNodes>
        0 -1 56795 -2.4924974888563156e-02</internalNodes>
      <leafValues>
        2.6117593050003052e-01 -9.7630508244037628e-02</leafValues></_>
    <_>
      <internalNodes>
        0 -1 54451 2.2263409569859505e-02</internalNodes>
      <leafValues>
        5.8050926774740219e-02 -3.7981608510017395e-01</leafValues></_>
    <_>
      <internalNodes>
        0 -1 51742 -1.9545949995517731e-02</internalNodes>
      <leafValues>
        4.4405913352966309e-01 -4.8110380768775940e-02</leafValues></_>
    <_>
      <internalNodes>
        0 -1 56912 -2.2699974942952394e-03</internalNodes>
      <leafValues>
        -4.2022788524627686e-01 5.9868015348911285e-02</leafValues></_>
    <_>
      <internalNodes>
        0 -1 44516 -8.0237798392772675e-03</internalNodes>
      <leafValues>
        2.3088994622230530e-01 -8.9875183999538422e-02</leafValues></_>
    <_>
      <internalNodes>
        0 -1 58728 -9.3292687088251114e-03</internalNodes>
      <leafValues>
        4.5437809824943542e-01 -4.2736452072858810e-02</leafValues></_>
    <_>
      <internalNodes>
        0 -1 12350 -2.7375727891921997e-02</internalNodes>
      <leafValues>
        2.8026336431503296e-01 -7.3888182640075684e-02</leafValues></_>
    <_>
      <internalNodes>
        0 -1 53459 4.5711640268564224e-03</internalNodes>
      <leafValues>
        -8.6263947188854218e-02 2.2035826742649078e-01</leafValues></_>
    <_>
      <internalNodes>
        0 -1 57788 1.4713464770466089e-03</internalNodes>
      <leafValues>
        -1.2998309731483459e-01 2.0570115745067596e-01</leafValues></_>
    <_>
      <internalNodes>
        0 -1 57196 -4.7878497280180454e-03</internalNodes>
      <leafValues>
        -6.4744871854782104e-01 3.5363994538784027e-02</leafValues></_>
    <_>
      <internalNodes>
        0 -1 7832 -4.5526631176471710e-02</internalNodes>
      <leafValues>
        4.3996825814247131e-01 -5.2708178758621216e-02</leafValues></_>
    <_>
      <internalNodes>
        0 -1 56119 -5.0595749169588089e-02</internalNodes>
      <leafValues>
        4.1259223222732544e-01 -4.6791311353445053e-02</leafValues></_>
    <_>
      <internalNodes>
        0 -1 33259 -7.8665204346179962e-03</internalNodes>
      <leafValues>
        2.3842388391494751e-01 -7.9710751771926880e-02</leafValues></_>
    <_>
      <internalNodes>
        0 -1 69826 -1.6033999621868134e-02</internalNodes>
      <leafValues>
        -4.0786755084991455e-01 4.7284126281738281e-02</leafValues></_>
    <_>
      <internalNodes>
        0 -1 21748 -7.3025380261242390e-03</internalNodes>
      <leafValues>
        -2.1602222323417664e-01 8.6934305727481842e-02</leafValues></_>
    <_>
      <internalNodes>
        0 -1 30967 1.7636165022850037e-01</internalNodes>
      <leafValues>
        3.0870035290718079e-02 -5.7714724540710449e-01</leafValues></_>
    <_>
      <internalNodes>
        0 -1 78134 6.9891605526208878e-03</internalNodes>
      <leafValues>
        -9.7238153219223022e-02 1.7424808442592621e-01</leafValues></_>
    <_>
      <internalNodes>
        0 -1 74829 -3.0613737180829048e-03</internalNodes>
      <leafValues>
        1.7538809776306152e-01 -1.0046236962080002e-01</leafValues></_>
    <_>
      <internalNodes>
        0 -1 48980 9.4465928850695491e-04</internalNodes>
      <leafValues>
        -7.6286181807518005e-02 2.3610384762287140e-01</leafValues></_>
    <_>
      <internalNodes>
        0 -1 56963 8.7835323065519333e-03</internalNodes>
      <leafValues>
        -1.0069184005260468e-01 1.8369773030281067e-01</leafValues></_>
    <_>
      <internalNodes>
        0 -1 56378 1.4547208324074745e-02</internalNodes>
      <leafValues>
        -5.3654219955205917e-02 3.7850883603096008e-01</leafValues></_>
    <_>
      <internalNodes>
        0 -1 51434 2.4419538676738739e-02</internalNodes>
      <leafValues>
        4.9188494682312012e-02 -4.3275031447410583e-01</leafValues></_>
    <_>
      <internalNodes>
        0 -1 56107 2.5799339637160301e-03</internalNodes>
      <leafValues>
        -1.2260939925909042e-01 1.6973723471164703e-01</leafValues></_>
    <_>
      <internalNodes>
        0 -1 50988 5.5665306746959686e-02</internalNodes>
      <leafValues>
        3.1835235655307770e-02 -6.6293144226074219e-01</leafValues></_>
    <_>
      <internalNodes>
        0 -1 69449 3.2769143581390381e-02</internalNodes>
      <leafValues>
        3.2798681408166885e-02 -4.9405720829963684e-01</leafValues></_>
    <_>
      <internalNodes>
        0 -1 40211 -2.5562617927789688e-02</internalNodes>
      <leafValues>
        -4.1828414797782898e-01 4.3298535048961639e-02</leafValues></_>
    <_>
      <internalNodes>
        0 -1 45864 -1.3213265687227249e-02</internalNodes>
      <leafValues>
        4.7346761822700500e-01 -5.0347141921520233e-02</leafValues></_>
    <_>
      <internalNodes>
        0 -1 47308 7.7795693650841713e-03</internalNodes>
      <leafValues>
        -8.8986441493034363e-02 2.1093876659870148e-01</leafValues></_>
    <_>
      <internalNodes>
        0 -1 61826 -9.2780739068984985e-03</internalNodes>
      <leafValues>
        2.3278971016407013e-01 -8.2999035716056824e-02</leafValues></_>
    <_>
      <internalNodes>
        0 -1 52111 -2.7795277535915375e-02</internalNodes>
      <leafValues>
        3.0530348420143127e-01 -6.0899879783391953e-02</leafValues></_>
    <_>
      <internalNodes>
        0 -1 25591 -8.2596801221370697e-03</internalNodes>
      <leafValues>
        1.3536421954631805e-01 -1.3885176181793213e-01</leafValues></_>
    <_>
      <internalNodes>
        0 -1 32499 -1.6683518886566162e-02</internalNodes>
      <leafValues>
        -4.1106724739074707e-01 5.6150484830141068e-02</leafValues></_>
    <_>
      <internalNodes>
        0 -1 53729 5.3034317679703236e-03</internalNodes>
      <leafValues>
        3.5569045692682266e-02 -4.7831979393959045e-01</leafValues></_>
    <_>
      <internalNodes>
        0 -1 7544 5.6973600294440985e-04</internalNodes>
      <leafValues>
        9.0191565454006195e-02 -1.9708326458930969e-01</leafValues></_>
    <_>
      <internalNodes>
        0 -1 215 -2.7826335281133652e-02</internalNodes>
      <leafValues>
        -2.3663677275180817e-01 7.3590144515037537e-02</leafValues></_>
    <_>
      <internalNodes>
        0 -1 66919 3.5979203879833221e-02</internalNodes>
      <leafValues>
        -2.5803543627262115e-02 6.1995136737823486e-01</leafValues></_>
    <_>
      <internalNodes>
        0 -1 70600 8.5892475908622146e-05</internalNodes>
      <leafValues>
        1.2495534867048264e-01 -1.6145950555801392e-01</leafValues></_>
    <_>
      <internalNodes>
        0 -1 64658 -3.6518596112728119e-02</internalNodes>
      <leafValues>
        -4.0816107392311096e-01 4.0591448545455933e-02</leafValues></_>
    <_>
      <internalNodes>
        0 -1 18451 -2.2988285869359970e-02</internalNodes>
      <leafValues>
        -6.3782912492752075e-01 2.2508671507239342e-02</leafValues></_>
    <_>
      <internalNodes>
        0 -1 77663 4.5999987050890923e-03</internalNodes>
      <leafValues>
        3.0550207942724228e-02 -5.0556474924087524e-01</leafValues></_>
    <_>
      <internalNodes>
        0 -1 61445 -8.9293066412210464e-03</internalNodes>
      <leafValues>
        -6.5156030654907227e-01 2.3716328665614128e-02</leafValues></_>
    <_>
      <internalNodes>
        0 -1 56921 6.0105584561824799e-03</internalNodes>
      <leafValues>
        -7.6359130442142487e-02 2.2585773468017578e-01</leafValues></_>
    <_>
      <internalNodes>
        0 -1 56065 -1.0311631485819817e-02</internalNodes>
      <leafValues>
        2.6874539256095886e-01 -6.6464982926845551e-02</leafValues></_>
    <_>
      <internalNodes>
        0 -1 4390 1.9315547542646527e-03</internalNodes>
      <leafValues>
        -8.0407932400703430e-02 2.1733421087265015e-01</leafValues></_>
    <_>
      <internalNodes>
        0 -1 4476 -7.0308279246091843e-03</internalNodes>
      <leafValues>
        2.4439215660095215e-01 -7.9566173255443573e-02</leafValues></_>
    <_>
      <internalNodes>
        0 -1 38698 5.2113235142314807e-05</internalNodes>
      <leafValues>
        1.2403355538845062e-01 -1.5410351753234863e-01</leafValues></_>
    <_>
      <internalNodes>
        0 -1 17809 4.4339303858578205e-03</internalNodes>
      <leafValues>
        3.2338749617338181e-02 -6.2707173824310303e-01</leafValues></_>
    <_>
      <internalNodes>
        0 -1 57196 1.9391913665458560e-03</internalNodes>
      <leafValues>
        5.8535013347864151e-02 -2.7885290980339050e-01</leafValues></_>
    <_>
      <internalNodes>
        0 -1 43415 -3.5989503376185894e-03</internalNodes>
      <leafValues>
        -2.5165522098541260e-01 6.6698111593723297e-02</leafValues></_>
    <_>
      <internalNodes>
        0 -1 59958 -9.4113615341484547e-04</internalNodes>
      <leafValues>
        2.0626382529735565e-01 -8.0447167158126831e-02</leafValues></_>
    <_>
      <internalNodes>
        0 -1 20327 -3.1483587808907032e-03</internalNodes>
      <leafValues>
        -2.6199248433113098e-01 6.6690094769001007e-02</leafValues></_>
    <_>
      <internalNodes>
        0 -1 57979 -4.7041208017617464e-04</internalNodes>
      <leafValues>
        1.4941830933094025e-01 -1.1367297172546387e-01</leafValues></_>
    <_>
      <internalNodes>
        0 -1 40052 -1.8747681379318237e-01</internalNodes>
      <leafValues>
        -3.1608346104621887e-01 5.4306905716657639e-02</leafValues></_>
    <_>
      <internalNodes>
        0 -1 32739 -5.0015808083117008e-03</internalNodes>
      <leafValues>
        1.3975620269775391e-01 -1.5367895364761353e-01</leafValues></_>
    <_>
      <internalNodes>
        0 -1 47615 3.2500713132321835e-03</internalNodes>
      <leafValues>
        -8.0949693918228149e-02 2.3127248883247375e-01</leafValues></_>
    <_>
      <internalNodes>
        0 -1 31964 1.9012415577890351e-05</internalNodes>
      <leafValues>
        1.2742933630943298e-01 -1.4015820622444153e-01</leafValues></_>
    <_>
      <internalNodes>
        0 -1 25425 1.7302675405517220e-04</internalNodes>
      <leafValues>
        1.2767057120800018e-01 -1.5094470977783203e-01</leafValues></_>
    <_>
      <internalNodes>
        0 -1 35761 5.0912401638925076e-04</internalNodes>
      <leafValues>
        -8.6423933506011963e-02 2.0608001947402954e-01</leafValues></_>
    <_>
      <internalNodes>
        0 -1 11736 3.2327682711184025e-03</internalNodes>
      <leafValues>
        3.3405404537916183e-02 -5.4691976308822632e-01</leafValues></_>
    <_>
      <internalNodes>
        0 -1 4193 1.4207388460636139e-01</internalNodes>
      <leafValues>
        1.3691275380551815e-02 -9.4581556320190430e-01</leafValues></_>
    <_>
      <internalNodes>
        0 -1 58 1.6772363334894180e-02</internalNodes>
      <leafValues>
        -6.3986666500568390e-02 2.7099576592445374e-01</leafValues></_>
    <_>
      <internalNodes>
        0 -1 75135 1.7964746803045273e-04</internalNodes>
      <leafValues>
        1.0612332075834274e-01 -1.6116702556610107e-01</leafValues></_></weakClassifiers></stage4>
</opencv_storage>
