<?xml version="1.0"?>
<opencv_storage>
<stage9>
  <maxWeakCount>72</maxWeakCount>
  <stageThreshold>-1.1608775854110718e+00</stageThreshold>
  <weakClassifiers>
    <_>
      <internalNodes>
        0 -1 8664 -2.5253921747207642e-01</internalNodes>
      <leafValues>
        7.5069509446620941e-02 -3.1623932719230652e-01</leafValues></_>
    <_>
      <internalNodes>
        0 -1 54535 -4.4892551377415657e-03</internalNodes>
      <leafValues>
        2.1180908381938934e-01 -1.4638078212738037e-01</leafValues></_>
    <_>
      <internalNodes>
        0 -1 61250 -1.6121333464980125e-03</internalNodes>
      <leafValues>
        -6.1877351999282837e-01 4.0511716157197952e-02</leafValues></_>
    <_>
      <internalNodes>
        0 -1 40321 -1.1663215234875679e-02</internalNodes>
      <leafValues>
        2.0600767433643341e-01 -1.3406479358673096e-01</leafValues></_>
    <_>
      <internalNodes>
        0 -1 25821 -4.4973015785217285e-02</internalNodes>
      <leafValues>
        5.1857316493988037e-01 -5.0940591841936111e-02</leafValues></_>
    <_>
      <internalNodes>
        0 -1 52937 -1.7608278430998325e-03</internalNodes>
      <leafValues>
        1.7643609642982483e-01 -1.6034004092216492e-01</leafValues></_>
    <_>
      <internalNodes>
        0 -1 46768 9.0481400489807129e-02</internalNodes>
      <leafValues>
        7.7389374375343323e-02 -5.8491092920303345e-01</leafValues></_>
    <_>
      <internalNodes>
        0 -1 36145 -6.9419428706169128e-02</internalNodes>
      <leafValues>
        -5.3421926498413086e-01 -1.5463403426110744e-02</leafValues></_>
    <_>
      <internalNodes>
        0 -1 54480 -4.5984573662281036e-03</internalNodes>
      <leafValues>
        2.3337310552597046e-01 -7.7953346073627472e-02</leafValues></_>
    <_>
      <internalNodes>
        0 -1 53209 9.2918155132792890e-05</internalNodes>
      <leafValues>
        9.1362223029136658e-02 -2.2105211019515991e-01</leafValues></_>
    <_>
      <internalNodes>
        0 -1 53207 -9.0136221842840314e-05</internalNodes>
      <leafValues>
        -1.9311986863613129e-01 1.4693854749202728e-01</leafValues></_>
    <_>
      <internalNodes>
        0 -1 53445 8.3818093116860837e-05</internalNodes>
      <leafValues>
        1.3640582561492920e-01 -2.1769870817661285e-01</leafValues></_>
    <_>
      <internalNodes>
        0 -1 47317 -2.6594841852784157e-02</internalNodes>
      <leafValues>
        3.2404831051826477e-01 -8.0993771553039551e-02</leafValues></_>
    <_>
      <internalNodes>
        0 -1 41826 1.8393900245428085e-02</internalNodes>
      <leafValues>
        -1.1521848291158676e-01 2.4926242232322693e-01</leafValues></_>
    <_>
      <internalNodes>
        0 -1 49012 4.9259751103818417e-03</internalNodes>
      <leafValues>
        6.8190984427928925e-02 -6.1255818605422974e-01</leafValues></_>
    <_>
      <internalNodes>
        0 -1 43751 2.2865736391395330e-03</internalNodes>
      <leafValues>
        6.4595147967338562e-02 -2.3773346841335297e-01</leafValues></_>
    <_>
      <internalNodes>
        0 -1 48902 -4.2212349362671375e-03</internalNodes>
      <leafValues>
        -5.4417550563812256e-01 3.8903217762708664e-02</leafValues></_>
    <_>
      <internalNodes>
        0 -1 43584 1.2397141195833683e-02</internalNodes>
      <leafValues>
        -4.5586585998535156e-02 3.9281585812568665e-01</leafValues></_>
    <_>
      <internalNodes>
        0 -1 20054 6.9538848474621773e-03</internalNodes>
      <leafValues>
        -1.2967202067375183e-01 1.6194362938404083e-01</leafValues></_>
    <_>
      <internalNodes>
        0 -1 41575 -1.2897187471389771e-01</internalNodes>
      <leafValues>
        -5.7165825366973877e-01 2.0888125523924828e-02</leafValues></_>
    <_>
      <internalNodes>
        0 -1 44129 5.5229719728231430e-03</internalNodes>
      <leafValues>
        -1.0364285111427307e-01 2.0471358299255371e-01</leafValues></_>
    <_>
      <internalNodes>
        0 -1 63617 6.2791523523628712e-03</internalNodes>
      <leafValues>
        -7.9684108495712280e-02 2.4335716664791107e-01</leafValues></_>
    <_>
      <internalNodes>
        0 -1 54436 -4.3675517663359642e-03</internalNodes>
      <leafValues>
        -2.7587082982063293e-01 7.6732888817787170e-02</leafValues></_>
    <_>
      <internalNodes>
        0 -1 72538 4.3411266233306378e-05</internalNodes>
      <leafValues>
        1.0724338144063950e-01 -1.6191892325878143e-01</leafValues></_>
    <_>
      <internalNodes>
        0 -1 58982 -5.6072631850838661e-03</internalNodes>
      <leafValues>
        2.3404531180858612e-01 -7.9539708793163300e-02</leafValues></_>
    <_>
      <internalNodes>
        0 -1 49769 3.2036975026130676e-03</internalNodes>
      <leafValues>
        4.5200452208518982e-02 -4.4304913282394409e-01</leafValues></_>
    <_>
      <internalNodes>
        0 -1 55737 -4.9694729968905449e-03</internalNodes>
      <leafValues>
        -2.4760720133781433e-01 6.6539533436298370e-02</leafValues></_>
    <_>
      <internalNodes>
        0 -1 64544 4.0099960751831532e-03</internalNodes>
      <leafValues>
        -8.1846162676811218e-02 2.3798723518848419e-01</leafValues></_>
    <_>
      <internalNodes>
        0 -1 64123 -7.2900867089629173e-03</internalNodes>
      <leafValues>
        2.5477537512779236e-01 -7.1768507361412048e-02</leafValues></_>
    <_>
      <internalNodes>
        0 -1 48406 2.3622959852218628e-03</internalNodes>
      <leafValues>
        5.1887266337871552e-02 -3.0854782462120056e-01</leafValues></_>
    <_>
      <internalNodes>
        0 -1 53091 -6.1143335187807679e-04</internalNodes>
      <leafValues>
        -1.7954993247985840e-01 1.0103029012680054e-01</leafValues></_>
    <_>
      <internalNodes>
        0 -1 48520 3.1138448975980282e-03</internalNodes>
      <leafValues>
        -1.3382661342620850e-01 1.6701994836330414e-01</leafValues></_>
    <_>
      <internalNodes>
        0 -1 73561 -4.2833574116230011e-03</internalNodes>
      <leafValues>
        1.9751572608947754e-01 -9.1703288257122040e-02</leafValues></_>
    <_>
      <internalNodes>
        0 -1 53068 4.6467192471027374e-02</internalNodes>
      <leafValues>
        3.0674083158373833e-02 -7.5504893064498901e-01</leafValues></_>
    <_>
      <internalNodes>
        0 -1 38437 8.4221381694078445e-03</internalNodes>
      <leafValues>
        5.5326696485280991e-02 -3.0898091197013855e-01</leafValues></_>
    <_>
      <internalNodes>
        0 -1 77913 3.9539385586977005e-02</internalNodes>
      <leafValues>
        -3.5185281187295914e-02 5.0321286916732788e-01</leafValues></_>
    <_>
      <internalNodes>
        0 -1 59960 -3.7685807910747826e-04</internalNodes>
      <leafValues>
        1.5660446882247925e-01 -9.9194742739200592e-02</leafValues></_>
    <_>
      <internalNodes>
        0 -1 17029 -4.6839559078216553e-01</internalNodes>
      <leafValues>
        1.8849030137062073e-01 -9.5652736723423004e-02</leafValues></_>
    <_>
      <internalNodes>
        0 -1 21484 1.8169549293816090e-03</internalNodes>
      <leafValues>
        -9.2854075133800507e-02 1.8913483619689941e-01</leafValues></_>
    <_>
      <internalNodes>
        0 -1 54691 -1.3236843515187502e-03</internalNodes>
      <leafValues>
        1.5171478688716888e-01 -1.1818491667509079e-01</leafValues></_>
    <_>
      <internalNodes>
        0 -1 54625 6.3036434585228562e-04</internalNodes>
      <leafValues>
        -9.4835586845874786e-02 1.9158768653869629e-01</leafValues></_>
    <_>
      <internalNodes>
        0 -1 1449 -1.2584988144226372e-04</internalNodes>
      <leafValues>
        -1.6096891462802887e-01 1.0603483766317368e-01</leafValues></_>
    <_>
      <internalNodes>
        0 -1 46610 1.6317706555128098e-02</internalNodes>
      <leafValues>
        -8.0932341516017914e-02 2.2257468104362488e-01</leafValues></_>
    <_>
      <internalNodes>
        0 -1 48006 1.7377683892846107e-02</internalNodes>
      <leafValues>
        3.6543503403663635e-02 -5.3226244449615479e-01</leafValues></_>
    <_>
      <internalNodes>
        0 -1 74582 2.8521410422399640e-04</internalNodes>
      <leafValues>
        1.1019037663936615e-01 -1.6708046197891235e-01</leafValues></_>
    <_>
      <internalNodes>
        0 -1 74829 -3.1853183172643185e-03</internalNodes>
      <leafValues>
        1.8563166260719299e-01 -1.3610935211181641e-01</leafValues></_>
    <_>
      <internalNodes>
        0 -1 72685 -4.8813879402587190e-05</internalNodes>
      <leafValues>
        -1.4499734342098236e-01 1.2079443037509918e-01</leafValues></_>
    <_>
      <internalNodes>
        0 -1 72818 8.1715661508496851e-05</internalNodes>
      <leafValues>
        1.1642678081989288e-01 -1.5988862514495850e-01</leafValues></_>
    <_>
      <internalNodes>
        0 -1 74557 -6.5985005348920822e-03</internalNodes>
      <leafValues>
        1.9772145152091980e-01 -9.4116374850273132e-02</leafValues></_>
    <_>
      <internalNodes>
        0 -1 64781 -1.1756770312786102e-02</internalNodes>
      <leafValues>
        2.0936731994152069e-01 -8.6358301341533661e-02</leafValues></_>
    <_>
      <internalNodes>
        0 -1 64582 -3.5886086523532867e-02</internalNodes>
      <leafValues>
        4.1565880179405212e-01 -4.1807882487773895e-02</leafValues></_>
    <_>
      <internalNodes>
        0 -1 53511 5.8896304108202457e-03</internalNodes>
      <leafValues>
        2.5549015030264854e-02 -7.3924714326858521e-01</leafValues></_>
    <_>
      <internalNodes>
        0 -1 61885 9.3119998928159475e-04</internalNodes>
      <leafValues>
        -1.1491806805133820e-01 1.6564342379570007e-01</leafValues></_>
    <_>
      <internalNodes>
        0 -1 62545 -1.2179688550531864e-02</internalNodes>
      <leafValues>
        1.8242706358432770e-01 -9.2406928539276123e-02</leafValues></_>
    <_>
      <internalNodes>
        0 -1 5312 -2.5812988169491291e-03</internalNodes>
      <leafValues>
        2.0039305090904236e-01 -9.0802624821662903e-02</leafValues></_>
    <_>
      <internalNodes>
        0 -1 53443 -7.4309733463451266e-05</internalNodes>
      <leafValues>
        -1.7518863081932068e-01 9.9088631570339203e-02</leafValues></_>
    <_>
      <internalNodes>
        0 -1 55402 -1.1517144739627838e-02</internalNodes>
      <leafValues>
        2.4436222016811371e-01 -7.3936633765697479e-02</leafValues></_>
    <_>
      <internalNodes>
        0 -1 35861 8.4302805364131927e-02</internalNodes>
      <leafValues>
        2.9205434024333954e-02 -6.2793105840682983e-01</leafValues></_>
    <_>
      <internalNodes>
        0 -1 50985 1.5262374654412270e-03</internalNodes>
      <leafValues>
        -1.2374198436737061e-01 1.5043051540851593e-01</leafValues></_>
    <_>
      <internalNodes>
        0 -1 50563 3.6915592849254608e-02</internalNodes>
      <leafValues>
        2.8870865702629089e-02 -5.5526286363601685e-01</leafValues></_>
    <_>
      <internalNodes>
        0 -1 7151 6.6137807443737984e-03</internalNodes>
      <leafValues>
        3.9111856371164322e-02 -3.9171987771987915e-01</leafValues></_>
    <_>
      <internalNodes>
        0 -1 59762 3.4736555535346270e-03</internalNodes>
      <leafValues>
        3.7435684353113174e-02 -4.2780107259750366e-01</leafValues></_>
    <_>
      <internalNodes>
        0 -1 77082 -4.2014596983790398e-03</internalNodes>
      <leafValues>
        1.7015923559665680e-01 -9.8181493580341339e-02</leafValues></_>
    <_>
      <internalNodes>
        0 -1 8066 1.9563717767596245e-02</internalNodes>
      <leafValues>
        7.4269339442253113e-02 -2.2115691006183624e-01</leafValues></_>
    <_>
      <internalNodes>
        0 -1 15209 -2.3083889856934547e-02</internalNodes>
      <leafValues>
        -3.7167689204216003e-01 4.7514762729406357e-02</leafValues></_>
    <_>
      <internalNodes>
        0 -1 49970 -1.2298945803195238e-03</internalNodes>
      <leafValues>
        2.1845944225788116e-01 -7.6554767787456512e-02</leafValues></_>
    <_>
      <internalNodes>
        0 -1 49970 4.6954082790762186e-04</internalNodes>
      <leafValues>
        -9.6203744411468506e-02 1.7209835350513458e-01</leafValues></_>
    <_>
      <internalNodes>
        0 -1 21049 -5.8779858052730560e-02</internalNodes>
      <leafValues>
        -5.9278213977813721e-01 2.5433575734496117e-02</leafValues></_>
    <_>
      <internalNodes>
        0 -1 21694 7.4121431680396199e-04</internalNodes>
      <leafValues>
        -1.3624678552150726e-01 1.1506120115518570e-01</leafValues></_>
    <_>
      <internalNodes>
        0 -1 23734 5.2396751940250397e-02</internalNodes>
      <leafValues>
        -4.9185995012521744e-02 3.3567684888839722e-01</leafValues></_>
    <_>
      <internalNodes>
        0 -1 34834 1.5051221475005150e-02</internalNodes>
      <leafValues>
        -8.2584120333194733e-02 1.9938504695892334e-01</leafValues></_>
    <_>
      <internalNodes>
        0 -1 31589 7.9501944128423929e-05</internalNodes>
      <leafValues>
        1.0388301312923431e-01 -1.5730960667133331e-01</leafValues></_></weakClassifiers></stage9>
</opencv_storage>
