<?xml version="1.0"?>
<opencv_storage>
<stage5>
  <maxWeakCount>45</maxWeakCount>
  <stageThreshold>-1.2654240131378174e+00</stageThreshold>
  <weakClassifiers>
    <_>
      <internalNodes>
        0 -1 1109 -4.0355348587036133e-01</internalNodes>
      <leafValues>
        2.5307378172874451e-01 -3.9839902520179749e-01</leafValues></_>
    <_>
      <internalNodes>
        0 -1 56954 1.9086266402155161e-03</internalNodes>
      <leafValues>
        6.2482986599206924e-02 -5.6479954719543457e-01</leafValues></_>
    <_>
      <internalNodes>
        0 -1 62367 9.4730564160272479e-04</internalNodes>
      <leafValues>
        -1.5414714813232422e-01 2.4699725210666656e-01</leafValues></_>
    <_>
      <internalNodes>
        0 -1 55037 9.7851585596799850e-03</internalNodes>
      <leafValues>
        -1.1517242342233658e-01 3.5326573252677917e-01</leafValues></_>
    <_>
      <internalNodes>
        0 -1 38180 8.1531777977943420e-03</internalNodes>
      <leafValues>
        -1.6101771593093872e-01 3.1779721379280090e-01</leafValues></_>
    <_>
      <internalNodes>
        0 -1 48668 4.6474486589431763e-03</internalNodes>
      <leafValues>
        9.5870546996593475e-02 -5.4748147726058960e-01</leafValues></_>
    <_>
      <internalNodes>
        0 -1 48514 -4.2270137928426266e-03</internalNodes>
      <leafValues>
        2.6912519335746765e-01 -1.6953510046005249e-01</leafValues></_>
    <_>
      <internalNodes>
        0 -1 60893 -8.0415241420269012e-02</internalNodes>
      <leafValues>
        5.3137272596359253e-01 -8.6472652852535248e-02</leafValues></_>
    <_>
      <internalNodes>
        0 -1 334 -8.0026946961879730e-03</internalNodes>
      <leafValues>
        2.7645346522331238e-01 -1.3698107004165649e-01</leafValues></_>
    <_>
      <internalNodes>
        0 -1 53348 -3.9811069145798683e-03</internalNodes>
      <leafValues>
        -4.9978995323181152e-01 5.2393347024917603e-02</leafValues></_>
    <_>
      <internalNodes>
        0 -1 64334 2.3303590714931488e-03</internalNodes>
      <leafValues>
        -9.7757428884506226e-02 3.1767213344573975e-01</leafValues></_>
    <_>
      <internalNodes>
        0 -1 61443 -1.2908496428281069e-03</internalNodes>
      <leafValues>
        -6.8667250871658325e-01 4.1986119002103806e-02</leafValues></_>
    <_>
      <internalNodes>
        0 -1 57984 8.4373503923416138e-03</internalNodes>
      <leafValues>
        4.3685305863618851e-02 -7.7844643592834473e-01</leafValues></_>
    <_>
      <internalNodes>
        0 -1 52497 -3.9823934435844421e-02</internalNodes>
      <leafValues>
        -5.6235724687576294e-01 5.0042394548654556e-02</leafValues></_>
    <_>
      <internalNodes>
        0 -1 61447 3.5716022830456495e-03</internalNodes>
      <leafValues>
        -1.1635042726993561e-01 3.4207880496978760e-01</leafValues></_>
    <_>
      <internalNodes>
        0 -1 67820 -6.1169327236711979e-03</internalNodes>
      <leafValues>
        3.8004660606384277e-01 -8.6317487061023712e-02</leafValues></_>
    <_>
      <internalNodes>
        0 -1 51570 -5.8386519551277161e-02</internalNodes>
      <leafValues>
        -6.1643379926681519e-01 6.1214126646518707e-02</leafValues></_>
    <_>
      <internalNodes>
        0 -1 59105 3.0535627156496048e-02</internalNodes>
      <leafValues>
        3.9228562265634537e-02 -6.6146290302276611e-01</leafValues></_>
    <_>
      <internalNodes>
        0 -1 8107 -4.4203835725784302e-01</internalNodes>
      <leafValues>
        -6.4052975177764893e-01 3.6044936627149582e-02</leafValues></_>
    <_>
      <internalNodes>
        0 -1 41004 7.5136907398700714e-02</internalNodes>
      <leafValues>
        -7.4941240251064301e-02 4.0368887782096863e-01</leafValues></_>
    <_>
      <internalNodes>
        0 -1 46559 5.6843301281332970e-03</internalNodes>
      <leafValues>
        -1.4707319438457489e-01 2.4133855104446411e-01</leafValues></_>
    <_>
      <internalNodes>
        0 -1 46364 7.9635389149188995e-02</internalNodes>
      <leafValues>
        5.9011887758970261e-02 -5.7251876592636108e-01</leafValues></_>
    <_>
      <internalNodes>
        0 -1 42949 2.7162015903741121e-03</internalNodes>
      <leafValues>
        -1.2268399447202682e-01 2.4871245026588440e-01</leafValues></_>
    <_>
      <internalNodes>
        0 -1 9125 4.0409866720438004e-02</internalNodes>
      <leafValues>
        -1.3877575099468231e-01 2.1283549070358276e-01</leafValues></_>
    <_>
      <internalNodes>
        0 -1 20061 2.4359531700611115e-02</internalNodes>
      <leafValues>
        -7.0204921066761017e-02 4.4073444604873657e-01</leafValues></_>
    <_>
      <internalNodes>
        0 -1 4941 4.5048878528177738e-03</internalNodes>
      <leafValues>
        -1.1951986700296402e-01 2.2605712711811066e-01</leafValues></_>
    <_>
      <internalNodes>
        0 -1 8298 -1.6808748245239258e-02</internalNodes>
      <leafValues>
        2.2919140756130219e-01 -1.1716383695602417e-01</leafValues></_>
    <_>
      <internalNodes>
        0 -1 57392 7.0558127481490374e-04</internalNodes>
      <leafValues>
        6.3987284898757935e-02 -4.1721695661544800e-01</leafValues></_>
    <_>
      <internalNodes>
        0 -1 41631 -3.1816720962524414e-02</internalNodes>
      <leafValues>
        -4.0300837159156799e-01 6.5353021025657654e-02</leafValues></_>
    <_>
      <internalNodes>
        0 -1 57392 -1.5284977853298187e-03</internalNodes>
      <leafValues>
        -5.2474194765090942e-01 5.1062434911727905e-02</leafValues></_>
    <_>
      <internalNodes>
        0 -1 59056 1.8846321851015091e-02</internalNodes>
      <leafValues>
        -1.1449861526489258e-01 2.7028399705886841e-01</leafValues></_>
    <_>
      <internalNodes>
        0 -1 57396 4.7495928592979908e-03</internalNodes>
      <leafValues>
        -8.9074261486530304e-02 3.6736819148063660e-01</leafValues></_>
    <_>
      <internalNodes>
        0 -1 54516 -1.7457667272537947e-03</internalNodes>
      <leafValues>
        -3.2011702656745911e-01 7.8407123684883118e-02</leafValues></_>
    <_>
      <internalNodes>
        0 -1 49872 1.9926767796278000e-02</internalNodes>
      <leafValues>
        4.3645836412906647e-02 -5.3988635540008545e-01</leafValues></_>
    <_>
      <internalNodes>
        0 -1 41934 -1.2068131566047668e-01</internalNodes>
      <leafValues>
        6.6373234987258911e-01 -4.2652282863855362e-02</leafValues></_>
    <_>
      <internalNodes>
        0 -1 46191 -5.6523818522691727e-02</internalNodes>
      <leafValues>
        3.3754619956016541e-01 -7.4582785367965698e-02</leafValues></_>
    <_>
      <internalNodes>
        0 -1 67645 -3.6131539382040501e-03</internalNodes>
      <leafValues>
        2.5809872150421143e-01 -1.0292903333902359e-01</leafValues></_>
    <_>
      <internalNodes>
        0 -1 44957 3.8422928191721439e-03</internalNodes>
      <leafValues>
        -1.3867588341236115e-01 1.8213947117328644e-01</leafValues></_>
    <_>
      <internalNodes>
        0 -1 18793 -1.0589896701276302e-03</internalNodes>
      <leafValues>
        2.0768354833126068e-01 -1.2042147666215897e-01</leafValues></_>
    <_>
      <internalNodes>
        0 -1 52471 4.0982486680150032e-03</internalNodes>
      <leafValues>
        6.5335609018802643e-02 -3.9640602469444275e-01</leafValues></_>
    <_>
      <internalNodes>
        0 -1 47813 -1.1211283504962921e-02</internalNodes>
      <leafValues>
        -8.3905321359634399e-01 2.4389477446675301e-02</leafValues></_>
    <_>
      <internalNodes>
        0 -1 40809 -2.6124877855181694e-02</internalNodes>
      <leafValues>
        2.1145653724670410e-01 -1.2019911408424377e-01</leafValues></_>
    <_>
      <internalNodes>
        0 -1 67191 5.5512651801109314e-02</internalNodes>
      <leafValues>
        -8.0119699239730835e-02 3.0571249127388000e-01</leafValues></_>
    <_>
      <internalNodes>
        0 -1 15259 -5.8463126420974731e-02</internalNodes>
      <leafValues>
        -4.5323228836059570e-01 5.6408487260341644e-02</leafValues></_>
    <_>
      <internalNodes>
        0 -1 25645 2.7747958898544312e-02</internalNodes>
      <leafValues>
        4.8509288579225540e-02 -4.7615411877632141e-01</leafValues></_></weakClassifiers></stage5>
</opencv_storage>
