<?xml version="1.0"?>
<opencv_storage>
<cascade>
  <stageType>BOOST</stageType>
  <featureType>HAAR</featureType>
  <height>20</height>
  <width>20</width>
  <stageParams>
    <boostType>GAB</boostType>
    <minHitRate>9.9500000476837158e-01</minHitRate>
    <maxFalseAlarm>5.0000000000000000e-01</maxFalseAlarm>
    <weightTrimRate>9.4999999999999996e-01</weightTrimRate>
    <maxDepth>1</maxDepth>
    <maxWeakCount>100</maxWeakCount></stageParams>
  <featureParams>
    <maxCatCount>0</maxCatCount>
    <featSize>1</featSize>
    <mode>BASIC</mode></featureParams>
  <stageNum>10</stageNum>
  <stages>
    <!-- stage 0 -->
    <_>
      <maxWeakCount>29</maxWeakCount>
      <stageThreshold>-1.2227005958557129e+00</stageThreshold>
      <weakClassifiers>
        <_>
          <internalNodes>
            0 -1 169 -1.0495962947607040e-01</internalNodes>
          <leafValues>
            5.2686917781829834e-01 -5.0286942720413208e-01</leafValues></_>
        <_>
          <internalNodes>
            0 -1 325 -1.7773095518350601e-02</internalNodes>
          <leafValues>
            3.7978523969650269e-01 -2.2599819302558899e-01</leafValues></_>
        <_>
          <internalNodes>
            0 -1 387 1.7150633037090302e-02</internalNodes>
          <leafValues>
            -2.0118980109691620e-01 3.3897897601127625e-01</leafValues></_>
        <_>
          <internalNodes>
            0 -1 376 2.8790428768843412e-03</internalNodes>
          <leafValues>
            -1.9286991655826569e-01 3.5749429464340210e-01</leafValues></_>
        <_>
          <internalNodes>
            0 -1 379 -3.5905921831727028e-03</internalNodes>
          <leafValues>
            3.4919652342796326e-01 -1.5325687825679779e-01</leafValues></_>
        <_>
          <internalNodes>
            0 -1 236 -5.3582675755023956e-03</internalNodes>
          <leafValues>
            3.7166297435760498e-01 -1.7815488576889038e-01</leafValues></_>
        <_>
          <internalNodes>
            0 -1 450 -4.6808999031782150e-03</internalNodes>
          <leafValues>
            4.0636733174324036e-01 -6.9856859743595123e-02</leafValues></_>
        <_>
          <internalNodes>
            0 -1 451 5.6869965046644211e-03</internalNodes>
          <leafValues>
            -1.8864008784294128e-01 2.8328707814216614e-01</leafValues></_>
        <_>
          <internalNodes>
            0 -1 14 6.6497668623924255e-02</internalNodes>
          <leafValues>
            -3.8504332304000854e-02 5.9485632181167603e-01</leafValues></_>
        <_>
          <internalNodes>
            0 -1 358 -3.4436531364917755e-02</internalNodes>
          <leafValues>
            4.3526974320411682e-01 -8.4079399704933167e-02</leafValues></_>
        <_>
          <internalNodes>
            0 -1 454 -4.3086600489914417e-03</internalNodes>
          <leafValues>
            -5.1170420646667480e-01 8.4894903004169464e-02</leafValues></_>
        <_>
          <internalNodes>
            0 -1 443 -2.9301778413355350e-03</internalNodes>
          <leafValues>
            -5.1197838783264160e-01 7.2629854083061218e-02</leafValues></_>
        <_>
          <internalNodes>
            0 -1 282 -3.8521443493664265e-03</internalNodes>
          <leafValues>
            3.3678480982780457e-01 -1.0849841684103012e-01</leafValues></_>
        <_>
          <internalNodes>
            0 -1 428 -8.3711594343185425e-03</internalNodes>
          <leafValues>
            4.2145866155624390e-01 -9.4075076282024384e-02</leafValues></_>
        <_>
          <internalNodes>
            0 -1 130 -6.6694393754005432e-02</internalNodes>
          <leafValues>
            3.2572206854820251e-01 -1.0732790827751160e-01</leafValues></_>
        <_>
          <internalNodes>
            0 -1 529 -5.1092216745018959e-04</internalNodes>
          <leafValues>
            1.9022676348686218e-01 -1.6165833175182343e-01</leafValues></_>
        <_>
          <internalNodes>
            0 -1 671 7.8822404146194458e-02</internalNodes>
          <leafValues>
            -3.4043259918689728e-02 5.5752485990524292e-01</leafValues></_>
        <_>
          <internalNodes>
            0 -1 594 -5.2767815068364143e-03</internalNodes>
          <leafValues>
            2.3529806733131409e-01 -1.2965247035026550e-01</leafValues></_>
        <_>
          <internalNodes>
            0 -1 225 -9.3190129846334457e-03</internalNodes>
          <leafValues>
            2.3714825510978699e-01 -1.3122484087944031e-01</leafValues></_>
        <_>
          <internalNodes>
            0 -1 144 5.1438221707940102e-03</internalNodes>
          <leafValues>
            -1.4922688901424408e-01 2.1398693323135376e-01</leafValues></_>
        <_>
          <internalNodes>
            0 -1 223 4.1200116276741028e-02</internalNodes>
          <leafValues>
            -7.4805013835430145e-02 3.9921760559082031e-01</leafValues></_>
        <_>
          <internalNodes>
            0 -1 264 -6.1689359135925770e-03</internalNodes>
          <leafValues>
            2.6386481523513794e-01 -1.1009594798088074e-01</leafValues></_>
        <_>
          <internalNodes>
            0 -1 315 4.7532794997096062e-03</internalNodes>
          <leafValues>
            7.0127166807651520e-02 -4.0588653087615967e-01</leafValues></_>
        <_>
          <internalNodes>
            0 -1 336 4.3985940515995026e-02</internalNodes>
          <leafValues>
            5.0927639007568359e-02 -4.7831654548645020e-01</leafValues></_>
        <_>
          <internalNodes>
            0 -1 468 -8.4428209811449051e-04</internalNodes>
          <leafValues>
            2.0513015985488892e-01 -1.7378820478916168e-01</leafValues></_>
        <_>
          <internalNodes>
            0 -1 580 8.0110097769647837e-04</internalNodes>
          <leafValues>
            -1.3319638371467590e-01 2.1674150228500366e-01</leafValues></_>
        <_>
          <internalNodes>
            0 -1 433 -2.6002547238022089e-03</internalNodes>
          <leafValues>
            -4.9392262101173401e-01 6.0524415224790573e-02</leafValues></_>
        <_>
          <internalNodes>
            0 -1 150 -2.3131663911044598e-03</internalNodes>
          <leafValues>
            -3.8746589422225952e-01 6.2335401773452759e-02</leafValues></_>
        <_>
          <internalNodes>
            0 -1 476 -3.1807675957679749e-02</internalNodes>
          <leafValues>
            -7.0036137104034424e-01 3.8712330162525177e-02</leafValues></_></weakClassifiers></_>
    <!-- stage 1 -->
    <_>
      <maxWeakCount>50</maxWeakCount>
      <stageThreshold>-1.2270088195800781e+00</stageThreshold>
      <weakClassifiers>
        <_>
          <internalNodes>
            0 -1 171 -1.4125573635101318e-01</internalNodes>
          <leafValues>
            5.1084518432617188e-01 -3.7401202321052551e-01</leafValues></_>
        <_>
          <internalNodes>
            0 -1 407 -1.3273096643388271e-02</internalNodes>
          <leafValues>
            2.4087478220462799e-01 -2.0526151359081268e-01</leafValues></_>
        <_>
          <internalNodes>
            0 -1 361 6.4647153019905090e-02</internalNodes>
          <leafValues>
            -1.9038441777229309e-01 2.2431334853172302e-01</leafValues></_>
        <_>
          <internalNodes>
            0 -1 453 -3.2906932756304741e-03</internalNodes>
          <leafValues>
            -5.4113656282424927e-01 6.8399839103221893e-02</leafValues></_>
        <_>
          <internalNodes>
            0 -1 289 -1.2451233342289925e-02</internalNodes>
          <leafValues>
            1.6625216603279114e-01 -2.0450147986412048e-01</leafValues></_>
        <_>
          <internalNodes>
            0 -1 458 2.7417768724262714e-03</internalNodes>
          <leafValues>
            -1.4259465038776398e-01 2.9012900590896606e-01</leafValues></_>
        <_>
          <internalNodes>
            0 -1 441 -3.8024187088012695e-03</internalNodes>
          <leafValues>
            3.7999808788299561e-01 -1.0530255734920502e-01</leafValues></_>
        <_>
          <internalNodes>
            0 -1 299 -3.4579645842313766e-02</internalNodes>
          <leafValues>
            4.8133274912834167e-01 -5.7964615523815155e-02</leafValues></_>
        <_>
          <internalNodes>
            0 -1 375 1.6506323590874672e-03</internalNodes>
          <leafValues>
            -1.5043988823890686e-01 2.8105437755584717e-01</leafValues></_>
        <_>
          <internalNodes>
            0 -1 520 4.8621101304888725e-03</internalNodes>
          <leafValues>
            3.7754859775304794e-02 -6.1310935020446777e-01</leafValues></_>
        <_>
          <internalNodes>
            0 -1 386 1.8630546983331442e-03</internalNodes>
          <leafValues>
            -1.3486887514591217e-01 1.9958823919296265e-01</leafValues></_>
        <_>
          <internalNodes>
            0 -1 599 8.0646993592381477e-04</internalNodes>
          <leafValues>
            1.2490279227495193e-01 -2.2460228204727173e-01</leafValues></_>
        <_>
          <internalNodes>
            0 -1 318 1.7743956297636032e-02</internalNodes>
          <leafValues>
            5.2596077322959900e-02 -4.8047915101051331e-01</leafValues></_>
        <_>
          <internalNodes>
            0 -1 484 -9.6100978553295135e-03</internalNodes>
          <leafValues>
            -4.3055397272109985e-01 6.3499428331851959e-02</leafValues></_>
        <_>
          <internalNodes>
            0 -1 81 7.7372104860842228e-03</internalNodes>
          <leafValues>
            6.6642895340919495e-02 -3.9820346236228943e-01</leafValues></_>
        <_>
          <internalNodes>
            0 -1 452 4.5609050430357456e-03</internalNodes>
          <leafValues>
            3.2952822744846344e-02 -7.5307887792587280e-01</leafValues></_>
        <_>
          <internalNodes>
            0 -1 560 3.2257379498332739e-03</internalNodes>
          <leafValues>
            8.4866121411323547e-02 -2.7801918983459473e-01</leafValues></_>
        <_>
          <internalNodes>
            0 -1 131 -2.4427615106105804e-02</internalNodes>
          <leafValues>
            1.3894282281398773e-01 -1.7728710174560547e-01</leafValues></_>
        <_>
          <internalNodes>
            0 -1 668 -2.2161784581840038e-03</internalNodes>
          <leafValues>
            -2.2205512225627899e-01 1.1371646076440811e-01</leafValues></_>
        <_>
          <internalNodes>
            0 -1 112 -2.1198105067014694e-02</internalNodes>
          <leafValues>
            3.2311195135116577e-01 -8.6699470877647400e-02</leafValues></_>
        <_>
          <internalNodes>
            0 -1 166 -9.2049762606620789e-03</internalNodes>
          <leafValues>
            2.2373661398887634e-01 -1.0978055745363235e-01</leafValues></_>
        <_>
          <internalNodes>
            0 -1 186 -9.9627382587641478e-04</internalNodes>
          <leafValues>
            -1.8851672112941742e-01 1.3170981407165527e-01</leafValues></_>
        <_>
          <internalNodes>
            0 -1 465 5.4697282612323761e-03</internalNodes>
          <leafValues>
            -7.2228103876113892e-02 3.1401526927947998e-01</leafValues></_>
        <_>
          <internalNodes>
            0 -1 505 8.0613540485501289e-03</internalNodes>
          <leafValues>
            -6.7053057253360748e-02 4.1210755705833435e-01</leafValues></_>
        <_>
          <internalNodes>
            0 -1 290 -3.3632680773735046e-02</internalNodes>
          <leafValues>
            4.1590890288352966e-01 -6.1123475432395935e-02</leafValues></_>
        <_>
          <internalNodes>
            0 -1 26 6.0182698071002960e-03</internalNodes>
          <leafValues>
            -1.3806042075157166e-01 1.7463934421539307e-01</leafValues></_>
        <_>
          <internalNodes>
            0 -1 684 2.7256922330707312e-03</internalNodes>
          <leafValues>
            4.3713960796594620e-02 -5.6182426214218140e-01</leafValues></_>
        <_>
          <internalNodes>
            0 -1 292 -9.0449847280979156e-02</internalNodes>
          <leafValues>
            -7.3480242490768433e-01 2.9156377539038658e-02</leafValues></_>
        <_>
          <internalNodes>
            0 -1 347 -1.6660094261169434e-02</internalNodes>
          <leafValues>
            3.1490108370780945e-01 -8.0268569290637970e-02</leafValues></_>
        <_>
          <internalNodes>
            0 -1 37 5.6538106873631477e-03</internalNodes>
          <leafValues>
            4.0000166743993759e-02 -6.1187857389450073e-01</leafValues></_>
        <_>
          <internalNodes>
            0 -1 360 4.6248584985733032e-03</internalNodes>
          <leafValues>
            5.1344428211450577e-02 -4.1759362816810608e-01</leafValues></_>
        <_>
          <internalNodes>
            0 -1 348 -2.9160762205719948e-02</internalNodes>
          <leafValues>
            -4.2970621585845947e-01 5.4367329925298691e-02</leafValues></_>
        <_>
          <internalNodes>
            0 -1 667 4.7683091834187508e-03</internalNodes>
          <leafValues>
            3.9321534335613251e-02 -5.4065287113189697e-01</leafValues></_>
        <_>
          <internalNodes>
            0 -1 267 -2.9287971556186676e-02</internalNodes>
          <leafValues>
            3.5921844840049744e-01 -6.6413253545761108e-02</leafValues></_>
        <_>
          <internalNodes>
            0 -1 489 5.3447666577994823e-03</internalNodes>
          <leafValues>
            -1.1912134289741516e-01 2.4668367207050323e-01</leafValues></_>
        <_>
          <internalNodes>
            0 -1 502 -5.2958619780838490e-03</internalNodes>
          <leafValues>
            -8.6085128784179688e-01 3.0043333768844604e-02</leafValues></_>
        <_>
          <internalNodes>
            0 -1 72 -1.4946423470973969e-02</internalNodes>
          <leafValues>
            2.8012636303901672e-01 -8.6731225252151489e-02</leafValues></_>
        <_>
          <internalNodes>
            0 -1 497 -1.7639633268117905e-02</internalNodes>
          <leafValues>
            2.2198897600173950e-01 -9.4681240618228912e-02</leafValues></_>
        <_>
          <internalNodes>
            0 -1 569 -4.3564793304540217e-04</internalNodes>
          <leafValues>
            1.9032469391822815e-01 -1.1585962027311325e-01</leafValues></_>
        <_>
          <internalNodes>
            0 -1 38 1.4589814469218254e-02</internalNodes>
          <leafValues>
            -3.8417916744947433e-02 5.2281612157821655e-01</leafValues></_>
        <_>
          <internalNodes>
            0 -1 564 -1.2374412268400192e-02</internalNodes>
          <leafValues>
            -3.1962606310844421e-01 7.3878206312656403e-02</leafValues></_>
        <_>
          <internalNodes>
            0 -1 394 -1.6998065635561943e-02</internalNodes>
          <leafValues>
            2.3708564043045044e-01 -9.9431626498699188e-02</leafValues></_>
        <_>
          <internalNodes>
            0 -1 481 3.3210618421435356e-03</internalNodes>
          <leafValues>
            4.0682069957256317e-02 -6.0512781143188477e-01</leafValues></_>
        <_>
          <internalNodes>
            0 -1 1 -8.6705869762226939e-04</internalNodes>
          <leafValues>
            -2.1338242292404175e-01 1.0566645115613937e-01</leafValues></_>
        <_>
          <internalNodes>
            0 -1 673 -8.0166421830654144e-03</internalNodes>
          <leafValues>
            -7.2632920742034912e-01 2.9902735725045204e-02</leafValues></_>
        <_>
          <internalNodes>
            0 -1 307 -1.2634885497391224e-03</internalNodes>
          <leafValues>
            1.6218803822994232e-01 -1.3619887828826904e-01</leafValues></_>
        <_>
          <internalNodes>
            0 -1 356 -3.3364139497280121e-02</internalNodes>
          <leafValues>
            5.8387470245361328e-01 -3.9754979312419891e-02</leafValues></_>
        <_>
          <internalNodes>
            0 -1 246 -1.2232586741447449e-03</internalNodes>
          <leafValues>
            2.2125828266143799e-01 -1.0405168682336807e-01</leafValues></_>
        <_>
          <internalNodes>
            0 -1 638 2.7794633060693741e-03</internalNodes>
          <leafValues>
            5.9150792658329010e-02 -3.7469911575317383e-01</leafValues></_>
        <_>
          <internalNodes>
            0 -1 414 5.8761215768754482e-03</internalNodes>
          <leafValues>
            5.4449662566184998e-02 -4.0605342388153076e-01</leafValues></_></weakClassifiers></_>
    <!-- stage 2 -->
    <_>
      <maxWeakCount>57</maxWeakCount>
      <stageThreshold>-1.1486157178878784e+00</stageThreshold>
      <weakClassifiers>
        <_>
          <internalNodes>
            0 -1 169 -1.9186758995056152e-01</internalNodes>
          <leafValues>
            5.3251647949218750e-01 -3.0968305468559265e-01</leafValues></_>
        <_>
          <internalNodes>
            0 -1 169 -3.1752292066812515e-02</internalNodes>
          <leafValues>
            1.4728698134422302e-01 -3.0632418394088745e-01</leafValues></_>
        <_>
          <internalNodes>
            0 -1 259 2.3251978680491447e-02</internalNodes>
          <leafValues>
            -9.9111832678318024e-02 3.7911605834960938e-01</leafValues></_>
        <_>
          <internalNodes>
            0 -1 430 2.4101212620735168e-03</internalNodes>
          <leafValues>
            -1.8263253569602966e-01 1.7531661689281464e-01</leafValues></_>
        <_>
          <internalNodes>
            0 -1 347 2.1398814395070076e-02</internalNodes>
          <leafValues>
            -5.9151612222194672e-02 4.0559771656990051e-01</leafValues></_>
        <_>
          <internalNodes>
            0 -1 489 -9.7308373078703880e-03</internalNodes>
          <leafValues>
            2.7687212824821472e-01 -9.0826801955699921e-02</leafValues></_>
        <_>
          <internalNodes>
            0 -1 388 2.7817331254482269e-02</internalNodes>
          <leafValues>
            -7.0098742842674255e-02 4.5952799916267395e-01</leafValues></_>
        <_>
          <internalNodes>
            0 -1 503 2.3318789899349213e-03</internalNodes>
          <leafValues>
            -8.0074340105056763e-02 2.4904532730579376e-01</leafValues></_>
        <_>
          <internalNodes>
            0 -1 417 8.2968091592192650e-03</internalNodes>
          <leafValues>
            -1.1634808778762817e-01 3.0181914567947388e-01</leafValues></_>
        <_>
          <internalNodes>
            0 -1 5 -3.0119723081588745e-01</internalNodes>
          <leafValues>
            4.3619838356971741e-01 -5.9119038283824921e-02</leafValues></_>
        <_>
          <internalNodes>
            0 -1 633 7.7881675679236650e-04</internalNodes>
          <leafValues>
            -1.4236012101173401e-01 1.6925874352455139e-01</leafValues></_>
        <_>
          <internalNodes>
            0 -1 522 6.7028068006038666e-02</internalNodes>
          <leafValues>
            -5.8223836123943329e-02 3.1748577952384949e-01</leafValues></_>
        <_>
          <internalNodes>
            0 -1 509 -5.3253779187798500e-03</internalNodes>
          <leafValues>
            -5.9297186136245728e-01 3.6991778761148453e-02</leafValues></_>
        <_>
          <internalNodes>
            0 -1 565 9.6475647296756506e-04</internalNodes>
          <leafValues>
            -1.1468023061752319e-01 2.1304322779178619e-01</leafValues></_>
        <_>
          <internalNodes>
            0 -1 4 7.7423043549060822e-02</internalNodes>
          <leafValues>
            -5.3963098675012589e-02 3.6556929349899292e-01</leafValues></_>
        <_>
          <internalNodes>
            0 -1 427 -8.9734245557337999e-04</internalNodes>
          <leafValues>
            1.7270199954509735e-01 -1.1537628620862961e-01</leafValues></_>
        <_>
          <internalNodes>
            0 -1 37 -8.8492985814809799e-03</internalNodes>
          <leafValues>
            -9.3983614444732666e-01 1.2888062745332718e-02</leafValues></_>
        <_>
          <internalNodes>
            0 -1 47 2.2430535405874252e-02</internalNodes>
          <leafValues>
            9.9625848233699799e-02 -1.7745293676853180e-01</leafValues></_>
        <_>
          <internalNodes>
            0 -1 285 -3.4308552742004395e-02</internalNodes>
          <leafValues>
            5.3282415866851807e-01 -2.8159849345684052e-02</leafValues></_>
        <_>
          <internalNodes>
            0 -1 308 1.0474542155861855e-02</internalNodes>
          <leafValues>
            -7.0188544690608978e-02 3.0141708254814148e-01</leafValues></_>
        <_>
          <internalNodes>
            0 -1 519 1.7529388424009085e-03</internalNodes>
          <leafValues>
            -1.2159668654203415e-01 1.8482273817062378e-01</leafValues></_>
        <_>
          <internalNodes>
            0 -1 426 4.3718665838241577e-02</internalNodes>
          <leafValues>
            4.5313023030757904e-02 -4.1667559742927551e-01</leafValues></_>
        <_>
          <internalNodes>
            0 -1 444 1.1940006515942514e-04</internalNodes>
          <leafValues>
            -1.4872832596302032e-01 1.3525944948196411e-01</leafValues></_>
        <_>
          <internalNodes>
            0 -1 343 1.7605514731258154e-03</internalNodes>
          <leafValues>
            -1.3760454952716827e-01 1.5670217573642731e-01</leafValues></_>
        <_>
          <internalNodes>
            0 -1 15 -4.6809068880975246e-03</internalNodes>
          <leafValues>
            -7.0121955871582031e-01 3.2865405082702637e-02</leafValues></_>
        <_>
          <internalNodes>
            0 -1 645 -3.8113910704851151e-03</internalNodes>
          <leafValues>
            1.5591892600059509e-01 -1.1660102754831314e-01</leafValues></_>
        <_>
          <internalNodes>
            0 -1 496 -1.2349594384431839e-02</internalNodes>
          <leafValues>
            2.1438708901405334e-01 -9.3561962246894836e-02</leafValues></_>
        <_>
          <internalNodes>
            0 -1 524 -9.5530250109732151e-04</internalNodes>
          <leafValues>
            1.6209781169891357e-01 -1.1259698122739792e-01</leafValues></_>
        <_>
          <internalNodes>
            0 -1 480 1.1544499546289444e-02</internalNodes>
          <leafValues>
            5.2448038011789322e-02 -3.9219272136688232e-01</leafValues></_>
        <_>
          <internalNodes>
            0 -1 423 1.7516577616333961e-02</internalNodes>
          <leafValues>
            -6.8945556879043579e-02 2.8015047311782837e-01</leafValues></_>
        <_>
          <internalNodes>
            0 -1 338 5.4100438952445984e-02</internalNodes>
          <leafValues>
            2.8028065338730812e-02 -6.8407064676284790e-01</leafValues></_>
        <_>
          <internalNodes>
            0 -1 59 -3.5758227109909058e-01</internalNodes>
          <leafValues>
            -5.7981860637664795e-01 2.7608133852481842e-02</leafValues></_>
        <_>
          <internalNodes>
            0 -1 431 -3.7544161081314087e-02</internalNodes>
          <leafValues>
            -3.0281522870063782e-01 5.8132290840148926e-02</leafValues></_>
        <_>
          <internalNodes>
            0 -1 657 -1.7883250489830971e-02</internalNodes>
          <leafValues>
            -5.5312114953994751e-01 3.1486388295888901e-02</leafValues></_>
        <_>
          <internalNodes>
            0 -1 593 -1.3584505068138242e-03</internalNodes>
          <leafValues>
            1.4592337608337402e-01 -1.1723686754703522e-01</leafValues></_>
        <_>
          <internalNodes>
            0 -1 659 -9.1084297746419907e-03</internalNodes>
          <leafValues>
            -5.7580214738845825e-01 3.1245434656739235e-02</leafValues></_>
        <_>
          <internalNodes>
            0 -1 151 5.4820151999592781e-03</internalNodes>
          <leafValues>
            -7.8888237476348877e-02 2.3659209907054901e-01</leafValues></_>
        <_>
          <internalNodes>
            0 -1 585 -3.3093267120420933e-03</internalNodes>
          <leafValues>
            -6.3520795106887817e-01 2.9168851673603058e-02</leafValues></_>
        <_>
          <internalNodes>
            0 -1 82 -1.2961251661181450e-02</internalNodes>
          <leafValues>
            2.9490002989768982e-01 -7.3486462235450745e-02</leafValues></_>
        <_>
          <internalNodes>
            0 -1 576 -4.6279579401016235e-03</internalNodes>
          <leafValues>
            2.2445519268512726e-01 -8.3855554461479187e-02</leafValues></_>
        <_>
          <internalNodes>
            0 -1 682 5.0017028115689754e-04</internalNodes>
          <leafValues>
            9.5860324800014496e-02 -1.9292190670967102e-01</leafValues></_>
        <_>
          <internalNodes>
            0 -1 401 -1.6729593044146895e-03</internalNodes>
          <leafValues>
            2.3179750144481659e-01 -8.1670038402080536e-02</leafValues></_>
        <_>
          <internalNodes>
            0 -1 240 -4.7039113938808441e-02</internalNodes>
          <leafValues>
            5.5797040462493896e-01 -2.9369629919528961e-02</leafValues></_>
        <_>
          <internalNodes>
            0 -1 213 -4.8833987675607204e-03</internalNodes>
          <leafValues>
            -5.3182679414749146e-01 3.3819016069173813e-02</leafValues></_>
        <_>
          <internalNodes>
            0 -1 606 -5.4754726588726044e-03</internalNodes>
          <leafValues>
            -5.0987994670867920e-01 3.0178023502230644e-02</leafValues></_>
        <_>
          <internalNodes>
            0 -1 197 1.3852616772055626e-02</internalNodes>
          <leafValues>
            -7.9738169908523560e-02 2.4224352836608887e-01</leafValues></_>
        <_>
          <internalNodes>
            0 -1 421 6.5342069137841463e-04</internalNodes>
          <leafValues>
            -1.1854983121156693e-01 1.6299772262573242e-01</leafValues></_>
        <_>
          <internalNodes>
            0 -1 104 -1.0761754587292671e-02</internalNodes>
          <leafValues>
            1.3574203848838806e-01 -1.6516947746276855e-01</leafValues></_>
        <_>
          <internalNodes>
            0 -1 460 3.5163769498467445e-03</internalNodes>
          <leafValues>
            4.1424896568059921e-02 -4.5311170816421509e-01</leafValues></_>
        <_>
          <internalNodes>
            0 -1 581 -1.0903986170887947e-02</internalNodes>
          <leafValues>
            -5.3443503379821777e-01 3.0117072165012360e-02</leafValues></_>
        <_>
          <internalNodes>
            0 -1 86 1.2526024878025055e-01</internalNodes>
          <leafValues>
            -4.9380768090486526e-02 3.8697853684425354e-01</leafValues></_>
        <_>
          <internalNodes>
            0 -1 232 -1.9094368442893028e-02</internalNodes>
          <leafValues>
            1.9555103778839111e-01 -9.2240780591964722e-02</leafValues></_>
        <_>
          <internalNodes>
            0 -1 222 -1.0072356089949608e-02</internalNodes>
          <leafValues>
            2.0088310539722443e-01 -1.1191748082637787e-01</leafValues></_>
        <_>
          <internalNodes>
            0 -1 404 4.7189984470605850e-03</internalNodes>
          <leafValues>
            -6.5237067639827728e-02 3.3432671427726746e-01</leafValues></_>
        <_>
          <internalNodes>
            0 -1 548 -2.4596070870757103e-03</internalNodes>
          <leafValues>
            2.2400249540805817e-01 -9.4031058251857758e-02</leafValues></_>
        <_>
          <internalNodes>
            0 -1 572 1.8539910670369864e-03</internalNodes>
          <leafValues>
            -9.3139968812465668e-02 2.2649016976356506e-01</leafValues></_>
        <_>
          <internalNodes>
            0 -1 454 7.9055400565266609e-03</internalNodes>
          <leafValues>
            3.6341235041618347e-02 -5.9761530160903931e-01</leafValues></_></weakClassifiers></_>
    <!-- stage 3 -->
    <_>
      <maxWeakCount>69</maxWeakCount>
      <stageThreshold>-1.0768835544586182e+00</stageThreshold>
      <weakClassifiers>
        <_>
          <internalNodes>
            0 -1 132 -1.8176683783531189e-01</internalNodes>
          <leafValues>
            2.8068044781684875e-01 -3.3707076311111450e-01</leafValues></_>
        <_>
          <internalNodes>
            0 -1 286 -6.0668196529150009e-02</internalNodes>
          <leafValues>
            4.7656765580177307e-01 -8.1436961889266968e-02</leafValues></_>
        <_>
          <internalNodes>
            0 -1 261 1.1047301813960075e-02</internalNodes>
          <leafValues>
            -1.0920749604701996e-01 3.9452621340751648e-01</leafValues></_>
        <_>
          <internalNodes>
            0 -1 448 1.8638325855135918e-03</internalNodes>
          <leafValues>
            -1.0880348086357117e-01 2.2198861837387085e-01</leafValues></_>
        <_>
          <internalNodes>
            0 -1 364 5.3303996101021767e-03</internalNodes>
          <leafValues>
            -7.7957093715667725e-02 3.1773805618286133e-01</leafValues></_>
        <_>
          <internalNodes>
            0 -1 229 -2.1425195038318634e-02</internalNodes>
          <leafValues>
            2.4780507385730743e-01 -1.0115841776132584e-01</leafValues></_>
        <_>
          <internalNodes>
            0 -1 372 -3.1854787375777960e-03</internalNodes>
          <leafValues>
            -3.3518540859222412e-01 8.3862245082855225e-02</leafValues></_>
        <_>
          <internalNodes>
            0 -1 83 -3.9341632276773453e-02</internalNodes>
          <leafValues>
            2.8349539637565613e-01 -7.7045187354087830e-02</leafValues></_>
        <_>
          <internalNodes>
            0 -1 549 7.4814576655626297e-03</internalNodes>
          <leafValues>
            -1.0140129178762436e-01 2.5587737560272217e-01</leafValues></_>
        <_>
          <internalNodes>
            0 -1 217 -2.4111166596412659e-02</internalNodes>
          <leafValues>
            -6.5584224462509155e-01 2.3146869614720345e-02</leafValues></_>
        <_>
          <internalNodes>
            0 -1 478 2.1681508049368858e-02</internalNodes>
          <leafValues>
            -4.4016811996698380e-02 4.3335953354835510e-01</leafValues></_>
        <_>
          <internalNodes>
            0 -1 530 -4.9743447452783585e-03</internalNodes>
          <leafValues>
            -5.6504917144775391e-01 4.1639082133769989e-02</leafValues></_>
        <_>
          <internalNodes>
            0 -1 157 -2.6929190382361412e-02</internalNodes>
          <leafValues>
            4.0776571631431580e-01 -5.1696054637432098e-02</leafValues></_>
        <_>
          <internalNodes>
            0 -1 398 -4.8889308236539364e-03</internalNodes>
          <leafValues>
            2.9094871878623962e-01 -5.3080569952726364e-02</leafValues></_>
        <_>
          <internalNodes>
            0 -1 239 -1.5084721148014069e-02</internalNodes>
          <leafValues>
            4.1606482863426208e-01 -5.3685601800680161e-02</leafValues></_>
        <_>
          <internalNodes>
            0 -1 347 2.5076154619455338e-02</internalNodes>
          <leafValues>
            -6.2563225626945496e-02 3.5959446430206299e-01</leafValues></_>
        <_>
          <internalNodes>
            0 -1 317 -4.0050055831670761e-03</internalNodes>
          <leafValues>
            -3.1172010302543640e-01 6.5606951713562012e-02</leafValues></_>
        <_>
          <internalNodes>
            0 -1 515 1.5132645145058632e-02</internalNodes>
          <leafValues>
            -5.3227525204420090e-02 3.2711759209632874e-01</leafValues></_>
        <_>
          <internalNodes>
            0 -1 366 -3.2131220214068890e-03</internalNodes>
          <leafValues>
            -3.3797386288642883e-01 5.9375621378421783e-02</leafValues></_>
        <_>
          <internalNodes>
            0 -1 540 -6.3746698200702667e-02</internalNodes>
          <leafValues>
            2.7213218808174133e-01 -6.8200290203094482e-02</leafValues></_>
        <_>
          <internalNodes>
            0 -1 134 2.8155896812677383e-02</internalNodes>
          <leafValues>
            -2.3411059752106667e-02 5.9767752885818481e-01</leafValues></_>
        <_>
          <internalNodes>
            0 -1 433 -5.6791473180055618e-03</internalNodes>
          <leafValues>
            -8.5305380821228027e-01 2.7087729424238205e-02</leafValues></_>
        <_>
          <internalNodes>
            0 -1 543 3.4437011927366257e-03</internalNodes>
          <leafValues>
            -7.9727567732334137e-02 2.3498481512069702e-01</leafValues></_>
        <_>
          <internalNodes>
            0 -1 613 3.2085594721138477e-03</internalNodes>
          <leafValues>
            4.2880758643150330e-02 -4.7556862235069275e-01</leafValues></_>
        <_>
          <internalNodes>
            0 -1 634 2.9684924520552158e-03</internalNodes>
          <leafValues>
            -1.0539751499891281e-01 1.7262479662895203e-01</leafValues></_>
        <_>
          <internalNodes>
            0 -1 384 3.4342687577009201e-03</internalNodes>
          <leafValues>
            5.9013694524765015e-02 -3.3371096849441528e-01</leafValues></_>
        <_>
          <internalNodes>
            0 -1 185 -2.3935400531627238e-04</internalNodes>
          <leafValues>
            1.3311529159545898e-01 -1.3721793889999390e-01</leafValues></_>
        <_>
          <internalNodes>
            0 -1 579 9.8417839035391808e-04</internalNodes>
          <leafValues>
            -1.1799751967191696e-01 1.4662496745586395e-01</leafValues></_>
        <_>
          <internalNodes>
            0 -1 76 -1.7192490398883820e-02</internalNodes>
          <leafValues>
            -1.8897719681262970e-01 8.7269581854343414e-02</leafValues></_>
        <_>
          <internalNodes>
            0 -1 21 -4.3535046279430389e-04</internalNodes>
          <leafValues>
            -1.9234357774257660e-01 9.1513007879257202e-02</leafValues></_>
        <_>
          <internalNodes>
            0 -1 242 1.0044688824564219e-03</internalNodes>
          <leafValues>
            -1.0564291477203369e-01 1.6946269571781158e-01</leafValues></_>
        <_>
          <internalNodes>
            0 -1 247 -1.5095154521986842e-03</internalNodes>
          <leafValues>
            1.8511876463890076e-01 -1.2254303693771362e-01</leafValues></_>
        <_>
          <internalNodes>
            0 -1 517 5.1709907129406929e-03</internalNodes>
          <leafValues>
            4.0506400167942047e-02 -4.5988497138023376e-01</leafValues></_>
        <_>
          <internalNodes>
            0 -1 370 -5.6416180450469255e-04</internalNodes>
          <leafValues>
            1.4201091229915619e-01 -1.2769432365894318e-01</leafValues></_>
        <_>
          <internalNodes>
            0 -1 449 -1.9104699604213238e-03</internalNodes>
          <leafValues>
            1.6794511675834656e-01 -1.2609337270259857e-01</leafValues></_>
        <_>
          <internalNodes>
            0 -1 553 -1.6778418794274330e-03</internalNodes>
          <leafValues>
            1.8742570281028748e-01 -1.0975136607885361e-01</leafValues></_>
        <_>
          <internalNodes>
            0 -1 156 -2.5631023570895195e-02</internalNodes>
          <leafValues>
            -5.7557415962219238e-01 3.4777127206325531e-02</leafValues></_>
        <_>
          <internalNodes>
            0 -1 342 7.6421909034252167e-04</internalNodes>
          <leafValues>
            -9.5764786005020142e-02 1.7854239046573639e-01</leafValues></_>
        <_>
          <internalNodes>
            0 -1 235 -5.4306653328239918e-03</internalNodes>
          <leafValues>
            2.2343553602695465e-01 -8.8104508817195892e-02</leafValues></_>
        <_>
          <internalNodes>
            0 -1 675 -3.0868593603372574e-03</internalNodes>
          <leafValues>
            -2.4394048750400543e-01 7.5854346156120300e-02</leafValues></_>
        <_>
          <internalNodes>
            0 -1 641 2.1209771512076259e-04</internalNodes>
          <leafValues>
            1.1938197910785675e-01 -1.5879318118095398e-01</leafValues></_>
        <_>
          <internalNodes>
            0 -1 245 -1.4606085605919361e-02</internalNodes>
          <leafValues>
            -3.2463285326957703e-01 4.8468232154846191e-02</leafValues></_>
        <_>
          <internalNodes>
            0 -1 71 -3.0236922204494476e-02</internalNodes>
          <leafValues>
            3.8501507043838501e-01 -4.2443893849849701e-02</leafValues></_>
        <_>
          <internalNodes>
            0 -1 180 1.9159758812747896e-04</internalNodes>
          <leafValues>
            -1.2399096786975861e-01 1.4538678526878357e-01</leafValues></_>
        <_>
          <internalNodes>
            0 -1 253 1.2192647904157639e-02</internalNodes>
          <leafValues>
            -1.4340357482433319e-01 1.1947186291217804e-01</leafValues></_>
        <_>
          <internalNodes>
            0 -1 75 3.9168499410152435e-02</internalNodes>
          <leafValues>
            5.1925096660852432e-02 -3.4010547399520874e-01</leafValues></_>
        <_>
          <internalNodes>
            0 -1 89 -9.5728412270545959e-03</internalNodes>
          <leafValues>
            -7.8004783391952515e-01 1.9862180575728416e-02</leafValues></_>
        <_>
          <internalNodes>
            0 -1 126 -1.1933213099837303e-03</internalNodes>
          <leafValues>
            1.8609301745891571e-01 -8.6588457226753235e-02</leafValues></_>
        <_>
          <internalNodes>
            0 -1 120 -3.3156700432300568e-02</internalNodes>
          <leafValues>
            -7.6147031784057617e-01 2.2830948233604431e-02</leafValues></_>
        <_>
          <internalNodes>
            0 -1 298 -2.2267708554863930e-03</internalNodes>
          <leafValues>
            1.9502192735671997e-01 -8.2474723458290100e-02</leafValues></_>
        <_>
          <internalNodes>
            0 -1 669 4.3927007354795933e-03</internalNodes>
          <leafValues>
            3.0704967677593231e-02 -5.4415154457092285e-01</leafValues></_>
        <_>
          <internalNodes>
            0 -1 584 -2.6170318014919758e-03</internalNodes>
          <leafValues>
            -4.4552055001258850e-01 3.3390071243047714e-02</leafValues></_>
        <_>
          <internalNodes>
            0 -1 534 8.2962037995457649e-03</internalNodes>
          <leafValues>
            -1.1216462403535843e-01 1.4757819473743439e-01</leafValues></_>
        <_>
          <internalNodes>
            0 -1 170 1.9580259919166565e-01</internalNodes>
          <leafValues>
            4.0453743189573288e-02 -4.3431705236434937e-01</leafValues></_>
        <_>
          <internalNodes>
            0 -1 461 1.3754921965301037e-03</internalNodes>
          <leafValues>
            -9.0955354273319244e-02 2.2180239856243134e-01</leafValues></_>
        <_>
          <internalNodes>
            0 -1 335 2.4762500077486038e-02</internalNodes>
          <leafValues>
            4.4700689613819122e-02 -3.7774083018302917e-01</leafValues></_>
        <_>
          <internalNodes>
            0 -1 458 -1.4821514487266541e-03</internalNodes>
          <leafValues>
            1.9080492854118347e-01 -9.3979530036449432e-02</leafValues></_>
        <_>
          <internalNodes>
            0 -1 340 4.0987864136695862e-02</internalNodes>
          <leafValues>
            2.2448798641562462e-02 -7.5552684068679810e-01</leafValues></_>
        <_>
          <internalNodes>
            0 -1 498 2.5561903021298349e-04</internalNodes>
          <leafValues>
            -1.0618964582681656e-01 1.6757681965827942e-01</leafValues></_>
        <_>
          <internalNodes>
            0 -1 647 2.4879414588212967e-02</internalNodes>
          <leafValues>
            4.2942237108945847e-02 -3.9188748598098755e-01</leafValues></_>
        <_>
          <internalNodes>
            0 -1 485 -5.4195066913962364e-03</internalNodes>
          <leafValues>
            -5.1970517635345459e-01 2.8843134641647339e-02</leafValues></_>
        <_>
          <internalNodes>
            0 -1 293 9.8302098922431469e-04</internalNodes>
          <leafValues>
            -6.8548344075679779e-02 2.4174523353576660e-01</leafValues></_>
        <_>
          <internalNodes>
            0 -1 159 -2.8274267911911011e-02</internalNodes>
          <leafValues>
            -5.2694416046142578e-01 3.3393926918506622e-02</leafValues></_>
        <_>
          <internalNodes>
            0 -1 332 5.2607282996177673e-02</internalNodes>
          <leafValues>
            1.5216598287224770e-02 -8.6547970771789551e-01</leafValues></_>
        <_>
          <internalNodes>
            0 -1 679 -2.4603824131190777e-03</internalNodes>
          <leafValues>
            -4.4209691882133484e-01 3.2069768756628036e-02</leafValues></_>
        <_>
          <internalNodes>
            0 -1 531 -1.9305802881717682e-02</internalNodes>
          <leafValues>
            4.2737966775894165e-01 -3.7127289921045303e-02</leafValues></_>
        <_>
          <internalNodes>
            0 -1 62 -4.6957982704043388e-03</internalNodes>
          <leafValues>
            -4.6845579147338867e-01 3.6871690303087234e-02</leafValues></_>
        <_>
          <internalNodes>
            0 -1 600 -4.4040083885192871e-02</internalNodes>
          <leafValues>
            -4.3802797794342041e-01 3.2634392380714417e-02</leafValues></_>
        <_>
          <internalNodes>
            0 -1 6 -2.4924809113144875e-03</internalNodes>
          <leafValues>
            -3.3336749672889709e-01 4.5046284794807434e-02</leafValues></_></weakClassifiers></_>
    <!-- stage 4 -->
    <_>
      <maxWeakCount>84</maxWeakCount>
      <stageThreshold>-1.1382436752319336e+00</stageThreshold>
      <weakClassifiers>
        <_>
          <internalNodes>
            0 -1 169 -2.2766381502151489e-01</internalNodes>
          <leafValues>
            3.6283186078071594e-01 -2.3025584220886230e-01</leafValues></_>
        <_>
          <internalNodes>
            0 -1 405 -1.4071257784962654e-02</internalNodes>
          <leafValues>
            2.6759022474288940e-01 -1.2579463422298431e-01</leafValues></_>
        <_>
          <internalNodes>
            0 -1 281 -8.1306286156177521e-03</internalNodes>
          <leafValues>
            2.4247315526008606e-01 -1.3434252142906189e-01</leafValues></_>
        <_>
          <internalNodes>
            0 -1 383 -4.3690931051969528e-02</internalNodes>
          <leafValues>
            6.6949033737182617e-01 -3.3095885068178177e-02</leafValues></_>
        <_>
          <internalNodes>
            0 -1 319 2.1725192666053772e-02</internalNodes>
          <leafValues>
            -6.4244166016578674e-02 3.0026823282241821e-01</leafValues></_>
        <_>
          <internalNodes>
            0 -1 434 -3.2843477092683315e-03</internalNodes>
          <leafValues>
            1.8561592698097229e-01 -1.2864415347576141e-01</leafValues></_>
        <_>
          <internalNodes>
            0 -1 439 2.5012837722897530e-03</internalNodes>
          <leafValues>
            -9.2327401041984558e-02 2.8415158390998840e-01</leafValues></_>
        <_>
          <internalNodes>
            0 -1 79 4.2892020195722580e-02</internalNodes>
          <leafValues>
            3.9121914654970169e-02 -5.2015119791030884e-01</leafValues></_>
        <_>
          <internalNodes>
            0 -1 284 1.0361799504607916e-03</internalNodes>
          <leafValues>
            -7.8496605157852173e-02 2.3147578537464142e-01</leafValues></_>
        <_>
          <internalNodes>
            0 -1 392 1.1032188311219215e-02</internalNodes>
          <leafValues>
            -3.5633958876132965e-02 4.4741529226303101e-01</leafValues></_>
        <_>
          <internalNodes>
            0 -1 443 -4.7022486105561256e-03</internalNodes>
          <leafValues>
            -5.8815222978591919e-01 3.3561840653419495e-02</leafValues></_>
        <_>
          <internalNodes>
            0 -1 446 4.3189246207475662e-03</internalNodes>
          <leafValues>
            5.3491156548261642e-02 -3.6806285381317139e-01</leafValues></_>
        <_>
          <internalNodes>
            0 -1 328 2.0535672083497047e-02</internalNodes>
          <leafValues>
            3.9230268448591232e-02 -5.1941227912902832e-01</leafValues></_>
        <_>
          <internalNodes>
            0 -1 341 -2.6818253099918365e-02</internalNodes>
          <leafValues>
            4.0068620443344116e-01 -4.0457770228385925e-02</leafValues></_>
        <_>
          <internalNodes>
            0 -1 212 1.8915139138698578e-02</internalNodes>
          <leafValues>
            4.7033265233039856e-02 -3.4204959869384766e-01</leafValues></_>
        <_>
          <internalNodes>
            0 -1 173 -8.7024265667423606e-04</internalNodes>
          <leafValues>
            1.8000699579715729e-01 -9.2789612710475922e-02</leafValues></_>
        <_>
          <internalNodes>
            0 -1 327 -3.0753208324313164e-02</internalNodes>
          <leafValues>
            2.5053244829177856e-01 -6.6073283553123474e-02</leafValues></_>
        <_>
          <internalNodes>
            0 -1 546 2.8200569795444608e-04</internalNodes>
          <leafValues>
            -1.0873939841985703e-01 1.5318536758422852e-01</leafValues></_>
        <_>
          <internalNodes>
            0 -1 302 9.1899028047919273e-03</internalNodes>
          <leafValues>
            4.9599695950746536e-02 -3.3346173167228699e-01</leafValues></_>
        <_>
          <internalNodes>
            0 -1 243 2.7785679325461388e-02</internalNodes>
          <leafValues>
            -5.1441356539726257e-02 3.8594022393226624e-01</leafValues></_>
        <_>
          <internalNodes>
            0 -1 513 -2.2359949070960283e-03</internalNodes>
          <leafValues>
            1.6498635709285736e-01 -1.1269531399011612e-01</leafValues></_>
        <_>
          <internalNodes>
            0 -1 244 1.3749249046668410e-03</internalNodes>
          <leafValues>
            -9.6868440508842468e-02 1.6131877899169922e-01</leafValues></_>
        <_>
          <internalNodes>
            0 -1 502 -2.8793103992938995e-03</internalNodes>
          <leafValues>
            -4.0055459737777710e-01 4.4588197022676468e-02</leafValues></_>
        <_>
          <internalNodes>
            0 -1 618 -8.3406902849674225e-03</internalNodes>
          <leafValues>
            -8.1133574247360229e-01 1.7547326162457466e-02</leafValues></_>
        <_>
          <internalNodes>
            0 -1 125 7.4887163937091827e-03</internalNodes>
          <leafValues>
            -4.6802721917629242e-02 3.8881003856658936e-01</leafValues></_>
        <_>
          <internalNodes>
            0 -1 156 -2.3125629872083664e-02</internalNodes>
          <leafValues>
            -5.1500755548477173e-01 3.4366656094789505e-02</leafValues></_>
        <_>
          <internalNodes>
            0 -1 45 -1.1714032292366028e-01</internalNodes>
          <leafValues>
            5.5204683542251587e-01 -3.2932672649621964e-02</leafValues></_>
        <_>
          <internalNodes>
            0 -1 193 -5.7102102786302567e-02</internalNodes>
          <leafValues>
            2.4812096357345581e-01 -5.6976772844791412e-02</leafValues></_>
        <_>
          <internalNodes>
            0 -1 507 5.2406935719773173e-04</internalNodes>
          <leafValues>
            -9.9443159997463226e-02 1.6534872353076935e-01</leafValues></_>
        <_>
          <internalNodes>
            0 -1 508 1.4859791554044932e-04</internalNodes>
          <leafValues>
            1.1450596153736115e-01 -1.4741747081279755e-01</leafValues></_>
        <_>
          <internalNodes>
            0 -1 288 7.5104340910911560e-02</internalNodes>
          <leafValues>
            3.1432684510946274e-02 -4.6760272979736328e-01</leafValues></_>
        <_>
          <internalNodes>
            0 -1 118 -4.5688357204198837e-03</internalNodes>
          <leafValues>
            -1.9378717243671417e-01 8.5835345089435577e-02</leafValues></_>
        <_>
          <internalNodes>
            0 -1 9 -7.7533721923828125e-02</internalNodes>
          <leafValues>
            1.3983532786369324e-01 -1.2979918718338013e-01</leafValues></_>
        <_>
          <internalNodes>
            0 -1 578 -1.8849605694413185e-03</internalNodes>
          <leafValues>
            2.1773295104503632e-01 -8.2450129091739655e-02</leafValues></_>
        <_>
          <internalNodes>
            0 -1 612 -6.0062385164201260e-03</internalNodes>
          <leafValues>
            -7.9829603433609009e-01 2.2526478394865990e-02</leafValues></_>
        <_>
          <internalNodes>
            0 -1 617 2.1831346675753593e-03</internalNodes>
          <leafValues>
            3.3508587628602982e-02 -4.1252884268760681e-01</leafValues></_>
        <_>
          <internalNodes>
            0 -1 380 5.6143049150705338e-03</internalNodes>
          <leafValues>
            -6.5341524779796600e-02 2.3659069836139679e-01</leafValues></_>
        <_>
          <internalNodes>
            0 -1 425 1.6496632248163223e-02</internalNodes>
          <leafValues>
            -1.9392667710781097e-01 9.7432002425193787e-02</leafValues></_>
        <_>
          <internalNodes>
            0 -1 202 4.4640237465500832e-03</internalNodes>
          <leafValues>
            -6.0888160020112991e-02 2.6179626584053040e-01</leafValues></_>
        <_>
          <internalNodes>
            0 -1 623 4.9971360713243484e-03</internalNodes>
          <leafValues>
            2.1057851612567902e-02 -9.2987632751464844e-01</leafValues></_>
        <_>
          <internalNodes>
            0 -1 20 9.9502593278884888e-02</internalNodes>
          <leafValues>
            -5.0895214080810547e-02 3.3648312091827393e-01</leafValues></_>
        <_>
          <internalNodes>
            0 -1 98 3.9827965199947357e-02</internalNodes>
          <leafValues>
            -2.9070267453789711e-02 4.9084138870239258e-01</leafValues></_>
        <_>
          <internalNodes>
            0 -1 58 -1.7218182329088449e-03</internalNodes>
          <leafValues>
            1.5253180265426636e-01 -9.8833285272121429e-02</leafValues></_>
        <_>
          <internalNodes>
            0 -1 658 -9.7861457616090775e-03</internalNodes>
          <leafValues>
            -5.2152049541473389e-01 3.0640630051493645e-02</leafValues></_>
        <_>
          <internalNodes>
            0 -1 402 -1.3479043263942003e-03</internalNodes>
          <leafValues>
            1.4908201992511749e-01 -1.1684717237949371e-01</leafValues></_>
        <_>
          <internalNodes>
            0 -1 475 3.6624947097152472e-03</internalNodes>
          <leafValues>
            -1.2746267020702362e-01 1.2001918256282806e-01</leafValues></_>
        <_>
          <internalNodes>
            0 -1 184 -3.3595622517168522e-04</internalNodes>
          <leafValues>
            1.5208633244037628e-01 -1.0033559054136276e-01</leafValues></_>
        <_>
          <internalNodes>
            0 -1 556 -8.6569238919764757e-04</internalNodes>
          <leafValues>
            1.4053094387054443e-01 -1.1683655530214310e-01</leafValues></_>
        <_>
          <internalNodes>
            0 -1 457 3.1994529999792576e-03</internalNodes>
          <leafValues>
            3.4977726638317108e-02 -4.6831446886062622e-01</leafValues></_>
        <_>
          <internalNodes>
            0 -1 536 2.2415155172348022e-01</internalNodes>
          <leafValues>
            -3.9408884942531586e-02 4.2321133613586426e-01</leafValues></_>
        <_>
          <internalNodes>
            0 -1 365 5.7146837934851646e-03</internalNodes>
          <leafValues>
            -5.7812917977571487e-02 2.4527043104171753e-01</leafValues></_>
        <_>
          <internalNodes>
            0 -1 162 6.3283614814281464e-02</internalNodes>
          <leafValues>
            1.7096113413572311e-02 -8.5323065519332886e-01</leafValues></_>
        <_>
          <internalNodes>
            0 -1 88 -7.2980463504791260e-02</internalNodes>
          <leafValues>
            3.8803130388259888e-01 -4.8865139484405518e-02</leafValues></_>
        <_>
          <internalNodes>
            0 -1 416 -2.0756972953677177e-02</internalNodes>
          <leafValues>
            3.3367773890495300e-01 -4.5132659375667572e-02</leafValues></_>
        <_>
          <internalNodes>
            0 -1 508 -1.2439938727766275e-03</internalNodes>
          <leafValues>
            -2.5399851799011230e-01 6.1595764011144638e-02</leafValues></_>
        <_>
          <internalNodes>
            0 -1 573 -2.4022529833018780e-03</internalNodes>
          <leafValues>
            2.0193617045879364e-01 -7.7898696064949036e-02</leafValues></_>
        <_>
          <internalNodes>
            0 -1 548 -4.9241073429584503e-03</internalNodes>
          <leafValues>
            2.6540043950080872e-01 -5.7979453355073929e-02</leafValues></_>
        <_>
          <internalNodes>
            0 -1 479 1.8377460539340973e-02</internalNodes>
          <leafValues>
            -6.7529320716857910e-02 2.3837971687316895e-01</leafValues></_>
        <_>
          <internalNodes>
            0 -1 78 3.8698804564774036e-03</internalNodes>
          <leafValues>
            4.1154246777296066e-02 -4.0249022841453552e-01</leafValues></_>
        <_>
          <internalNodes>
            0 -1 114 -1.5678558498620987e-02</internalNodes>
          <leafValues>
            5.2969598770141602e-01 -3.1617641448974609e-02</leafValues></_>
        <_>
          <internalNodes>
            0 -1 256 -6.3296277076005936e-03</internalNodes>
          <leafValues>
            -3.6523231863975525e-01 4.4216476380825043e-02</leafValues></_>
        <_>
          <internalNodes>
            0 -1 167 1.3309847563505173e-02</internalNodes>
          <leafValues>
            -3.6080241203308105e-02 4.2130851745605469e-01</leafValues></_>
        <_>
          <internalNodes>
            0 -1 330 7.6321378350257874e-02</internalNodes>
          <leafValues>
            2.9499748721718788e-02 -5.0314176082611084e-01</leafValues></_>
        <_>
          <internalNodes>
            0 -1 467 -3.8875784957781434e-04</internalNodes>
          <leafValues>
            1.2757687270641327e-01 -1.2379629909992218e-01</leafValues></_>
        <_>
          <internalNodes>
            0 -1 587 -4.6542834024876356e-04</internalNodes>
          <leafValues>
            1.6051575541496277e-01 -9.4222053885459900e-02</leafValues></_>
        <_>
          <internalNodes>
            0 -1 2 3.8910441100597382e-02</internalNodes>
          <leafValues>
            3.3432040363550186e-02 -4.3983489274978638e-01</leafValues></_>
        <_>
          <internalNodes>
            0 -1 504 2.5762959849089384e-03</internalNodes>
          <leafValues>
            -8.2993134856224060e-02 1.7803014814853668e-01</leafValues></_>
        <_>
          <internalNodes>
            0 -1 424 1.9647557288408279e-02</internalNodes>
          <leafValues>
            5.3424078971147537e-02 -2.6995691657066345e-01</leafValues></_>
        <_>
          <internalNodes>
            0 -1 295 2.3852470330893993e-03</internalNodes>
          <leafValues>
            -7.8616641461849213e-02 2.3000754415988922e-01</leafValues></_>
        <_>
          <internalNodes>
            0 -1 493 -2.8195267543196678e-02</internalNodes>
          <leafValues>
            5.9599173069000244e-01 -2.4894872680306435e-02</leafValues></_>
        <_>
          <internalNodes>
            0 -1 627 1.3869775459170341e-02</internalNodes>
          <leafValues>
            -6.3378073275089264e-02 2.3462416231632233e-01</leafValues></_>
        <_>
          <internalNodes>
            0 -1 195 -3.7624850869178772e-02</internalNodes>
          <leafValues>
            4.4922471046447754e-01 -3.1090039759874344e-02</leafValues></_>
        <_>
          <internalNodes>
            0 -1 607 1.0738980956375599e-02</internalNodes>
          <leafValues>
            4.2927559465169907e-02 -3.8798037171363831e-01</leafValues></_>
        <_>
          <internalNodes>
            0 -1 60 -3.1223990954458714e-03</internalNodes>
          <leafValues>
            -1.5259048342704773e-01 8.8824480772018433e-02</leafValues></_>
        <_>
          <internalNodes>
            0 -1 18 5.1908075809478760e-02</internalNodes>
          <leafValues>
            3.6799233406782150e-02 -4.0621674060821533e-01</leafValues></_>
        <_>
          <internalNodes>
            0 -1 464 -3.4838626161217690e-03</internalNodes>
          <leafValues>
            -5.2128159999847412e-01 2.4472352117300034e-02</leafValues></_>
        <_>
          <internalNodes>
            0 -1 518 -1.2720874510705471e-03</internalNodes>
          <leafValues>
            2.1031793951988220e-01 -6.6423751413822174e-02</leafValues></_>
        <_>
          <internalNodes>
            0 -1 518 8.9187582489103079e-04</internalNodes>
          <leafValues>
            -9.8713338375091553e-02 1.5718382596969604e-01</leafValues></_>
        <_>
          <internalNodes>
            0 -1 310 -3.8335390388965607e-02</internalNodes>
          <leafValues>
            7.8435128927230835e-01 -1.7422134056687355e-02</leafValues></_>
        <_>
          <internalNodes>
            0 -1 525 2.6183365844190121e-03</internalNodes>
          <leafValues>
            3.8777016103267670e-02 -4.0191814303398132e-01</leafValues></_>
        <_>
          <internalNodes>
            0 -1 597 -5.8199604973196983e-04</internalNodes>
          <leafValues>
            1.6233643889427185e-01 -8.9474290609359741e-02</leafValues></_>
        <_>
          <internalNodes>
            0 -1 639 -5.5530946701765060e-03</internalNodes>
          <leafValues>
            -2.5361555814743042e-01 5.8066528290510178e-02</leafValues></_>
        <_>
          <internalNodes>
            0 -1 604 -2.2685693693347275e-04</internalNodes>
          <leafValues>
            1.1100458353757858e-01 -1.3393263518810272e-01</leafValues></_>
        <_>
          <internalNodes>
            0 -1 268 -1.9153852015733719e-02</internalNodes>
          <leafValues>
            1.9805601239204407e-01 -7.3244757950305939e-02</leafValues></_></weakClassifiers></_>
    <!-- stage 5 -->
    <_>
      <maxWeakCount>71</maxWeakCount>
      <stageThreshold>-1.1183141469955444e+00</stageThreshold>
      <weakClassifiers>
        <_>
          <internalNodes>
            0 -1 165 -1.3254873454570770e-01</internalNodes>
          <leafValues>
            2.1492806077003479e-01 -4.2970123887062073e-01</leafValues></_>
        <_>
          <internalNodes>
            0 -1 272 -5.0377033650875092e-02</internalNodes>
          <leafValues>
            3.0072027444839478e-01 -1.0626916587352753e-01</leafValues></_>
        <_>
          <internalNodes>
            0 -1 300 2.3687086999416351e-02</internalNodes>
          <leafValues>
            -6.5631017088890076e-02 4.0436193346977234e-01</leafValues></_>
        <_>
          <internalNodes>
            0 -1 278 -2.1684534847736359e-02</internalNodes>
          <leafValues>
            3.2919937372207642e-01 -8.1865862011909485e-02</leafValues></_>
        <_>
          <internalNodes>
            0 -1 359 -4.5741703361272812e-03</internalNodes>
          <leafValues>
            -4.0459021925926208e-01 5.2203625440597534e-02</leafValues></_>
        <_>
          <internalNodes>
            0 -1 436 1.6695919912308455e-03</internalNodes>
          <leafValues>
            1.1052590608596802e-01 -2.7260968089103699e-01</leafValues></_>
        <_>
          <internalNodes>
            0 -1 228 2.1225705742835999e-02</internalNodes>
          <leafValues>
            -8.2772180438041687e-02 2.8658810257911682e-01</leafValues></_>
        <_>
          <internalNodes>
            0 -1 456 1.9038193859159946e-03</internalNodes>
          <leafValues>
            -6.5556094050407410e-02 2.7958106994628906e-01</leafValues></_>
        <_>
          <internalNodes>
            0 -1 469 3.8072480820119381e-03</internalNodes>
          <leafValues>
            2.8639743104577065e-02 -5.7900220155715942e-01</leafValues></_>
        <_>
          <internalNodes>
            0 -1 514 2.9152696952223778e-03</internalNodes>
          <leafValues>
            7.2743944823741913e-02 -2.7452126145362854e-01</leafValues></_>
        <_>
          <internalNodes>
            0 -1 187 -4.9538472667336464e-03</internalNodes>
          <leafValues>
            -1.8398763239383698e-01 1.0404014587402344e-01</leafValues></_>
        <_>
          <internalNodes>
            0 -1 101 -4.5092716813087463e-02</internalNodes>
          <leafValues>
            9.5917552709579468e-02 -1.7799454927444458e-01</leafValues></_>
        <_>
          <internalNodes>
            0 -1 248 1.4510726556181908e-02</internalNodes>
          <leafValues>
            -4.9618791788816452e-02 3.2870769500732422e-01</leafValues></_>
        <_>
          <internalNodes>
            0 -1 501 8.8023683056235313e-03</internalNodes>
          <leafValues>
            -5.4744660854339600e-02 2.8506225347518921e-01</leafValues></_>
        <_>
          <internalNodes>
            0 -1 511 -4.4492706656455994e-03</internalNodes>
          <leafValues>
            -7.3993885517120361e-01 3.2131928950548172e-02</leafValues></_>
        <_>
          <internalNodes>
            0 -1 589 5.0672842189669609e-03</internalNodes>
          <leafValues>
            -7.2334662079811096e-02 2.6308584213256836e-01</leafValues></_>
        <_>
          <internalNodes>
            0 -1 528 1.9345550099387765e-03</internalNodes>
          <leafValues>
            5.5782653391361237e-02 -3.2236611843109131e-01</leafValues></_>
        <_>
          <internalNodes>
            0 -1 48 -2.7571761608123779e-01</internalNodes>
          <leafValues>
            -7.6672977209091187e-01 1.7364669591188431e-02</leafValues></_>
        <_>
          <internalNodes>
            0 -1 344 -3.3129921648651361e-03</internalNodes>
          <leafValues>
            1.6887366771697998e-01 -9.6384420990943909e-02</leafValues></_>
        <_>
          <internalNodes>
            0 -1 473 -3.6873053759336472e-03</internalNodes>
          <leafValues>
            -6.1705577373504639e-01 1.9935751333832741e-02</leafValues></_>
        <_>
          <internalNodes>
            0 -1 280 8.4003537893295288e-02</internalNodes>
          <leafValues>
            1.4052157290279865e-02 -8.0261749029159546e-01</leafValues></_>
        <_>
          <internalNodes>
            0 -1 334 -1.7016246914863586e-02</internalNodes>
          <leafValues>
            2.1849897503852844e-01 -7.4298620223999023e-02</leafValues></_>
        <_>
          <internalNodes>
            0 -1 666 6.5966725349426270e-02</internalNodes>
          <leafValues>
            -3.7764549255371094e-02 4.0961205959320068e-01</leafValues></_>
        <_>
          <internalNodes>
            0 -1 276 -4.1529089212417603e-03</internalNodes>
          <leafValues>
            -5.8441716432571411e-01 2.9241675511002541e-02</leafValues></_>
        <_>
          <internalNodes>
            0 -1 382 -7.6402812264859676e-03</internalNodes>
          <leafValues>
            -6.8494975566864014e-01 2.1548483520746231e-02</leafValues></_>
        <_>
          <internalNodes>
            0 -1 354 -1.2076977640390396e-02</internalNodes>
          <leafValues>
            3.8689041137695313e-01 -4.6747397631406784e-02</leafValues></_>
        <_>
          <internalNodes>
            0 -1 306 -6.5778195858001709e-04</internalNodes>
          <leafValues>
            1.3704460859298706e-01 -1.3112503290176392e-01</leafValues></_>
        <_>
          <internalNodes>
            0 -1 442 -5.9143286198377609e-03</internalNodes>
          <leafValues>
            1.9518962502479553e-01 -8.9937239885330200e-02</leafValues></_>
        <_>
          <internalNodes>
            0 -1 77 -3.9262059144675732e-03</internalNodes>
          <leafValues>
            -4.5698702335357666e-01 3.8820728659629822e-02</leafValues></_>
        <_>
          <internalNodes>
            0 -1 24 -3.4943006932735443e-02</internalNodes>
          <leafValues>
            1.6337350010871887e-01 -1.0060666501522064e-01</leafValues></_>
        <_>
          <internalNodes>
            0 -1 158 6.8483710289001465e-02</internalNodes>
          <leafValues>
            2.0816093310713768e-02 -6.7741513252258301e-01</leafValues></_>
        <_>
          <internalNodes>
            0 -1 46 7.1967467665672302e-02</internalNodes>
          <leafValues>
            -6.6072143614292145e-02 2.7120095491409302e-01</leafValues></_>
        <_>
          <internalNodes>
            0 -1 103 -2.6883978862315416e-03</internalNodes>
          <leafValues>
            1.6778795421123505e-01 -1.2361332774162292e-01</leafValues></_>
        <_>
          <internalNodes>
            0 -1 96 -1.1225992441177368e-01</internalNodes>
          <leafValues>
            6.4526379108428955e-01 -2.5169834494590759e-02</leafValues></_>
        <_>
          <internalNodes>
            0 -1 518 -9.0052071027457714e-04</internalNodes>
          <leafValues>
            2.0431675016880035e-01 -7.7996559441089630e-02</leafValues></_>
        <_>
          <internalNodes>
            0 -1 345 -2.4554445408284664e-03</internalNodes>
          <leafValues>
            2.1766248345375061e-01 -7.1717508137226105e-02</leafValues></_>
        <_>
          <internalNodes>
            0 -1 648 -3.6129709333181381e-02</internalNodes>
          <leafValues>
            5.1584118604660034e-01 -2.6429098099470139e-02</leafValues></_>
        <_>
          <internalNodes>
            0 -1 510 5.0976276397705078e-03</internalNodes>
          <leafValues>
            5.9059821069240570e-02 -2.5961700081825256e-01</leafValues></_>
        <_>
          <internalNodes>
            0 -1 508 -1.5468128258362412e-03</internalNodes>
          <leafValues>
            -2.8961294889450073e-01 5.1001664251089096e-02</leafValues></_>
        <_>
          <internalNodes>
            0 -1 421 4.3116562068462372e-02</internalNodes>
          <leafValues>
            2.2209050133824348e-02 -6.8458497524261475e-01</leafValues></_>
        <_>
          <internalNodes>
            0 -1 415 1.8065346404910088e-02</internalNodes>
          <leafValues>
            -5.9003643691539764e-02 2.5667828321456909e-01</leafValues></_>
        <_>
          <internalNodes>
            0 -1 51 -3.8901016116142273e-02</internalNodes>
          <leafValues>
            2.2839497029781342e-01 -7.1554295718669891e-02</leafValues></_>
        <_>
          <internalNodes>
            0 -1 472 6.8465538788586855e-04</internalNodes>
          <leafValues>
            -9.5092914998531342e-02 1.6995199024677277e-01</leafValues></_>
        <_>
          <internalNodes>
            0 -1 368 -4.6855032444000244e-02</internalNodes>
          <leafValues>
            6.1981314420700073e-01 -2.5399195030331612e-02</leafValues></_>
        <_>
          <internalNodes>
            0 -1 90 1.9344514235854149e-02</internalNodes>
          <leafValues>
            -4.8091385513544083e-02 3.3313378691673279e-01</leafValues></_>
        <_>
          <internalNodes>
            0 -1 672 3.1303865835070610e-03</internalNodes>
          <leafValues>
            4.4218335300683975e-02 -3.3192661404609680e-01</leafValues></_>
        <_>
          <internalNodes>
            0 -1 640 2.2618653252720833e-02</internalNodes>
          <leafValues>
            -3.7145756185054779e-02 4.3400359153747559e-01</leafValues></_>
        <_>
          <internalNodes>
            0 -1 227 1.8376481020823121e-03</internalNodes>
          <leafValues>
            4.6794228255748749e-02 -3.1543833017349243e-01</leafValues></_>
        <_>
          <internalNodes>
            0 -1 138 5.0648167729377747e-02</internalNodes>
          <leafValues>
            -6.8022169172763824e-02 2.1798291802406311e-01</leafValues></_>
        <_>
          <internalNodes>
            0 -1 66 2.4831346236169338e-03</internalNodes>
          <leafValues>
            5.4746061563491821e-02 -2.4920161068439484e-01</leafValues></_>
        <_>
          <internalNodes>
            0 -1 674 -8.4463804960250854e-02</internalNodes>
          <leafValues>
            6.5724521875381470e-01 -2.1273557096719742e-02</leafValues></_>
        <_>
          <internalNodes>
            0 -1 661 -2.1085452288389206e-02</internalNodes>
          <leafValues>
            -6.6733485460281372e-01 2.8094531968235970e-02</leafValues></_>
        <_>
          <internalNodes>
            0 -1 313 -9.2968512326478958e-03</internalNodes>
          <leafValues>
            -5.5506259202957153e-01 1.9527230411767960e-02</leafValues></_>
        <_>
          <internalNodes>
            0 -1 40 -1.2557231821119785e-02</internalNodes>
          <leafValues>
            3.7232714891433716e-01 -4.0369305759668350e-02</leafValues></_>
        <_>
          <internalNodes>
            0 -1 550 3.0047572217881680e-03</internalNodes>
          <leafValues>
            -6.3639834523200989e-02 2.1161422133445740e-01</leafValues></_>
        <_>
          <internalNodes>
            0 -1 545 -3.8515308406203985e-03</internalNodes>
          <leafValues>
            -2.8120937943458557e-01 5.3281057626008987e-02</leafValues></_>
        <_>
          <internalNodes>
            0 -1 568 -5.5608572438359261e-03</internalNodes>
          <leafValues>
            2.4299496412277222e-01 -7.7201791107654572e-02</leafValues></_>
        <_>
          <internalNodes>
            0 -1 620 -3.3349695149809122e-03</internalNodes>
          <leafValues>
            -5.7575565576553345e-01 2.7724567800760269e-02</leafValues></_>
        <_>
          <internalNodes>
            0 -1 333 -1.5285933390259743e-02</internalNodes>
          <leafValues>
            2.2906646132469177e-01 -6.7637763917446136e-02</leafValues></_>
        <_>
          <internalNodes>
            0 -1 406 -1.3646306470036507e-03</internalNodes>
          <leafValues>
            1.3082176446914673e-01 -1.1113303899765015e-01</leafValues></_>
        <_>
          <internalNodes>
            0 -1 547 -4.8547019250690937e-03</internalNodes>
          <leafValues>
            -6.7375105619430542e-01 2.1028418093919754e-02</leafValues></_>
        <_>
          <internalNodes>
            0 -1 128 1.0771226882934570e-01</internalNodes>
          <leafValues>
            1.1938769370317459e-02 -9.2678910493850708e-01</leafValues></_>
        <_>
          <internalNodes>
            0 -1 323 -3.1106811016798019e-02</internalNodes>
          <leafValues>
            -4.6449798345565796e-01 2.4311106652021408e-02</leafValues></_>
        <_>
          <internalNodes>
            0 -1 637 2.5656624347902834e-04</internalNodes>
          <leafValues>
            9.1873966157436371e-02 -1.5683761239051819e-01</leafValues></_>
        <_>
          <internalNodes>
            0 -1 80 5.9206057339906693e-03</internalNodes>
          <leafValues>
            1.9196340814232826e-02 -7.2693300247192383e-01</leafValues></_>
        <_>
          <internalNodes>
            0 -1 488 -8.7962513789534569e-03</internalNodes>
          <leafValues>
            -9.1598117351531982e-01 1.1585311032831669e-02</leafValues></_>
        <_>
          <internalNodes>
            0 -1 211 6.6151022911071777e-03</internalNodes>
          <leafValues>
            -4.7769598662853241e-02 3.0429798364639282e-01</leafValues></_>
        <_>
          <internalNodes>
            0 -1 561 -1.2003716826438904e-01</internalNodes>
          <leafValues>
            7.1485084295272827e-01 -1.9289555028080940e-02</leafValues></_>
        <_>
          <internalNodes>
            0 -1 610 -1.8407645402476192e-03</internalNodes>
          <leafValues>
            1.3368707895278931e-01 -1.0552563518285751e-01</leafValues></_>
        <_>
          <internalNodes>
            0 -1 615 -2.2082421928644180e-02</internalNodes>
          <leafValues>
            -2.8557983040809631e-01 5.5208086967468262e-02</leafValues></_>
        <_>
          <internalNodes>
            0 -1 596 -2.8994295746088028e-02</internalNodes>
          <leafValues>
            -9.1264569759368896e-01 1.2051629833877087e-02</leafValues></_></weakClassifiers></_>
    <!-- stage 6 -->
    <_>
      <maxWeakCount>89</maxWeakCount>
      <stageThreshold>-1.0201882123947144e+00</stageThreshold>
      <weakClassifiers>
        <_>
          <internalNodes>
            0 -1 164 -1.7689427733421326e-01</internalNodes>
          <leafValues>
            1.5486726164817810e-01 -2.8974738717079163e-01</leafValues></_>
        <_>
          <internalNodes>
            0 -1 374 1.0388851165771484e-02</internalNodes>
          <leafValues>
            7.7452443540096283e-02 -2.9393932223320007e-01</leafValues></_>
        <_>
          <internalNodes>
            0 -1 238 -1.2152297794818878e-01</internalNodes>
          <leafValues>
            5.9344375133514404e-01 -3.8818597793579102e-02</leafValues></_>
        <_>
          <internalNodes>
            0 -1 298 -1.3697496615350246e-03</internalNodes>
          <leafValues>
            1.8263420462608337e-01 -1.3435460627079010e-01</leafValues></_>
        <_>
          <internalNodes>
            0 -1 309 2.2392679005861282e-02</internalNodes>
          <leafValues>
            -2.3401470854878426e-02 3.7608814239501953e-01</leafValues></_>
        <_>
          <internalNodes>
            0 -1 381 -2.6313692796975374e-03</internalNodes>
          <leafValues>
            1.7120739817619324e-01 -1.3210470974445343e-01</leafValues></_>
        <_>
          <internalNodes>
            0 -1 466 -3.6394549533724785e-03</internalNodes>
          <leafValues>
            1.8999414145946503e-01 -1.2733328342437744e-01</leafValues></_>
        <_>
          <internalNodes>
            0 -1 463 1.4397164341062307e-03</internalNodes>
          <leafValues>
            -8.4123045206069946e-02 1.9084222614765167e-01</leafValues></_>
        <_>
          <internalNodes>
            0 -1 440 -2.1521244198083878e-03</internalNodes>
          <leafValues>
            1.6377164423465729e-01 -1.0194041579961777e-01</leafValues></_>
        <_>
          <internalNodes>
            0 -1 369 5.2089639939367771e-03</internalNodes>
          <leafValues>
            6.1610229313373566e-02 -4.1165632009506226e-01</leafValues></_>
        <_>
          <internalNodes>
            0 -1 434 4.4166543520987034e-03</internalNodes>
          <leafValues>
            -9.7245283424854279e-02 2.2057400643825531e-01</leafValues></_>
        <_>
          <internalNodes>
            0 -1 326 8.7022306397557259e-03</internalNodes>
          <leafValues>
            1.1796197295188904e-01 -1.9716902077198029e-01</leafValues></_>
        <_>
          <internalNodes>
            0 -1 555 2.4109375663101673e-03</internalNodes>
          <leafValues>
            1.1109649203717709e-02 -4.0730220079421997e-01</leafValues></_>
        <_>
          <internalNodes>
            0 -1 12 8.2130730152130127e-02</internalNodes>
          <leafValues>
            -2.3789232596755028e-02 5.8003693819046021e-01</leafValues></_>
        <_>
          <internalNodes>
            0 -1 630 2.5515900924801826e-03</internalNodes>
          <leafValues>
            -9.3293860554695129e-02 1.6079962253570557e-01</leafValues></_>
        <_>
          <internalNodes>
            0 -1 631 -8.9369546622037888e-03</internalNodes>
          <leafValues>
            2.7604469656944275e-01 -5.2517704665660858e-02</leafValues></_>
        <_>
          <internalNodes>
            0 -1 259 2.1124556660652161e-02</internalNodes>
          <leafValues>
            -6.9296658039093018e-02 2.1359658241271973e-01</leafValues></_>
        <_>
          <internalNodes>
            0 -1 35 5.0704706460237503e-02</internalNodes>
          <leafValues>
            9.9263722077012062e-03 -7.3517364263534546e-01</leafValues></_>
        <_>
          <internalNodes>
            0 -1 117 2.2910222411155701e-02</internalNodes>
          <leafValues>
            4.9498464912176132e-02 -2.9093930125236511e-01</leafValues></_>
        <_>
          <internalNodes>
            0 -1 474 2.1010328084230423e-02</internalNodes>
          <leafValues>
            1.5779871493577957e-02 -9.0546005964279175e-01</leafValues></_>
        <_>
          <internalNodes>
            0 -1 470 -1.0180985555052757e-02</internalNodes>
          <leafValues>
            -7.1679335832595825e-01 1.3693975284695625e-02</leafValues></_>
        <_>
          <internalNodes>
            0 -1 373 -6.0502216219902039e-02</internalNodes>
          <leafValues>
            5.0670266151428223e-01 -3.3201191574335098e-02</leafValues></_>
        <_>
          <internalNodes>
            0 -1 146 -1.8216792494058609e-02</internalNodes>
          <leafValues>
            3.1321063637733459e-01 -4.6708576381206512e-02</leafValues></_>
        <_>
          <internalNodes>
            0 -1 457 -1.7516778316348791e-03</internalNodes>
          <leafValues>
            -2.6998382806777954e-01 5.3186338394880295e-02</leafValues></_>
        <_>
          <internalNodes>
            0 -1 357 2.5218766182661057e-02</internalNodes>
          <leafValues>
            -4.1726287454366684e-02 4.0859577059745789e-01</leafValues></_>
        <_>
          <internalNodes>
            0 -1 109 -4.8147286288440228e-03</internalNodes>
          <leafValues>
            -5.8322602510452271e-01 2.2921357303857803e-02</leafValues></_>
        <_>
          <internalNodes>
            0 -1 628 1.3946916442364454e-03</internalNodes>
          <leafValues>
            -6.0850370675325394e-02 2.2953209280967712e-01</leafValues></_>
        <_>
          <internalNodes>
            0 -1 516 1.9626414403319359e-02</internalNodes>
          <leafValues>
            2.4332188069820404e-02 -5.8187603950500488e-01</leafValues></_>
        <_>
          <internalNodes>
            0 -1 653 -1.5287726419046521e-03</internalNodes>
          <leafValues>
            1.5853421390056610e-01 -8.0948591232299805e-02</leafValues></_>
        <_>
          <internalNodes>
            0 -1 611 -9.3326801434159279e-03</internalNodes>
          <leafValues>
            -5.0199341773986816e-01 2.3738883435726166e-02</leafValues></_>
        <_>
          <internalNodes>
            0 -1 685 -6.3409069553017616e-03</internalNodes>
          <leafValues>
            -8.1784754991531372e-01 1.3070737943053246e-02</leafValues></_>
        <_>
          <internalNodes>
            0 -1 396 -3.7714499048888683e-03</internalNodes>
          <leafValues>
            -2.9792472720146179e-01 4.0492575615644455e-02</leafValues></_>
        <_>
          <internalNodes>
            0 -1 483 -3.0855758814141154e-04</internalNodes>
          <leafValues>
            1.4526315033435822e-01 -9.5227934420108795e-02</leafValues></_>
        <_>
          <internalNodes>
            0 -1 257 1.7178577836602926e-03</internalNodes>
          <leafValues>
            -9.0050972998142242e-02 1.7250803112983704e-01</leafValues></_>
        <_>
          <internalNodes>
            0 -1 36 -4.6187795698642731e-02</internalNodes>
          <leafValues>
            -6.5869009494781494e-01 2.1620756015181541e-02</leafValues></_>
        <_>
          <internalNodes>
            0 -1 482 2.2709791664965451e-04</internalNodes>
          <leafValues>
            1.0424606502056122e-01 -1.2554445862770081e-01</leafValues></_>
        <_>
          <internalNodes>
            0 -1 208 9.3261208385229111e-03</internalNodes>
          <leafValues>
            -1.3461484014987946e-01 1.2387431412935257e-01</leafValues></_>
        <_>
          <internalNodes>
            0 -1 377 3.1235266942530870e-03</internalNodes>
          <leafValues>
            -7.5444079935550690e-02 1.9317379593849182e-01</leafValues></_>
        <_>
          <internalNodes>
            0 -1 147 -4.1402772068977356e-02</internalNodes>
          <leafValues>
            -3.3768627047538757e-01 3.7736892700195313e-02</leafValues></_>
        <_>
          <internalNodes>
            0 -1 557 9.2737504746764898e-04</internalNodes>
          <leafValues>
            -7.3899745941162109e-02 1.7876847088336945e-01</leafValues></_>
        <_>
          <internalNodes>
            0 -1 7 -1.0068247502204031e-04</internalNodes>
          <leafValues>
            -1.3126014173030853e-01 1.0003577172756195e-01</leafValues></_>
        <_>
          <internalNodes>
            0 -1 16 1.7186386510729790e-02</internalNodes>
          <leafValues>
            1.1077649891376495e-02 -9.3114799261093140e-01</leafValues></_>
        <_>
          <internalNodes>
            0 -1 204 -1.3601811369881034e-03</internalNodes>
          <leafValues>
            1.4594370126724243e-01 -8.8624462485313416e-02</leafValues></_>
        <_>
          <internalNodes>
            0 -1 39 1.4228184008970857e-03</internalNodes>
          <leafValues>
            9.0935319662094116e-02 -1.5357577800750732e-01</leafValues></_>
        <_>
          <internalNodes>
            0 -1 41 -2.3128639906644821e-02</internalNodes>
          <leafValues>
            2.5637343525886536e-01 -5.3641960024833679e-02</leafValues></_>
        <_>
          <internalNodes>
            0 -1 410 1.8281865864992142e-02</internalNodes>
          <leafValues>
            -5.6215513497591019e-02 2.5746819376945496e-01</leafValues></_>
        <_>
          <internalNodes>
            0 -1 121 5.2998751401901245e-02</internalNodes>
          <leafValues>
            -5.1263704895973206e-02 2.7543938159942627e-01</leafValues></_>
        <_>
          <internalNodes>
            0 -1 19 -1.9111668691039085e-02</internalNodes>
          <leafValues>
            1.5791781246662140e-01 -1.0912170261144638e-01</leafValues></_>
        <_>
          <internalNodes>
            0 -1 274 -2.4787876754999161e-03</internalNodes>
          <leafValues>
            1.6648042201995850e-01 -8.4995321929454803e-02</leafValues></_>
        <_>
          <internalNodes>
            0 -1 137 5.2810688503086567e-03</internalNodes>
          <leafValues>
            -9.0512074530124664e-02 1.4239291846752167e-01</leafValues></_>
        <_>
          <internalNodes>
            0 -1 642 -2.3333542048931122e-02</internalNodes>
          <leafValues>
            1.9845560193061829e-01 -7.0939384400844574e-02</leafValues></_>
        <_>
          <internalNodes>
            0 -1 389 4.2090907692909241e-02</internalNodes>
          <leafValues>
            -9.9686153233051300e-02 1.5481330454349518e-01</leafValues></_>
        <_>
          <internalNodes>
            0 -1 591 -1.2900163419544697e-03</internalNodes>
          <leafValues>
            1.5329645574092865e-01 -9.0343698859214783e-02</leafValues></_>
        <_>
          <internalNodes>
            0 -1 391 5.6896004825830460e-03</internalNodes>
          <leafValues>
            2.8169991448521614e-02 -4.8792693018913269e-01</leafValues></_>
        <_>
          <internalNodes>
            0 -1 176 -9.0301141608506441e-04</internalNodes>
          <leafValues>
            1.3634784519672394e-01 -9.5755532383918762e-02</leafValues></_>
        <_>
          <internalNodes>
            0 -1 203 -2.1649446338415146e-02</internalNodes>
          <leafValues>
            3.2364383339881897e-01 -4.6278681606054306e-02</leafValues></_>
        <_>
          <internalNodes>
            0 -1 353 -5.3050736896693707e-03</internalNodes>
          <leafValues>
            2.3669327795505524e-01 -5.5918235331773758e-02</leafValues></_>
        <_>
          <internalNodes>
            0 -1 354 6.1922837048768997e-03</internalNodes>
          <leafValues>
            -7.4131034314632416e-02 2.1481320261955261e-01</leafValues></_>
        <_>
          <internalNodes>
            0 -1 447 -4.4597755186259747e-03</internalNodes>
          <leafValues>
            -6.8089330196380615e-01 1.9756682217121124e-02</leafValues></_>
        <_>
          <internalNodes>
            0 -1 677 6.6745048388838768e-03</internalNodes>
          <leafValues>
            1.6339350491762161e-02 -6.2378561496734619e-01</leafValues></_>
        <_>
          <internalNodes>
            0 -1 385 4.4640470296144485e-03</internalNodes>
          <leafValues>
            1.3825647532939911e-02 -7.4951988458633423e-01</leafValues></_>
        <_>
          <internalNodes>
            0 -1 93 -3.5919668152928352e-03</internalNodes>
          <leafValues>
            1.5444980561733246e-01 -8.2749776542186737e-02</leafValues></_>
        <_>
          <internalNodes>
            0 -1 49 -6.6732335835695267e-04</internalNodes>
          <leafValues>
            -1.4776399731636047e-01 8.3899073302745819e-02</leafValues></_>
        <_>
          <internalNodes>
            0 -1 231 -1.6083993250504136e-03</internalNodes>
          <leafValues>
            1.2335124611854553e-01 -9.9143862724304199e-02</leafValues></_>
        <_>
          <internalNodes>
            0 -1 133 -6.0206493362784386e-03</internalNodes>
          <leafValues>
            1.7030313611030579e-01 -9.0940006077289581e-02</leafValues></_>
        <_>
          <internalNodes>
            0 -1 537 6.5328017808496952e-04</internalNodes>
          <leafValues>
            -9.2466644942760468e-02 1.7571833729743958e-01</leafValues></_>
        <_>
          <internalNodes>
            0 -1 99 9.7171973902732134e-04</internalNodes>
          <leafValues>
            -9.5498323440551758e-02 1.3645857572555542e-01</leafValues></_>
        <_>
          <internalNodes>
            0 -1 346 4.6371184289455414e-03</internalNodes>
          <leafValues>
            -5.9771962463855743e-02 2.2069120407104492e-01</leafValues></_>
        <_>
          <internalNodes>
            0 -1 174 4.1262581944465637e-02</internalNodes>
          <leafValues>
            3.1294599175453186e-02 -4.2850935459136963e-01</leafValues></_>
        <_>
          <internalNodes>
            0 -1 91 3.7830550223588943e-02</internalNodes>
          <leafValues>
            -5.4301556199789047e-02 2.5100785493850708e-01</leafValues></_>
        <_>
          <internalNodes>
            0 -1 139 1.1700876057147980e-03</internalNodes>
          <leafValues>
            9.4844654202461243e-02 -1.3760349154472351e-01</leafValues></_>
        <_>
          <internalNodes>
            0 -1 263 9.9480245262384415e-03</internalNodes>
          <leafValues>
            4.7330565750598907e-02 -2.6719248294830322e-01</leafValues></_>
        <_>
          <internalNodes>
            0 -1 452 5.2991230040788651e-03</internalNodes>
          <leafValues>
            1.4268390834331512e-02 -7.3899865150451660e-01</leafValues></_>
        <_>
          <internalNodes>
            0 -1 408 -3.7957571446895599e-02</internalNodes>
          <leafValues>
            5.3005707263946533e-01 -2.5985373184084892e-02</leafValues></_>
        <_>
          <internalNodes>
            0 -1 412 5.7773580774664879e-03</internalNodes>
          <leafValues>
            2.8093436732888222e-02 -5.2760356664657593e-01</leafValues></_>
        <_>
          <internalNodes>
            0 -1 434 8.9185442775487900e-03</internalNodes>
          <leafValues>
            -4.0822491049766541e-02 3.2206743955612183e-01</leafValues></_>
        <_>
          <internalNodes>
            0 -1 445 8.1938851508311927e-05</internalNodes>
          <leafValues>
            -1.1828421801328659e-01 1.0822224617004395e-01</leafValues></_>
        <_>
          <internalNodes>
            0 -1 234 -5.7884953916072845e-02</internalNodes>
          <leafValues>
            3.6262971162796021e-01 -3.6553289741277695e-02</leafValues></_>
        <_>
          <internalNodes>
            0 -1 214 1.2802924960851669e-02</internalNodes>
          <leafValues>
            2.3625338450074196e-02 -5.4326081275939941e-01</leafValues></_>
        <_>
          <internalNodes>
            0 -1 619 1.4047880470752716e-01</internalNodes>
          <leafValues>
            -2.4063160642981529e-02 5.6979256868362427e-01</leafValues></_>
        <_>
          <internalNodes>
            0 -1 438 -3.0521342996507883e-03</internalNodes>
          <leafValues>
            -2.2007095813751221e-01 5.8988109230995178e-02</leafValues></_>
        <_>
          <internalNodes>
            0 -1 192 -2.3053891956806183e-02</internalNodes>
          <leafValues>
            1.5027201175689697e-01 -8.3330363035202026e-02</leafValues></_>
        <_>
          <internalNodes>
            0 -1 665 2.7553859399631619e-04</internalNodes>
          <leafValues>
            8.0518543720245361e-02 -1.6061720252037048e-01</leafValues></_>
        <_>
          <internalNodes>
            0 -1 664 -1.0714314877986908e-02</internalNodes>
          <leafValues>
            -8.5287147760391235e-01 1.5175826847553253e-02</leafValues></_>
        <_>
          <internalNodes>
            0 -1 626 1.6768701374530792e-02</internalNodes>
          <leafValues>
            1.2704282067716122e-02 -7.0534044504165649e-01</leafValues></_>
        <_>
          <internalNodes>
            0 -1 68 -1.7629515379667282e-02</internalNodes>
          <leafValues>
            5.7137519121170044e-01 -2.4568820372223854e-02</leafValues></_>
        <_>
          <internalNodes>
            0 -1 316 5.5290050804615021e-03</internalNodes>
          <leafValues>
            4.7780565917491913e-02 -2.6306104660034180e-01</leafValues></_>
        <_>
          <internalNodes>
            0 -1 106 1.1787502095103264e-02</internalNodes>
          <leafValues>
            -2.0157888531684875e-02 6.4904052019119263e-01</leafValues></_>
        <_>
          <internalNodes>
            0 -1 97 9.9786650389432907e-03</internalNodes>
          <leafValues>
            5.1368620246648788e-02 -2.9581186175346375e-01</leafValues></_></weakClassifiers></_>
    <!-- stage 7 -->
    <_>
      <maxWeakCount>89</maxWeakCount>
      <stageThreshold>-1.0457273721694946e+00</stageThreshold>
      <weakClassifiers>
        <_>
          <internalNodes>
            0 -1 53 -3.1012064218521118e-01</internalNodes>
          <leafValues>
            1.3808049261569977e-01 -2.5060659646987915e-01</leafValues></_>
        <_>
          <internalNodes>
            0 -1 407 -1.7674556002020836e-02</internalNodes>
          <leafValues>
            1.7763765156269073e-01 -1.3903671503067017e-01</leafValues></_>
        <_>
          <internalNodes>
            0 -1 314 -2.7627371251583099e-02</internalNodes>
          <leafValues>
            3.4546831250190735e-01 -6.4218558371067047e-02</leafValues></_>
        <_>
          <internalNodes>
            0 -1 419 -3.8998156785964966e-02</internalNodes>
          <leafValues>
            2.6145005226135254e-01 -1.1912599951028824e-01</leafValues></_>
        <_>
          <internalNodes>
            0 -1 411 -1.1388419196009636e-02</internalNodes>
          <leafValues>
            4.1676658391952515e-01 -2.2193612530827522e-02</leafValues></_>
        <_>
          <internalNodes>
            0 -1 459 4.4513344764709473e-03</internalNodes>
          <leafValues>
            -7.6535783708095551e-02 2.3067225515842438e-01</leafValues></_>
        <_>
          <internalNodes>
            0 -1 450 -4.5780600048601627e-03</internalNodes>
          <leafValues>
            1.8354830145835876e-01 -1.2019275873899460e-01</leafValues></_>
        <_>
          <internalNodes>
            0 -1 651 -4.2018974199891090e-03</internalNodes>
          <leafValues>
            -4.0745553374290466e-01 7.7034160494804382e-02</leafValues></_>
        <_>
          <internalNodes>
            0 -1 194 -1.2316438369452953e-03</internalNodes>
          <leafValues>
            2.2074548900127411e-01 -8.7357163429260254e-02</leafValues></_>
        <_>
          <internalNodes>
            0 -1 43 -4.3149602413177490e-01</internalNodes>
          <leafValues>
            -8.6647313833236694e-01 4.5577168464660645e-02</leafValues></_>
        <_>
          <internalNodes>
            0 -1 102 4.8557408154010773e-03</internalNodes>
          <leafValues>
            7.1245483122766018e-03 -4.5456361770629883e-01</leafValues></_>
        <_>
          <internalNodes>
            0 -1 422 1.2277956120669842e-03</internalNodes>
          <leafValues>
            -5.9699185192584991e-02 2.2424080967903137e-01</leafValues></_>
        <_>
          <internalNodes>
            0 -1 346 -8.2531319931149483e-03</internalNodes>
          <leafValues>
            2.2575831413269043e-01 -8.5102729499340057e-02</leafValues></_>
        <_>
          <internalNodes>
            0 -1 219 9.7623188048601151e-03</internalNodes>
          <leafValues>
            7.7776230871677399e-02 -2.2559309005737305e-01</leafValues></_>
        <_>
          <internalNodes>
            0 -1 321 7.7295303344726563e-03</internalNodes>
          <leafValues>
            1.6184298321604729e-02 -5.1223647594451904e-01</leafValues></_>
        <_>
          <internalNodes>
            0 -1 190 -5.8462299406528473e-02</internalNodes>
          <leafValues>
            -3.7635213136672974e-01 4.1715383529663086e-02</leafValues></_>
        <_>
          <internalNodes>
            0 -1 435 7.3546748608350754e-03</internalNodes>
          <leafValues>
            -5.5226728320121765e-02 2.6344981789588928e-01</leafValues></_>
        <_>
          <internalNodes>
            0 -1 455 1.5365833416581154e-02</internalNodes>
          <leafValues>
            5.0350099802017212e-02 -3.0149576067924500e-01</leafValues></_>
        <_>
          <internalNodes>
            0 -1 92 2.7544691693037748e-03</internalNodes>
          <leafValues>
            2.6349168270826340e-02 -4.6762901544570923e-01</leafValues></_>
        <_>
          <internalNodes>
            0 -1 55 1.1077143251895905e-02</internalNodes>
          <leafValues>
            -5.9992346912622452e-02 2.3262338340282440e-01</leafValues></_>
        <_>
          <internalNodes>
            0 -1 266 9.7576647996902466e-02</internalNodes>
          <leafValues>
            3.6173831671476364e-02 -5.0776076316833496e-01</leafValues></_>
        <_>
          <internalNodes>
            0 -1 644 5.4798107594251633e-03</internalNodes>
          <leafValues>
            5.6472625583410263e-03 -9.8289692401885986e-01</leafValues></_>
        <_>
          <internalNodes>
            0 -1 526 -4.9142213538289070e-04</internalNodes>
          <leafValues>
            1.5324342250823975e-01 -8.7290011346340179e-02</leafValues></_>
        <_>
          <internalNodes>
            0 -1 249 -1.2183538079261780e-01</internalNodes>
          <leafValues>
            5.8047068119049072e-01 -2.5187447667121887e-02</leafValues></_>
        <_>
          <internalNodes>
            0 -1 260 -2.5608018040657043e-02</internalNodes>
          <leafValues>
            -3.6552476882934570e-01 4.4481713324785233e-02</leafValues></_>
        <_>
          <internalNodes>
            0 -1 552 -1.3426154851913452e-02</internalNodes>
          <leafValues>
            -4.4599616527557373e-01 2.6876932010054588e-02</leafValues></_>
        <_>
          <internalNodes>
            0 -1 201 -1.3162464601919055e-03</internalNodes>
          <leafValues>
            2.3106040060520172e-01 -5.7858396321535110e-02</leafValues></_>
        <_>
          <internalNodes>
            0 -1 168 -5.6047286838293076e-02</internalNodes>
          <leafValues>
            -5.4973137378692627e-01 2.3930512368679047e-02</leafValues></_>
        <_>
          <internalNodes>
            0 -1 351 -4.9247532151639462e-03</internalNodes>
          <leafValues>
            -6.5503150224685669e-01 2.0996833220124245e-02</leafValues></_>
        <_>
          <internalNodes>
            0 -1 355 3.3578849397599697e-03</internalNodes>
          <leafValues>
            4.8495367169380188e-02 -2.8508681058883667e-01</leafValues></_>
        <_>
          <internalNodes>
            0 -1 595 -2.7189911343157291e-03</internalNodes>
          <leafValues>
            3.3350294828414917e-01 -4.7206915915012360e-02</leafValues></_>
        <_>
          <internalNodes>
            0 -1 52 -5.3804581984877586e-03</internalNodes>
          <leafValues>
            1.6249290108680725e-01 -8.1286996603012085e-02</leafValues></_>
        <_>
          <internalNodes>
            0 -1 207 -5.6281210854649544e-03</internalNodes>
          <leafValues>
            -2.9354947805404663e-01 4.6735744923353195e-02</leafValues></_>
        <_>
          <internalNodes>
            0 -1 196 2.0735291764140129e-03</internalNodes>
          <leafValues>
            -7.3869265615940094e-02 1.7618207633495331e-01</leafValues></_>
        <_>
          <internalNodes>
            0 -1 602 1.2777376174926758e-01</internalNodes>
          <leafValues>
            -4.0558986365795135e-02 3.3338201045989990e-01</leafValues></_>
        <_>
          <internalNodes>
            0 -1 34 -1.7622546874918044e-04</internalNodes>
          <leafValues>
            1.2022506445646286e-01 -1.1167600005865097e-01</leafValues></_>
        <_>
          <internalNodes>
            0 -1 629 -4.6855257824063301e-03</internalNodes>
          <leafValues>
            1.8240931630134583e-01 -7.5954988598823547e-02</leafValues></_>
        <_>
          <internalNodes>
            0 -1 57 3.4977380186319351e-02</internalNodes>
          <leafValues>
            3.7225749343633652e-02 -4.0817087888717651e-01</leafValues></_>
        <_>
          <internalNodes>
            0 -1 643 -5.1998443901538849e-02</internalNodes>
          <leafValues>
            -3.3599331974983215e-01 3.9422303438186646e-02</leafValues></_>
        <_>
          <internalNodes>
            0 -1 471 3.0743800103664398e-02</internalNodes>
          <leafValues>
            -1.1316981166601181e-01 1.3964849710464478e-01</leafValues></_>
        <_>
          <internalNodes>
            0 -1 562 -4.1629951447248459e-03</internalNodes>
          <leafValues>
            1.9712437689304352e-01 -7.2072535753250122e-02</leafValues></_>
        <_>
          <internalNodes>
            0 -1 533 -1.2296866625547409e-02</internalNodes>
          <leafValues>
            -1.9406172633171082e-01 7.2672955691814423e-02</leafValues></_>
        <_>
          <internalNodes>
            0 -1 490 3.3408300951123238e-03</internalNodes>
          <leafValues>
            -3.9739161729812622e-02 3.7462368607521057e-01</leafValues></_>
        <_>
          <internalNodes>
            0 -1 291 2.1039962768554688e-02</internalNodes>
          <leafValues>
            -4.0380410850048065e-02 3.4001228213310242e-01</leafValues></_>
        <_>
          <internalNodes>
            0 -1 277 -5.9606423601508141e-03</internalNodes>
          <leafValues>
            -8.5221779346466064e-01 1.6683699563145638e-02</leafValues></_>
        <_>
          <internalNodes>
            0 -1 678 1.0328571079298854e-04</internalNodes>
          <leafValues>
            9.0946614742279053e-02 -1.5039338171482086e-01</leafValues></_>
        <_>
          <internalNodes>
            0 -1 56 1.1601068545132875e-03</internalNodes>
          <leafValues>
            -6.1601027846336365e-02 2.1226623654365540e-01</leafValues></_>
        <_>
          <internalNodes>
            0 -1 500 7.2415368631482124e-03</internalNodes>
