<?xml version="1.0"?>
<opencv_storage>
<stage3>
  <maxWeakCount>69</maxWeakCount>
  <stageThreshold>-1.0768835544586182e+00</stageThreshold>
  <weakClassifiers>
    <_>
      <internalNodes>
        0 -1 24729 -1.8176683783531189e-01</internalNodes>
      <leafValues>
        2.8068044781684875e-01 -3.3707076311111450e-01</leafValues></_>
    <_>
      <internalNodes>
        0 -1 47318 -6.0668196529150009e-02</internalNodes>
      <leafValues>
        4.7656765580177307e-01 -8.1436961889266968e-02</leafValues></_>
    <_>
      <internalNodes>
        0 -1 45126 1.1047301813960075e-02</internalNodes>
      <leafValues>
        -1.0920749604701996e-01 3.9452621340751648e-01</leafValues></_>
    <_>
      <internalNodes>
        0 -1 57394 1.8638325855135918e-03</internalNodes>
      <leafValues>
        -1.0880348086357117e-01 2.2198861837387085e-01</leafValues></_>
    <_>
      <internalNodes>
        0 -1 52942 5.3303996101021767e-03</internalNodes>
      <leafValues>
        -7.7957093715667725e-02 3.1773805618286133e-01</leafValues></_>
    <_>
      <internalNodes>
        0 -1 41659 -2.1425195038318634e-02</internalNodes>
      <leafValues>
        2.4780507385730743e-01 -1.0115841776132584e-01</leafValues></_>
    <_>
      <internalNodes>
        0 -1 53279 -3.1854787375777960e-03</internalNodes>
      <leafValues>
        -3.3518540859222412e-01 8.3862245082855225e-02</leafValues></_>
    <_>
      <internalNodes>
        0 -1 15399 -3.9341632276773453e-02</internalNodes>
      <leafValues>
        2.8349539637565613e-01 -7.7045187354087830e-02</leafValues></_>
    <_>
      <internalNodes>
        0 -1 64550 7.4814576655626297e-03</internalNodes>
      <leafValues>
        -1.0140129178762436e-01 2.5587737560272217e-01</leafValues></_>
    <_>
      <internalNodes>
        0 -1 39992 -2.4111166596412659e-02</internalNodes>
      <leafValues>
        -6.5584224462509155e-01 2.3146869614720345e-02</leafValues></_>
    <_>
      <internalNodes>
        0 -1 58152 2.1681508049368858e-02</internalNodes>
      <leafValues>
        -4.4016811996698380e-02 4.3335953354835510e-01</leafValues></_>
    <_>
      <internalNodes>
        0 -1 62398 -4.9743447452783585e-03</internalNodes>
      <leafValues>
        -5.6504917144775391e-01 4.1639082133769989e-02</leafValues></_>
    <_>
      <internalNodes>
        0 -1 28674 -2.6929190382361412e-02</internalNodes>
      <leafValues>
        4.0776571631431580e-01 -5.1696054637432098e-02</leafValues></_>
    <_>
      <internalNodes>
        0 -1 54455 -4.8889308236539364e-03</internalNodes>
      <leafValues>
        2.9094871878623962e-01 -5.3080569952726364e-02</leafValues></_>
    <_>
      <internalNodes>
        0 -1 43267 -1.5084721148014069e-02</internalNodes>
      <leafValues>
        4.1606482863426208e-01 -5.3685601800680161e-02</leafValues></_>
    <_>
      <internalNodes>
        0 -1 52395 2.5076154619455338e-02</internalNodes>
      <leafValues>
        -6.2563225626945496e-02 3.5959446430206299e-01</leafValues></_>
    <_>
      <internalNodes>
        0 -1 49771 -4.0050055831670761e-03</internalNodes>
      <leafValues>
        -3.1172010302543640e-01 6.5606951713562012e-02</leafValues></_>
    <_>
      <internalNodes>
        0 -1 61296 1.5132645145058632e-02</internalNodes>
      <leafValues>
        -5.3227525204420090e-02 3.2711759209632874e-01</leafValues></_>
    <_>
      <internalNodes>
        0 -1 52973 -3.2131220214068890e-03</internalNodes>
      <leafValues>
        -3.3797386288642883e-01 5.9375621378421783e-02</leafValues></_>
    <_>
      <internalNodes>
        0 -1 63852 -6.3746698200702667e-02</internalNodes>
      <leafValues>
        2.7213218808174133e-01 -6.8200290203094482e-02</leafValues></_>
    <_>
      <internalNodes>
        0 -1 25009 2.8155896812677383e-02</internalNodes>
      <leafValues>
        -2.3411059752106667e-02 5.9767752885818481e-01</leafValues></_>
    <_>
      <internalNodes>
        0 -1 56912 -5.6791473180055618e-03</internalNodes>
      <leafValues>
        -8.5305380821228027e-01 2.7087729424238205e-02</leafValues></_>
    <_>
      <internalNodes>
        0 -1 64109 3.4437011927366257e-03</internalNodes>
      <leafValues>
        -7.9727567732334137e-02 2.3498481512069702e-01</leafValues></_>
    <_>
      <internalNodes>
        0 -1 72821 3.2085594721138477e-03</internalNodes>
      <leafValues>
        4.2880758643150330e-02 -4.7556862235069275e-01</leafValues></_>
    <_>
      <internalNodes>
        0 -1 74565 2.9684924520552158e-03</internalNodes>
      <leafValues>
        -1.0539751499891281e-01 1.7262479662895203e-01</leafValues></_>
    <_>
      <internalNodes>
        0 -1 53785 3.4342687577009201e-03</internalNodes>
      <leafValues>
        5.9013694524765015e-02 -3.3371096849441528e-01</leafValues></_>
    <_>
      <internalNodes>
        0 -1 34134 -2.3935400531627238e-04</internalNodes>
      <leafValues>
        1.3311529159545898e-01 -1.3721793889999390e-01</leafValues></_>
    <_>
      <internalNodes>
        0 -1 68327 9.8417839035391808e-04</internalNodes>
      <leafValues>
        -1.1799751967191696e-01 1.4662496745586395e-01</leafValues></_>
    <_>
      <internalNodes>
        0 -1 14672 -1.7192490398883820e-02</internalNodes>
      <leafValues>
        -1.8897719681262970e-01 8.7269581854343414e-02</leafValues></_>
    <_>
      <internalNodes>
        0 -1 3875 -4.3535046279430389e-04</internalNodes>
      <leafValues>
        -1.9234357774257660e-01 9.1513007879257202e-02</leafValues></_>
    <_>
      <internalNodes>
        0 -1 43548 1.0044688824564219e-03</internalNodes>
      <leafValues>
        -1.0564291477203369e-01 1.6946269571781158e-01</leafValues></_>
    <_>
      <internalNodes>
        0 -1 44071 -1.5095154521986842e-03</internalNodes>
      <leafValues>
        1.8511876463890076e-01 -1.2254303693771362e-01</leafValues></_>
    <_>
      <internalNodes>
        0 -1 61476 5.1709907129406929e-03</internalNodes>
      <leafValues>
        4.0506400167942047e-02 -4.5988497138023376e-01</leafValues></_>
    <_>
      <internalNodes>
        0 -1 53208 -5.6416180450469255e-04</internalNodes>
      <leafValues>
        1.4201091229915619e-01 -1.2769432365894318e-01</leafValues></_>
    <_>
      <internalNodes>
        0 -1 57396 -1.9104699604213238e-03</internalNodes>
      <leafValues>
        1.6794511675834656e-01 -1.2609337270259857e-01</leafValues></_>
    <_>
      <internalNodes>
        0 -1 64904 -1.6778418794274330e-03</internalNodes>
      <leafValues>
        1.8742570281028748e-01 -1.0975136607885361e-01</leafValues></_>
    <_>
      <internalNodes>
        0 -1 28252 -2.5631023570895195e-02</internalNodes>
      <leafValues>
        -5.7557415962219238e-01 3.4777127206325531e-02</leafValues></_>
    <_>
      <internalNodes>
        0 -1 52093 7.6421909034252167e-04</internalNodes>
      <leafValues>
        -9.5764786005020142e-02 1.7854239046573639e-01</leafValues></_>
    <_>
      <internalNodes>
        0 -1 42392 -5.4306653328239918e-03</internalNodes>
      <leafValues>
        2.2343553602695465e-01 -8.8104508817195892e-02</leafValues></_>
    <_>
      <internalNodes>
        0 -1 77951 -3.0868593603372574e-03</internalNodes>
      <leafValues>
        -2.4394048750400543e-01 7.5854346156120300e-02</leafValues></_>
    <_>
      <internalNodes>
        0 -1 75529 2.1209771512076259e-04</internalNodes>
      <leafValues>
        1.1938197910785675e-01 -1.5879318118095398e-01</leafValues></_>
    <_>
      <internalNodes>
        0 -1 43835 -1.4606085605919361e-02</internalNodes>
      <leafValues>
        -3.2463285326957703e-01 4.8468232154846191e-02</leafValues></_>
    <_>
      <internalNodes>
        0 -1 14367 -3.0236922204494476e-02</internalNodes>
      <leafValues>
        3.8501507043838501e-01 -4.2443893849849701e-02</leafValues></_>
    <_>
      <internalNodes>
        0 -1 33626 1.9159758812747896e-04</internalNodes>
      <leafValues>
        -1.2399096786975861e-01 1.4538678526878357e-01</leafValues></_>
    <_>
      <internalNodes>
        0 -1 44458 1.2192647904157639e-02</internalNodes>
      <leafValues>
        -1.4340357482433319e-01 1.1947186291217804e-01</leafValues></_>
    <_>
      <internalNodes>
        0 -1 14654 3.9168499410152435e-02</internalNodes>
      <leafValues>
        5.1925096660852432e-02 -3.4010547399520874e-01</leafValues></_>
    <_>
      <internalNodes>
        0 -1 16091 -9.5728412270545959e-03</internalNodes>
      <leafValues>
        -7.8004783391952515e-01 1.9862180575728416e-02</leafValues></_>
    <_>
      <internalNodes>
        0 -1 22998 -1.1933213099837303e-03</internalNodes>
      <leafValues>
        1.8609301745891571e-01 -8.6588457226753235e-02</leafValues></_>
    <_>
      <internalNodes>
        0 -1 21795 -3.3156700432300568e-02</internalNodes>
      <leafValues>
        -7.6147031784057617e-01 2.2830948233604431e-02</leafValues></_>
    <_>
      <internalNodes>
        0 -1 48504 -2.2267708554863930e-03</internalNodes>
      <leafValues>
        1.9502192735671997e-01 -8.2474723458290100e-02</leafValues></_>
    <_>
      <internalNodes>
        0 -1 77663 4.3927007354795933e-03</internalNodes>
      <leafValues>
        3.0704967677593231e-02 -5.4415154457092285e-01</leafValues></_>
    <_>
      <internalNodes>
        0 -1 68679 -2.6170318014919758e-03</internalNodes>
      <leafValues>
        -4.4552055001258850e-01 3.3390071243047714e-02</leafValues></_>
    <_>
      <internalNodes>
        0 -1 63079 8.2962037995457649e-03</internalNodes>
      <leafValues>
        -1.1216462403535843e-01 1.4757819473743439e-01</leafValues></_>
    <_>
      <internalNodes>
        0 -1 31002 1.9580259919166565e-01</internalNodes>
      <leafValues>
        4.0453743189573288e-02 -4.3431705236434937e-01</leafValues></_>
    <_>
      <internalNodes>
        0 -1 57783 1.3754921965301037e-03</internalNodes>
      <leafValues>
        -9.0955354273319244e-02 2.2180239856243134e-01</leafValues></_>
    <_>
      <internalNodes>
        0 -1 51434 2.4762500077486038e-02</internalNodes>
      <leafValues>
        4.4700689613819122e-02 -3.7774083018302917e-01</leafValues></_>
    <_>
      <internalNodes>
        0 -1 57595 -1.4821514487266541e-03</internalNodes>
      <leafValues>
        1.9080492854118347e-01 -9.3979530036449432e-02</leafValues></_>
    <_>
      <internalNodes>
        0 -1 52030 4.0987864136695862e-02</internalNodes>
      <leafValues>
        2.2448798641562462e-02 -7.5552684068679810e-01</leafValues></_>
    <_>
      <internalNodes>
        0 -1 59963 2.5561903021298349e-04</internalNodes>
      <leafValues>
        -1.0618964582681656e-01 1.6757681965827942e-01</leafValues></_>
    <_>
      <internalNodes>
        0 -1 75968 2.4879414588212967e-02</internalNodes>
      <leafValues>
        4.2942237108945847e-02 -3.9188748598098755e-01</leafValues></_>
    <_>
      <internalNodes>
        0 -1 58506 -5.4195066913962364e-03</internalNodes>
      <leafValues>
        -5.1970517635345459e-01 2.8843134641647339e-02</leafValues></_>
    <_>
      <internalNodes>
        0 -1 47920 9.8302098922431469e-04</internalNodes>
      <leafValues>
        -6.8548344075679779e-02 2.4174523353576660e-01</leafValues></_>
    <_>
      <internalNodes>
        0 -1 29001 -2.8274267911911011e-02</internalNodes>
      <leafValues>
        -5.2694416046142578e-01 3.3393926918506622e-02</leafValues></_>
    <_>
      <internalNodes>
        0 -1 50983 5.2607282996177673e-02</internalNodes>
      <leafValues>
        1.5216598287224770e-02 -8.6547970771789551e-01</leafValues></_>
    <_>
      <internalNodes>
        0 -1 78222 -2.4603824131190777e-03</internalNodes>
      <leafValues>
        -4.4209691882133484e-01 3.2069768756628036e-02</leafValues></_>
    <_>
      <internalNodes>
        0 -1 62485 -1.9305802881717682e-02</internalNodes>
      <leafValues>
        4.2737966775894165e-01 -3.7127289921045303e-02</leafValues></_>
    <_>
      <internalNodes>
        0 -1 12597 -4.6957982704043388e-03</internalNodes>
      <leafValues>
        -4.6845579147338867e-01 3.6871690303087234e-02</leafValues></_>
    <_>
      <internalNodes>
        0 -1 71345 -4.4040083885192871e-02</internalNodes>
      <leafValues>
        -4.3802797794342041e-01 3.2634392380714417e-02</leafValues></_>
    <_>
      <internalNodes>
        0 -1 1439 -2.4924809113144875e-03</internalNodes>
      <leafValues>
        -3.3336749672889709e-01 4.5046284794807434e-02</leafValues></_></weakClassifiers></stage3>
</opencv_storage>
