<?xml version="1.0"?>
<opencv_storage>
<stage1>
  <maxWeakCount>19</maxWeakCount>
  <stageThreshold>-1.0259927511215210e+00</stageThreshold>
  <weakClassifiers>
    <_>
      <internalNodes>
        0 -1 35024 1.2843461707234383e-02</internalNodes>
      <leafValues>
        4.5666354894638062e-01 -7.0866143703460693e-01</leafValues></_>
    <_>
      <internalNodes>
        0 -1 6989 -2.1714805066585541e-01</internalNodes>
      <leafValues>
        5.4851639270782471e-01 -2.8631812334060669e-01</leafValues></_>
    <_>
      <internalNodes>
        0 -1 35349 4.1289368527941406e-04</internalNodes>
      <leafValues>
        -4.0673199295997620e-01 3.6102235317230225e-01</leafValues></_>
    <_>
      <internalNodes>
        0 -1 38686 -6.3119446858763695e-03</internalNodes>
      <leafValues>
        3.4190475940704346e-01 -4.1331595182418823e-01</leafValues></_>
    <_>
      <internalNodes>
        0 -1 24528 2.0396610721945763e-02</internalNodes>
      <leafValues>
        -2.7130591869354248e-01 4.7980803251266479e-01</leafValues></_>
    <_>
      <internalNodes>
        0 -1 34947 3.5481345839798450e-03</internalNodes>
      <leafValues>
        -2.6379436254501343e-01 3.6756247282028198e-01</leafValues></_>
    <_>
      <internalNodes>
        0 -1 43043 -1.3905389932915568e-03</internalNodes>
      <leafValues>
        3.2939672470092773e-01 -2.7703997492790222e-01</leafValues></_>
    <_>
      <internalNodes>
        0 -1 37925 6.7027821205556393e-03</internalNodes>
      <leafValues>
        1.1910011619329453e-01 -9.0749692916870117e-01</leafValues></_>
    <_>
      <internalNodes>
        0 -1 34829 -1.8394867656752467e-03</internalNodes>
      <leafValues>
        -4.9994546175003052e-01 1.5576691925525665e-01</leafValues></_>
    <_>
      <internalNodes>
        0 -1 40170 -1.5139896422624588e-03</internalNodes>
      <leafValues>
        4.1961106657981873e-01 -1.8410456180572510e-01</leafValues></_>
    <_>
      <internalNodes>
        0 -1 28761 -2.0159829407930374e-02</internalNodes>
      <leafValues>
        4.3978413939476013e-01 -1.7728890478610992e-01</leafValues></_>
    <_>
      <internalNodes>
        0 -1 31946 3.7834615795873106e-04</internalNodes>
      <leafValues>
        -2.4746032059192657e-01 2.7936875820159912e-01</leafValues></_>
    <_>
      <internalNodes>
        0 -1 37588 -5.9968745335936546e-03</internalNodes>
      <leafValues>
        -7.1820986270904541e-01 9.6568651497364044e-02</leafValues></_>
    <_>
      <internalNodes>
        0 -1 35559 5.2891196683049202e-03</internalNodes>
      <leafValues>
        -1.9451676309108734e-01 3.5219630599021912e-01</leafValues></_>
    <_>
      <internalNodes>
        0 -1 38437 -3.6140130832791328e-03</internalNodes>
      <leafValues>
        -9.6602797508239746e-01 6.6166147589683533e-02</leafValues></_>
    <_>
      <internalNodes>
        0 -1 26879 2.0634017884731293e-02</internalNodes>
      <leafValues>
        -1.3321469724178314e-01 6.1723053455352783e-01</leafValues></_>
    <_>
      <internalNodes>
        0 -1 38060 3.3271799329668283e-03</internalNodes>
      <leafValues>
        -2.1750609576702118e-01 4.1646078228950500e-01</leafValues></_>
    <_>
      <internalNodes>
        0 -1 40849 -7.3687843978404999e-03</internalNodes>
      <leafValues>
        -8.2247781753540039e-01 9.6020855009555817e-02</leafValues></_>
    <_>
      <internalNodes>
        0 -1 35121 -1.5591617673635483e-02</internalNodes>
      <leafValues>
        4.3466073274612427e-01 -1.9223266839981079e-01</leafValues></_></weakClassifiers></stage1>
</opencv_storage>
