<?xml version="1.0"?>
<opencv_storage>
<stage6>
  <maxWeakCount>38</maxWeakCount>
  <stageThreshold>-8.8463503122329712e-01</stageThreshold>
  <weakClassifiers>
    <_>
      <internalNodes>
        0 -1 20347 6.7518474534153938e-03</internalNodes>
      <leafValues>
        5.0487156957387924e-02 5.8457905054092407e-01</leafValues></_>
    <_>
      <internalNodes>
        0 -1 37775 -3.3350128796882927e-04</internalNodes>
      <leafValues>
        -3.7794151902198792e-01 2.3541603982448578e-01</leafValues></_>
    <_>
      <internalNodes>
        0 -1 32583 -2.5362472981214523e-02</internalNodes>
      <leafValues>
        3.9793208241462708e-01 -2.0091991126537323e-01</leafValues></_>
    <_>
      <internalNodes>
        0 -1 13327 -7.8777030110359192e-02</internalNodes>
      <leafValues>
        2.8358966112136841e-01 -2.1693940460681915e-01</leafValues></_>
    <_>
      <internalNodes>
        0 -1 34393 4.3060192838311195e-03</internalNodes>
      <leafValues>
        -2.8887036442756653e-01 2.3444178700447083e-01</leafValues></_>
    <_>
      <internalNodes>
        0 -1 41173 -1.7522814450785518e-03</internalNodes>
      <leafValues>
        -6.9986808300018311e-01 5.7769041508436203e-02</leafValues></_>
    <_>
      <internalNodes>
        0 -1 35414 3.7393013481050730e-03</internalNodes>
      <leafValues>
        5.3936418145895004e-02 -7.8147870302200317e-01</leafValues></_>
    <_>
      <internalNodes>
        0 -1 40841 -2.2497174795717001e-03</internalNodes>
      <leafValues>
        3.4302160143852234e-01 -1.4152400195598602e-01</leafValues></_>
    <_>
      <internalNodes>
        0 -1 34587 -6.2528895214200020e-03</internalNodes>
      <leafValues>
        3.3167499303817749e-01 -1.5993431210517883e-01</leafValues></_>
    <_>
      <internalNodes>
        0 -1 37710 -2.9216213151812553e-03</internalNodes>
      <leafValues>
        3.7295413017272949e-01 -1.3731555640697479e-01</leafValues></_>
    <_>
      <internalNodes>
        0 -1 34492 1.8688505515456200e-02</internalNodes>
      <leafValues>
        1.0732515901327133e-01 -5.7036113739013672e-01</leafValues></_>
    <_>
      <internalNodes>
        0 -1 37332 -3.1018042936921120e-03</internalNodes>
      <leafValues>
        -6.1495906114578247e-01 5.7010114192962646e-02</leafValues></_>
    <_>
      <internalNodes>
        0 -1 33731 3.4409523010253906e-02</internalNodes>
      <leafValues>
        7.3234498500823975e-02 -5.7436805963516235e-01</leafValues></_>
    <_>
      <internalNodes>
        0 -1 40382 3.8128751330077648e-03</internalNodes>
      <leafValues>
        -1.5053801238536835e-01 3.2518345117568970e-01</leafValues></_>
    <_>
      <internalNodes>
        0 -1 41176 -2.8833835385739803e-03</internalNodes>
      <leafValues>
        -8.5192453861236572e-01 7.3988251388072968e-02</leafValues></_>
    <_>
      <internalNodes>
        0 -1 25982 7.4162051081657410e-02</internalNodes>
      <leafValues>
        -1.2427453696727753e-01 4.1923156380653381e-01</leafValues></_>
    <_>
      <internalNodes>
        0 -1 47071 -1.9212862476706505e-02</internalNodes>
      <leafValues>
        4.1105034947395325e-01 -1.1884146183729172e-01</leafValues></_>
    <_>
      <internalNodes>
        0 -1 33895 5.2966643124818802e-04</internalNodes>
      <leafValues>
        -1.6650424897670746e-01 2.6042884588241577e-01</leafValues></_>
    <_>
      <internalNodes>
        0 -1 41243 -3.1152201700024307e-04</internalNodes>
      <leafValues>
        1.7013458907604218e-01 -2.4374616146087646e-01</leafValues></_>
    <_>
      <internalNodes>
        0 -1 38517 -2.0005833357572556e-03</internalNodes>
      <leafValues>
        -6.6327315568923950e-01 5.4869078099727631e-02</leafValues></_>
    <_>
      <internalNodes>
        0 -1 39239 -2.6879704091697931e-04</internalNodes>
      <leafValues>
        1.6768346726894379e-01 -2.4174676835536957e-01</leafValues></_>
    <_>
      <internalNodes>
        0 -1 37069 -6.4643002115190029e-03</internalNodes>
      <leafValues>
        3.8755074143409729e-01 -1.0753977298736572e-01</leafValues></_>
    <_>
      <internalNodes>
        0 -1 37711 3.9533888921141624e-03</internalNodes>
      <leafValues>
        5.8964878320693970e-02 -8.6519777774810791e-01</leafValues></_>
    <_>
      <internalNodes>
        0 -1 43182 -1.2805289588868618e-03</internalNodes>
      <leafValues>
        2.3949086666107178e-01 -1.7474481463432312e-01</leafValues></_>
    <_>
      <internalNodes>
        0 -1 37711 -1.7670609522610903e-03</internalNodes>
      <leafValues>
        -5.7067471742630005e-01 7.9417385160923004e-02</leafValues></_>
    <_>
      <internalNodes>
        0 -1 23622 -3.3195249736309052e-02</internalNodes>
      <leafValues>
        4.5907327532768250e-01 -9.6235036849975586e-02</leafValues></_>
    <_>
      <internalNodes>
        0 -1 35103 3.1360439024865627e-03</internalNodes>
      <leafValues>
        -1.7235243320465088e-01 2.3475106060504913e-01</leafValues></_>
    <_>
      <internalNodes>
        0 -1 34392 -6.8874973803758621e-03</internalNodes>
      <leafValues>
        3.5098734498023987e-01 -1.4852751791477203e-01</leafValues></_>
    <_>
      <internalNodes>
        0 -1 32066 7.5421417132019997e-03</internalNodes>
      <leafValues>
        6.9890521466732025e-02 -8.2510232925415039e-01</leafValues></_>
    <_>
      <internalNodes>
        0 -1 37819 6.4707711338996887e-02</internalNodes>
      <leafValues>
        -1.2253034114837646e-01 4.1684573888778687e-01</leafValues></_>
    <_>
      <internalNodes>
        0 -1 28391 7.9677384346723557e-03</internalNodes>
      <leafValues>
        -1.0743393748998642e-01 3.6963054537773132e-01</leafValues></_>
    <_>
      <internalNodes>
        0 -1 47571 -1.7405762337148190e-03</internalNodes>
      <leafValues>
        2.6913815736770630e-01 -1.4455741643905640e-01</leafValues></_>
    <_>
      <internalNodes>
        0 -1 45583 -3.9291377179324627e-03</internalNodes>
      <leafValues>
        -6.3633269071578979e-01 6.0727883130311966e-02</leafValues></_>
    <_>
      <internalNodes>
        0 -1 24790 2.7077203616499901e-02</internalNodes>
      <leafValues>
        6.8699970841407776e-02 -4.8120614886283875e-01</leafValues></_>
    <_>
      <internalNodes>
        0 -1 34224 1.7083145678043365e-02</internalNodes>
      <leafValues>
        4.6191237866878510e-02 -7.5846624374389648e-01</leafValues></_>
    <_>
      <internalNodes>
        0 -1 41892 -2.9291606042534113e-03</internalNodes>
      <leafValues>
        1.7512230575084686e-01 -2.0982649922370911e-01</leafValues></_>
    <_>
      <internalNodes>
        0 -1 22174 -7.5701616704463959e-02</internalNodes>
      <leafValues>
        8.4693068265914917e-01 -3.9370898157358170e-02</leafValues></_>
    <_>
      <internalNodes>
        0 -1 37372 3.8701251614838839e-03</internalNodes>
      <leafValues>
        1.1821530014276505e-01 -3.3993279933929443e-01</leafValues></_></weakClassifiers></stage6>
</opencv_storage>
